<?xml version="1.0"?>
<opencv_storage>
<opencv_ml_svm>
  <format>3</format>
  <svmType>C_SVC</svmType>
  <kernel>
    <type>LINEAR</type></kernel>
  <C>1.</C>
  <term_criteria><iterations>1000</iterations></term_criteria>
  <var_count>4032</var_count>
  <class_count>2</class_count>
  <class_labels type_id="opencv-matrix">
    <rows>2</rows>
    <cols>1</cols>
    <dt>i</dt>
    <data>
      0 1</data></class_labels>
  <sv_total>1</sv_total>
  <support_vectors>
    <_>
      -1.89023165e-04 -1.84462566e-04 -2.01421411e-04 -9.06851928e-05
      -5.12885126e-05 -5.55246443e-05 -9.68292807e-05 -8.54904574e-05
      -9.32839539e-05 -4.21253244e-05 1.36630973e-07 -2.72349062e-05
      -5.24884927e-05 -4.01098478e-05 -4.50038096e-05 -7.12230103e-05
      -6.27236659e-05 -2.51027523e-05 5.30608850e-06 -6.70449617e-06
      1.11577838e-05 4.39177275e-05 4.98197260e-05 -3.35212353e-05
      -9.22734544e-05 -7.43264245e-05 -2.49981422e-05 2.83629088e-05
      3.29057912e-05 4.18069394e-05 -7.58921442e-06 -2.38985995e-05
      -1.02642052e-05 1.13903652e-05 3.89542438e-05 9.36884862e-06
      -1.15912617e-05 -6.33773161e-05 -7.63024218e-05 -7.89279147e-05
      -7.91276834e-05 -2.10054895e-05 -2.91765955e-05 -4.59775147e-05
      -5.64282564e-05 -3.84551277e-05 -5.66682756e-05 -6.52695744e-05
      -8.56830593e-05 -1.07297987e-04 -1.35232462e-04 -1.77422233e-04
      -2.09240068e-04 -2.36543361e-04 -1.80690433e-04 -9.59751342e-05
      -2.95080299e-05 -2.16387998e-05 -9.09925711e-06 1.91934796e-05
      -7.74435684e-05 -9.34188720e-05 -5.05392418e-05 -7.60973853e-05
      -5.38589738e-05 -2.59108274e-05 -1.80658972e-05 -3.75097011e-06
      -6.92792219e-06 4.64463446e-05 8.81101078e-05 5.32959639e-05
      -1.25518809e-05 -8.75665355e-05 -1.02454760e-04 -6.57480996e-05
      -3.92069669e-05 -9.41098842e-05 -1.01935373e-04 -4.57407114e-05
      -9.44280400e-05 -1.21384481e-04 -3.46091183e-05 6.46486806e-05
      1.07057756e-04 8.96013516e-05 1.36831450e-05 -8.86760881e-06
      -4.63890865e-05 -3.10846772e-05 5.22189512e-05 7.02433026e-05
      8.90310621e-05 9.00057057e-05 4.47233397e-05 8.63745208e-06
      -4.74253284e-05 -1.41542450e-05 -1.63503646e-05 8.55805865e-06
      -1.18256785e-05 -7.99408781e-07 6.97222276e-06 -1.34517186e-05
      -5.57560543e-06 7.79541151e-05 1.13435693e-04 1.77632959e-04
      1.61713790e-04 1.25097184e-04 1.20081291e-04 1.49755782e-04
      1.58240582e-04 6.17097103e-05 1.55440466e-05 -1.44321533e-07
      3.19134087e-05 2.19424655e-05 -2.23351617e-05 -2.03961499e-05
      -3.54051554e-05 -1.30629257e-06 -1.76259055e-05 -7.51215703e-05
      -6.13480079e-05 -4.37406525e-05 -4.86061690e-05 -9.02453758e-06
      -4.80287927e-05 -5.08294142e-05 -2.53829312e-05 2.48693141e-05
      5.78798899e-05 1.01005127e-04 1.58440787e-04 2.02930445e-04
      2.25574695e-04 1.75875713e-04 1.06406958e-04 6.57816054e-05
      -4.77380763e-06 -9.75933472e-06 3.35090808e-05 6.87222782e-05
      -2.28861303e-04 -9.64445790e-05 -1.22545098e-04 -1.51903645e-04
      -1.60764874e-04 -1.43067984e-04 -6.96499192e-05 -5.40443898e-06
      6.21786057e-06 8.66057671e-05 1.15158720e-04 9.83157806e-05
      7.73281718e-05 7.97059110e-05 5.39315115e-05 3.12192424e-05
      3.85709718e-05 4.21421864e-05 1.42749377e-05 -7.54500797e-06
      -1.61180178e-05 5.03295014e-05 1.07885266e-04 7.01845347e-05
      5.40381952e-05 5.60626977e-05 5.03541487e-05 8.86439739e-05
      7.63804783e-05 5.16061264e-05 4.78089169e-05 1.76080357e-05
      2.70835280e-05 4.94873202e-05 8.69476426e-05 5.07057812e-05
      8.64388130e-06 3.48613594e-06 4.33729074e-05 9.64583796e-06
      -5.80857886e-06 8.33619106e-06 -9.88587453e-06 -7.16307841e-05
      -5.33646162e-05 4.99481985e-06 4.73638147e-06 2.57225856e-05
      -2.24422220e-05 -2.52971604e-05 -6.26620385e-05 -1.32110203e-04
      -1.59720148e-04 -1.43910773e-04 -8.98169019e-05 -6.57093624e-05
      5.12369411e-07 6.39882201e-05 1.07052692e-04 1.10130335e-04
      1.86512771e-05 -2.22134295e-05 -4.41165612e-05 -4.25961334e-05
      1.71154788e-05 5.46427145e-07 1.82979311e-05 3.79929224e-05
      5.10427417e-05 1.19587901e-04 1.36142931e-04 2.61150326e-05
      -2.92754521e-05 1.37429879e-06 1.54203099e-05 2.17421111e-05
      1.83667780e-05 -1.04294704e-05 -1.72478194e-05 -3.60602389e-05
      -6.25763932e-05 -4.99765374e-05 1.60350810e-05 4.68516555e-05
      8.79943309e-06 -3.86988977e-05 -7.78078611e-05 -8.12883300e-05
      -7.73449210e-05 -2.16040826e-05 -3.77187462e-05 1.38932182e-05
      6.63281244e-05 7.61511619e-05 -3.21736152e-05 -1.68548620e-04
      -2.08735408e-04 -1.46859471e-04 -5.03778683e-05 -3.77481956e-05
      -4.22637604e-05 -2.17246306e-05 -8.14231826e-05 -1.08210552e-04
      -1.20106459e-04 -3.90762980e-05 4.17203737e-05 5.78948238e-05
      1.00164136e-04 6.55743570e-05 4.75377747e-05 9.39745078e-05
      1.05965097e-04 4.47266611e-05 6.53473535e-06 2.35958469e-05
      2.82150722e-06 5.83910369e-05 4.71368949e-05 6.23893220e-06
      1.28047677e-05 -5.66121889e-05 -2.58603268e-05 -5.85321795e-05
      -7.68167884e-05 -4.30070249e-05 -2.28247609e-05 2.89178588e-05
      2.17899778e-05 3.78055411e-05 3.66940694e-05 -1.70366893e-05
      -3.61738103e-06 4.67425998e-05 9.81865887e-05 1.68655140e-04
      1.47082552e-04 1.01862213e-04 6.18863050e-05 4.04507546e-06
      -3.03932302e-05 -6.53022653e-05 -7.06748688e-05 -7.50668332e-05
      -1.29629727e-04 -8.96603669e-05 -5.17678309e-05 -8.43338421e-05
      -1.02463673e-04 -9.82548954e-05 -9.29931193e-05 -8.99022343e-05
      -5.18154775e-05 -2.55000177e-05 4.48351093e-05 1.27762487e-05
      -7.84276199e-06 1.20466229e-05 3.18689708e-05 1.65469908e-06
      1.30898229e-06 4.62187418e-05 7.47747890e-06 -3.78405712e-05
      -4.86220451e-05 -2.63610164e-05 6.31383227e-05 5.79134139e-05
      6.17406986e-05 -7.86050259e-06 -2.10423023e-05 2.08967303e-05
      2.56683597e-05 6.60359510e-05 8.70815493e-05 8.92006719e-05
      5.74132027e-05 5.24572934e-05 2.45851770e-05 1.46317707e-05
      -1.35646869e-05 -1.70314452e-05 -1.20795230e-05 -1.47705277e-05
      -4.08079650e-05 -7.74104501e-06 3.55983934e-06 -1.52236169e-06
      5.70865559e-05 2.94957754e-05 -4.09821005e-05 -7.19549871e-06
      2.77876438e-06 -4.96116154e-05 -8.54399186e-05 -9.24121050e-05
      -1.13351809e-04 -1.25933118e-04 -8.11264763e-05 -3.03893721e-05
      -5.41003283e-06 4.03249469e-05 6.75236952e-05 6.83332764e-05
      1.08525375e-04 8.73074387e-05 8.71008597e-05 6.36035693e-05
      6.56503398e-05 8.34501334e-05 1.04539344e-04 1.36281975e-04
      1.15065603e-04 9.68836757e-05 5.65709779e-05 -1.92159350e-05
      -5.69698386e-05 2.95737618e-06 1.09864523e-04 1.05683866e-04
      2.08551101e-05 -2.30280657e-05 3.72938439e-06 -5.92869947e-05
      -1.14906608e-04 -1.17535958e-04 -8.73540048e-05 -1.38018702e-04
      -1.81875905e-04 -1.23288497e-04 -4.56195739e-05 -1.05610947e-04
      -1.27476756e-04 -1.69492225e-04 -6.69982619e-05 1.53389301e-05
      1.25924216e-05 5.58997453e-06 3.40966435e-05 6.36748791e-06
      -5.67712123e-05 -1.57199407e-04 -3.14598219e-05 3.96651740e-05
      2.19621015e-05 -3.04040313e-05 -3.66979316e-06 -1.51933355e-05
      -7.97614757e-06 6.65311018e-05 1.26998289e-04 8.92857352e-05
      1.59797622e-04 1.49010724e-04 5.88426410e-05 5.98308834e-05
      6.40587823e-05 5.61780435e-05 4.94859414e-05 5.51884295e-05
      8.64783724e-05 9.31789036e-05 1.05521736e-04 8.71417651e-05
      1.09374392e-04 6.13544762e-05 -3.72490945e-06 -9.11682582e-06
      1.72738419e-05 1.36557974e-05 1.34233496e-05 5.85415510e-05
      7.40468677e-05 1.14046808e-04 1.41826458e-04 1.51114582e-04
      1.32487810e-04 1.10214409e-04 1.21021381e-04 1.57011018e-04
      1.55295435e-04 1.02713668e-04 -3.43397915e-06 -9.82399979e-06
      -1.66041882e-05 -8.46716212e-05 -5.92644355e-05 -7.75520602e-05
      -6.15726021e-05 -6.77029384e-05 -4.70075029e-05 -4.28294989e-05
      -5.09014098e-05 -3.14260978e-05 -4.27461346e-05 -6.53047664e-06
      4.92501604e-05 -3.24194007e-05 -2.89994441e-05 -3.27848102e-05
      -5.73633515e-05 -4.45950027e-05 -5.63550166e-05 -7.02627804e-05
      -5.88556868e-05 -7.99199479e-05 -3.47377900e-05 -4.09356835e-05
      -6.51724549e-05 -7.24670099e-05 -3.49141228e-05 -4.08666019e-05
      -4.30267064e-05 -9.60752877e-05 -8.41915025e-05 -5.55984989e-05
      -6.26002611e-06 1.01941223e-05 5.27052944e-05 7.24778874e-05
      4.62953267e-06 9.63358525e-06 -1.60705076e-05 -3.12184493e-05
      -1.47393366e-05 -3.38249229e-05 -4.47630773e-05 -8.38733249e-05
      -7.20680400e-05 -4.15461000e-05 -1.72860618e-05 -2.92755194e-05
      4.38371126e-06 3.35524055e-05 5.55736078e-05 5.53198370e-05
      2.05476845e-05 2.26014126e-05 1.95495868e-05 -1.70720141e-05
      -1.12515911e-04 -1.27218169e-04 -2.75674702e-05 3.78608711e-05
      -2.44804851e-05 -4.10368466e-06 6.95938115e-06 -3.33595490e-05
      1.50706219e-05 5.85052039e-05 7.05110942e-05 6.39678692e-05
      6.68181237e-05 4.72853862e-05 3.79124758e-05 7.19230738e-05
      2.36808137e-05 -2.85147162e-05 -5.55600855e-05 -1.18547532e-05
      1.10561386e-05 -3.27072703e-05 2.69866232e-05 8.46181356e-05
      1.17643256e-04 5.95208912e-05 3.39245271e-05 1.59490428e-05
      -2.74977119e-05 -7.92789215e-05 -1.05756866e-04 -1.29314692e-04
      -1.67599908e-04 -1.72871078e-04 -8.28062257e-05 -2.80785207e-05
      -6.95689523e-05 -1.34852555e-04 -1.63617427e-04 -1.22394194e-04
      -1.54584137e-04 -1.61401491e-04 -2.04793658e-04 -1.64795230e-04
      -1.11857757e-04 -1.33200418e-04 -1.10361136e-04 -1.06020809e-04
      -1.23580539e-04 -1.68592655e-04 -1.09107248e-04 -1.13493166e-04
      -8.53838210e-05 -2.84401340e-05 3.36223966e-05 1.34785087e-05
      3.40862680e-05 1.01305159e-05 1.61758289e-05 3.30121293e-05
      2.22196081e-06 -3.12720567e-06 -1.59189694e-05 -3.67990215e-05
      -1.52039192e-05 1.50678643e-05 -5.73560692e-06 2.27247210e-06
      4.30959199e-06 -2.26214179e-05 -6.75535921e-05 -7.56143418e-05
      -6.99859156e-05 -9.05556517e-05 -9.30581227e-05 -5.97880353e-05
      -2.90681528e-05 -5.01206814e-05 -5.28036253e-05 -2.55560062e-05
      -1.56730239e-05 1.78325274e-06 -1.66674381e-05 -6.87855436e-06
      1.81569285e-05 1.80227034e-05 -7.36006086e-06 -1.79489198e-05
      2.39757355e-05 2.37344852e-06 -3.72959585e-05 -6.83380931e-05
      -9.53733615e-05 -1.15339928e-04 -8.60738946e-05 -2.22640529e-06
      5.12585721e-05 6.44899555e-05 8.13526003e-06 1.28118609e-05
      5.85380658e-05 6.46326735e-05 4.95265231e-05 3.79575540e-05
      -1.63873174e-05 7.93971776e-06 -3.07508094e-06 -1.67728322e-05
      -1.45995400e-05 -5.79757871e-05 -7.27961524e-05 -1.00318852e-04
      -3.03010038e-05 -3.78869991e-05 -2.94647416e-05 -2.24574032e-05
      -3.50954069e-05 -7.38906674e-05 -4.09716995e-05 -3.03217275e-05
      -5.76785260e-06 4.09743443e-05 2.86792838e-05 -1.95867342e-05
      -1.47524279e-05 1.07865753e-05 2.31627764e-05 -3.44911787e-05
      -1.72653799e-05 -7.57390171e-06 3.29850700e-05 5.05461940e-05
      3.70175439e-05 2.38065186e-05 2.16388089e-05 3.34136712e-05
      5.34162536e-05 6.30448412e-05 7.61654956e-05 6.69445944e-05
      4.62741809e-05 7.74832661e-05 7.13441768e-05 6.05741916e-05
      7.81184826e-06 2.09927907e-06 7.76322850e-05 1.31200039e-04
      6.42740779e-05 1.14346563e-04 5.39291250e-05 -4.05196952e-05
      2.78383959e-06 2.95561113e-05 8.51185105e-05 1.12596797e-04
      1.22706479e-04 8.62949601e-05 1.81503619e-05 7.72215208e-06
      1.44868018e-05 1.67441685e-05 5.02922485e-05 5.86857677e-05
      5.24169518e-05 8.75943988e-06 4.01941252e-05 9.75691291e-05
      1.07541338e-04 1.29988664e-04 8.11781501e-05 7.82981151e-05
      5.90138261e-05 1.17877744e-06 -5.00745546e-06 -5.87383111e-05
      -8.59315260e-05 -7.85573575e-05 -6.77818825e-05 -6.90438246e-05
      -2.05222495e-05 2.03661439e-05 7.39786083e-06 1.85747396e-07
      7.46316027e-06 5.01359755e-05 4.55491772e-06 -7.21218603e-05
      -5.55115839e-05 -4.29858846e-05 -4.87242723e-05 -4.54743640e-05
      -7.59161485e-05 -1.59473479e-04 -1.39831202e-04 -1.08746870e-04
      -4.95363820e-05 2.08538968e-05 6.64253603e-05 5.36709958e-05
      3.73937946e-05 2.43680406e-05 3.36698176e-05 6.24976019e-05
      5.08686426e-05 1.90194646e-06 3.73601370e-06 -5.36870812e-06
      -4.04980819e-05 5.00330543e-06 -9.14916029e-07 -1.48711260e-05
      -2.32628245e-05 -8.56093357e-06 2.06830009e-05 6.66748238e-05
      7.44295976e-05 5.61617417e-05 -1.68265269e-05 -4.50769912e-05
      -7.45998695e-05 -9.44891653e-05 -5.95962847e-05 -4.80605522e-05
      -1.81489995e-05 -2.52281807e-05 1.68842907e-05 4.39952892e-05
      -1.11350009e-05 -3.87138716e-05 -3.72409231e-05 -1.10454766e-05
      2.20475886e-05 -4.97995752e-05 -6.25603789e-05 -6.68666689e-05
      2.24304880e-04 1.94808585e-04 1.78624425e-04 1.49473461e-04
      1.26381783e-04 1.08327367e-04 1.16482071e-04 1.23776146e-04
      9.38525773e-05 9.10403542e-05 1.06758780e-04 1.37944764e-04
      1.18738593e-04 9.90191984e-05 1.08312328e-04 7.32835470e-05
      1.11366156e-04 1.31814319e-04 5.54212857e-05 3.54583317e-05
      1.08244029e-04 9.83604114e-05 1.53669083e-04 1.34295595e-04
      7.73080756e-05 2.19633093e-05 9.82582969e-06 6.20730452e-06
      4.78454713e-05 7.97909888e-05 2.63104193e-05 1.48165718e-05
      4.10088214e-05 7.06696374e-05 6.02601031e-05 4.89991980e-05
      -8.75735350e-06 -2.92179266e-05 -6.29598071e-06 1.72693235e-05
      7.40801843e-05 7.66478988e-05 7.54089124e-05 8.24259623e-05
      6.95482013e-05 1.83266384e-05 -7.68637335e-07 3.46993038e-05
      1.66237078e-05 1.90606479e-05 4.60747106e-05 5.00716342e-05
      -1.87819387e-05 -8.07748947e-05 -5.05922217e-05 -7.37190157e-06
      1.99951046e-05 6.98220174e-05 4.15498544e-05 -8.09248813e-05
      -7.60861367e-05 -8.34082766e-06 7.07044528e-05 3.39384605e-05
      1.83891480e-05 1.36891640e-05 -2.73258011e-05 -1.15277971e-05
      6.35033721e-05 9.85800216e-05 1.21516314e-04 1.11091395e-04
      7.13039335e-05 5.31212754e-05 1.97724676e-05 9.90783883e-06
      -1.32854329e-05 4.62005664e-05 5.47243289e-05 -3.21925691e-05
      -3.76100761e-05 -2.50273897e-05 -4.24226600e-05 -7.70819024e-05
      -8.37110856e-05 -2.15575710e-05 2.16336339e-05 3.85429812e-05
      6.97962023e-05 7.58128153e-05 2.07408993e-05 -3.17193189e-06
      -2.11439929e-05 -2.19148187e-05 -1.10830188e-05 -4.56932976e-05
      2.56321641e-06 1.48239969e-05 1.79986000e-05 6.08593182e-05
      8.60713044e-05 5.67059506e-05 1.36618119e-05 5.08981939e-05
      1.24558734e-04 1.15546471e-04 1.39764656e-04 2.04290642e-04
      2.60253932e-04 2.75945553e-04 1.87438214e-04 1.83949291e-04
      1.68287908e-04 9.28036097e-05 5.99246923e-05 6.55022304e-05
      8.80663938e-05 1.43412355e-04 1.54998008e-04 1.59765230e-04
      1.76864094e-04 1.84148157e-04 2.05699980e-04 1.67025748e-04
      1.18295611e-04 9.30666429e-05 4.62508324e-05 -7.88555826e-06
      -3.04183632e-05 -6.74927796e-05 -6.13355660e-05 -7.30642059e-05
      -4.63567631e-05 -2.10397884e-05 1.28434494e-05 3.28561619e-05
      5.20934627e-05 4.81474381e-05 3.04312052e-05 5.08098055e-05
      3.12350421e-05 -3.99019154e-05 -5.84252666e-05 -9.90831904e-05
      1.62522483e-04 1.13805560e-04 1.12165748e-04 1.15259762e-04
      7.31036635e-05 4.71847088e-05 9.27079818e-05 6.90984380e-05
      7.32995759e-05 4.96604516e-05 4.40108597e-05 4.99810048e-05
      6.93248876e-05 7.08949738e-05 9.52193150e-05 5.81449276e-05
      4.57438582e-05 9.38851226e-05 1.14175709e-04 1.42317498e-04
      1.87653321e-04 2.06112672e-04 2.32083752e-04 2.28214631e-04
      1.50790933e-04 6.72354799e-05 6.44652973e-05 8.90652300e-05
      1.13446804e-04 1.25290055e-04 9.75857620e-05 7.27105144e-05
      5.68643190e-05 1.82192707e-05 5.55984479e-06 3.14961035e-05
      4.23487545e-05 6.55409240e-05 5.66864001e-05 1.22599540e-05
      1.79931667e-05 -1.60523268e-05 -2.83222525e-05 -6.28121998e-05
      -4.29048523e-05 3.62282153e-05 7.46157966e-05 5.41671543e-05
      -2.93900348e-06 -2.57453194e-05 3.77416036e-05 3.07302726e-05
      -7.92375140e-05 -1.01412668e-04 -7.29978128e-05 -1.13723858e-04
      -1.03429826e-04 -8.38462365e-05 -6.51850278e-05 -1.08119537e-04
      -6.46807748e-05 5.16455257e-05 7.31028267e-05 5.49511969e-05
      3.94914641e-05 5.79972257e-05 5.92614015e-05 2.73243513e-05
      2.39291039e-05 6.90461138e-06 1.36255039e-05 1.89785733e-05
      1.90664161e-06 -1.11540194e-05 -2.97550991e-06 -2.05913193e-06
      1.05535246e-05 5.75864215e-05 4.89474260e-05 2.69424618e-05
      1.95820178e-07 7.93521849e-06 1.98896323e-05 2.82476358e-05
      -2.18204747e-07 6.93261518e-06 2.95601712e-05 -2.31188828e-08
      -8.12448434e-07 2.62486974e-05 -2.09523364e-06 2.47060252e-05
      6.79294608e-05 5.08628036e-05 3.79224839e-05 2.80918830e-05
      7.49653118e-05 6.86430867e-05 3.05067442e-05 3.78401710e-05
      1.15787305e-04 6.67097629e-05 5.22759437e-05 8.73295066e-05
      9.64447172e-05 9.02910469e-05 6.06240901e-05 3.70582711e-05
      6.93406037e-05 1.18255142e-04 9.72223861e-05 1.22041623e-04
      7.93330328e-05 3.65653577e-05 3.87418504e-06 -3.71051719e-05
      -3.91994108e-05 -1.88573904e-06 4.05803257e-05 1.18357537e-04
      9.33332194e-05 1.02342921e-04 1.46354432e-04 2.13232503e-04
      2.00225521e-04 8.73251411e-05 1.83382090e-05 -1.53477213e-05
      1.04988239e-05 1.64828161e-05 2.38851662e-05 -3.96333519e-07
      2.93379380e-05 1.10993918e-04 1.01389938e-04 1.23015387e-04
      6.53201932e-05 2.97577099e-05 -1.80366878e-05 5.74632122e-06
      4.53406437e-06 -8.56020706e-05 -6.08248447e-05 -1.28081985e-04
      1.78017035e-05 -2.26234788e-05 4.19947992e-06 2.81227894e-05
      2.98280538e-05 -2.81968751e-05 5.19080822e-06 -6.46075277e-05
      -7.35223657e-05 -5.51239173e-05 -4.41736120e-05 -2.67934356e-05
      -3.11642907e-05 -4.39169962e-05 -1.87365060e-06 -4.57677233e-05
      -6.71646994e-05 -3.83326369e-05 -1.73270964e-05 -1.72350337e-05
      9.39560596e-06 6.93652783e-06 4.20057113e-05 8.80881125e-05
      9.58086457e-05 9.29695743e-05 1.22681420e-04 1.09761713e-04
      4.74178159e-05 -3.18758225e-06 -2.76714782e-05 -2.84449252e-05
      1.31874840e-05 -5.26244912e-05 -6.46659319e-05 -6.08413757e-06
      -6.79311734e-06 -1.17312002e-05 1.81756768e-05 1.22805723e-05
      -6.07400898e-06 -2.75954935e-05 -6.96994975e-05 -8.94905825e-05
      -7.55358196e-05 1.68262959e-05 2.72719135e-05 -1.25723445e-05
      -3.37456913e-05 -3.72063259e-05 -2.71729750e-05 6.12008153e-05
      4.83982330e-05 1.34538086e-05 1.46076381e-05 -2.87670155e-05
      -7.50629843e-05 -1.23476420e-05 -9.67552933e-06 -2.29157267e-05
      1.18838534e-05 5.35286636e-05 4.70310079e-05 5.59811997e-05
      6.36904297e-05 1.41147912e-05 -3.62161554e-05 -8.86730220e-07
      6.21087675e-05 9.98756586e-05 1.56502530e-04 1.25889157e-04
      8.60377259e-05 5.96960272e-05 5.16183791e-05 4.36483715e-05
      3.71891656e-05 9.19268350e-05 1.36233357e-04 1.14247050e-04
      6.81862657e-05 9.78202297e-06 4.20297038e-05 3.76766693e-05
      1.31552342e-05 3.35041368e-05 2.65172162e-06 -3.02228273e-05
      -1.44300220e-05 2.31879185e-05 -1.15155945e-05 -5.06807264e-05
      -1.82085241e-05 -1.28375731e-07 -2.33037699e-05 -8.04128067e-05
      -4.07371263e-05 -6.87812280e-06 1.47368537e-05 6.17621117e-05
      9.72788403e-05 4.33178320e-05 -3.02101125e-05 -2.39722176e-05
      1.20012683e-05 2.40981740e-06 -2.65139024e-05 -3.15111392e-05
      8.40740267e-06 4.89375598e-05 4.99882772e-05 4.34801586e-05
      -6.11174968e-08 -3.75666714e-05 -5.85859780e-05 -6.17811529e-05
      -1.83046759e-05 9.16486806e-06 -6.85557607e-05 2.64119990e-05
      5.97102517e-05 8.61405442e-06 3.08240415e-05 7.53689674e-05
      6.75560150e-05 6.91003588e-05 6.64688341e-05 -2.35349921e-06
      -5.94846570e-05 -2.40822883e-05 -3.41979394e-05 -4.54066412e-06
      -9.18979204e-05 -2.09452028e-05 4.97982437e-05 1.26245955e-04
      1.00697696e-04 4.09027780e-05 3.14901772e-05 2.51807269e-05
      2.47691878e-05 -1.54522204e-05 3.71305214e-05 -2.80430704e-05
      -1.04098499e-05 -1.22910615e-05 5.99986947e-07 -7.75445151e-05
      -8.88724026e-05 -2.42400965e-05 -1.98409634e-05 1.66647224e-05
      4.08834203e-05 5.43380047e-05 2.83493810e-05 -1.52178909e-05
      -7.53239738e-06 1.20651123e-06 3.59450387e-05 2.65672497e-06
      -2.02421652e-05 -1.45916092e-05 -4.02107480e-06 3.84901723e-05
      7.28817322e-05 6.63455576e-05 4.90189304e-05 2.76746687e-05
      6.37482444e-05 5.05233838e-05 4.39233518e-05 -3.49067591e-06
      -4.92646650e-05 6.84961287e-06 5.14079466e-06 -6.56939346e-06
      -2.38609164e-06 -1.09726279e-05 -2.43343857e-05 9.91153956e-06
      -3.14803365e-05 -3.00999600e-05 -7.65429104e-06 -3.46882043e-05
      -1.33574958e-05 -4.08269188e-05 -6.75947158e-05 -4.33986861e-05
      1.26833020e-05 2.88431002e-05 -6.54395044e-05 -6.73070608e-05
      -7.44226490e-05 -1.23754144e-04 -1.03732636e-04 -3.84169107e-05
      -8.95647918e-06 1.59688025e-05 2.07665016e-05 -1.57587638e-05
      -1.10446861e-04 -7.79842449e-05 -9.47782246e-06 -1.12871362e-06
      4.48239043e-05 3.86303982e-05 2.57147240e-05 7.02683683e-05
      1.06552834e-04 8.09089834e-05 -1.11020472e-06 -1.90455230e-05
      2.15496893e-05 5.39288303e-05 9.43264822e-05 1.22882455e-04
      7.43185665e-05 8.23173395e-05 1.42438352e-04 1.36608578e-04
      1.52849447e-04 2.28477787e-04 1.75914349e-04 5.65162045e-05
      1.69673422e-05 -2.55707018e-05 -2.85607966e-05 -5.70245038e-06
      3.61185666e-05 9.83486389e-05 8.30005447e-05 7.51381776e-06
      -5.49860533e-06 8.43460584e-05 6.05773675e-05 1.89319253e-05
      2.79568553e-06 4.58792929e-05 1.21029596e-04 3.07433329e-05
      2.06411278e-05 6.30242430e-05 3.30468974e-05 3.61149396e-05
      5.35418840e-05 -1.30156568e-05 -1.21174162e-05 -2.66661773e-05
      -1.33587982e-05 5.40207402e-05 4.74897897e-05 1.51528830e-05
      -3.90860890e-07 1.68949391e-05 -1.81983487e-05 -7.04242702e-05
      -8.16704560e-05 -9.29198359e-05 -7.76643865e-05 -8.92073658e-05
      -1.04298007e-04 7.94545304e-06 -2.45006249e-05 -4.23387937e-05
      2.07326866e-05 6.05859641e-05 1.29527893e-04 1.12194437e-04
      9.48513407e-05 1.23754318e-04 1.76113477e-04 1.61989214e-04
      6.29576753e-05 5.83035326e-05 5.86827700e-05 -1.32572814e-05
      -5.15684151e-05 -2.58817436e-05 -9.83509835e-06 1.67428461e-05
      8.11615610e-05 9.03257314e-05 7.25998616e-05 1.15018454e-04
      1.13983318e-04 1.51905442e-05 5.37238557e-05 3.18150014e-05
      1.86822472e-05 -9.78932985e-06 -5.75247896e-06 -1.59564879e-05
      -1.40078737e-05 2.11011211e-05 4.52063941e-05 6.60189471e-05
      3.93141672e-05 3.49322399e-05 1.61903063e-05 -2.99728872e-05
      -2.87275470e-05 1.08968170e-05 -1.89857383e-05 -2.77343916e-05
      1.87604348e-06 -1.43641400e-05 -2.96693379e-05 -1.94669447e-05
      4.96228313e-06 -2.73416699e-05 -3.96273354e-05 3.54944932e-05
      6.88490618e-05 3.51285380e-05 4.24767604e-05 2.50666144e-05
      -1.13867127e-05 -1.11767085e-05 3.93725823e-05 2.51380225e-05
      -2.48582073e-05 -5.52959818e-06 -1.76808062e-05 1.90383344e-06
      6.52028903e-05 7.26558574e-05 1.08154054e-04 7.71337654e-05
      5.42271046e-05 1.14487229e-04 1.47632629e-04 1.19661032e-04
      8.11281352e-05 1.88162776e-05 -6.13536686e-05 -1.21108715e-05
      2.07496032e-05 -1.12742346e-04 -1.10016146e-04 -4.57244496e-05
      2.25977383e-05 7.96739259e-05 1.08808403e-04 5.03554911e-05
      -5.95988859e-05 -1.98001308e-05 2.11790539e-05 -4.92729714e-06
      1.34997038e-06 -6.93375887e-06 3.26894587e-05 6.76431737e-05
      6.32638621e-05 4.59806506e-05 4.97340661e-05 4.86417775e-05
      6.88704604e-05 6.28659400e-05 6.70474110e-05 3.77638280e-05
      4.22685262e-05 9.29579473e-05 1.39860378e-04 1.18339827e-04
      8.99993829e-05 1.58889670e-04 1.26323750e-04 1.07217849e-04
      4.34576286e-05 -7.29850490e-06 -3.97465374e-06 3.16584046e-05
      5.29443168e-05 7.56184963e-05 2.48724409e-05 -3.71814240e-05
      -6.63495448e-05 -9.39582605e-05 -1.82090716e-05 -7.45316947e-06
      -2.44323001e-05 1.19672868e-05 3.93109804e-05 -5.22509290e-05
      -1.01941019e-07 -1.27175790e-05 -2.31453014e-05 -2.61556143e-05
      -1.79781164e-05 -1.49025500e-05 -1.08033464e-05 1.72571799e-05
      -2.97024435e-05 -2.57463716e-06 8.17554028e-05 8.69234282e-05
      4.72449028e-05 2.60548022e-05 2.56287549e-05 7.43116834e-05
      2.74522263e-05 3.29404211e-05 4.15618924e-05 2.96347971e-05
      -7.67292647e-07 5.92183351e-05 7.21106553e-05 -3.00477222e-05
      1.54031804e-05 4.61122072e-05 1.06501248e-04 3.29243194e-05
      3.83884071e-05 1.10092362e-04 1.25098304e-04 1.54669528e-04
      4.83349068e-05 -6.03134140e-07 1.95172615e-05 8.05864056e-06
      -2.90661810e-05 -3.27806920e-05 -4.71254134e-05 -2.57690554e-05
      -3.97221265e-05 -6.21412473e-05 -4.20025162e-06 8.06841228e-07
      2.49265777e-05 7.14330508e-06 -3.71740352e-05 -2.87309231e-05
      -1.87910118e-05 -3.68257242e-05 -2.73427213e-05 -9.64028004e-07
      2.47188200e-05 9.57231823e-05 1.37394658e-04 1.32743196e-04
      9.42352417e-05 3.82103917e-06 -2.50984158e-05 -6.06155263e-05
      -2.41058133e-05 1.33756048e-05 -1.69702616e-05 -2.78763437e-05
      -2.64867631e-05 -2.93489993e-05 -8.22350921e-06 -4.37066119e-05
      -1.05384534e-04 -9.26327557e-05 2.37070549e-06 5.91020034e-05
      4.05194369e-05 6.23484157e-05 1.12775611e-04 4.26529368e-05
      -5.46154770e-05 -5.13231207e-05 -8.59108259e-05 -9.97588795e-05
      -1.03632883e-04 -2.48283868e-05 -1.07658425e-05 1.49082016e-05
      1.03258586e-04 1.07208980e-04 9.89270484e-05 8.80351581e-05
      6.94303235e-05 4.42047349e-05 9.53884155e-05 1.02232647e-04
      1.12234753e-04 1.06975582e-04 3.91870235e-05 -1.24669505e-05
      1.97092413e-05 1.39417307e-05 -3.05432195e-06 -4.93587795e-05
      -5.57833191e-05 -1.80109018e-05 3.56990713e-05 9.22476192e-06
      -1.05958850e-06 -5.09563724e-05 -9.44815765e-05 -8.96668498e-05
      -7.88681064e-05 -8.39908171e-05 -1.10708039e-04 -7.28797022e-05
      -8.55785256e-05 -1.43850979e-04 -6.65008411e-05 4.89770682e-05
      6.08956652e-05 3.32859236e-05 -7.37834898e-06 -2.96930339e-05
      1.16833326e-05 8.33048543e-05 5.02462353e-05 1.96687943e-05
      4.47243656e-05 7.36464572e-05 6.27850386e-05 6.33574818e-05
      2.85707415e-06 -6.35836404e-05 -1.73513763e-05 4.93669795e-05
      1.21530502e-04 1.74702567e-04 1.42526158e-04 1.13666290e-04
      4.55095724e-05 -3.48931826e-05 -5.58486136e-06 8.03528528e-05
      4.59880903e-05 2.06597548e-07 3.48845679e-05 2.40640220e-05
      6.82609825e-05 -5.10259633e-06 -2.33813425e-05 -1.40121683e-05
      3.91298954e-06 6.32524097e-05 6.20392748e-05 5.26711592e-05
      1.75262835e-06 2.90015905e-05 1.09995155e-04 1.00900623e-04
      1.18830147e-04 1.32288114e-04 1.10463319e-04 1.53203524e-04
      2.03773699e-04 1.20416233e-04 5.60222616e-05 -1.43690147e-06
      -2.83971913e-05 1.20560462e-05 1.06363092e-04 7.88419711e-05
      3.43946413e-05 1.17564654e-04 1.55697708e-04 9.51147831e-06
      -1.06942702e-04 -7.22229670e-05 3.00735483e-05 8.25478346e-05
      -3.03761180e-06 -1.35659707e-06 3.84097220e-05 3.58526740e-05
      -1.83190386e-05 -3.55646407e-05 -4.19466814e-05 -4.60463343e-05
      -5.64007205e-05 -4.28196654e-05 -7.89427140e-05 -1.09770561e-04
      -2.04112330e-05 -6.56625798e-06 -4.47061029e-05 -7.99916452e-05
      -1.01999321e-04 -8.04902447e-05 -6.22632506e-05 -3.19400206e-05
      5.19618043e-05 7.91529819e-05 1.27808438e-04 1.67517341e-04
      1.10727895e-04 7.39894895e-05 5.68068390e-05 2.14454394e-06
      1.00343516e-06 2.51396923e-05 -5.51637459e-06 -6.63591800e-06
      7.75305762e-06 -6.87521106e-06 -5.22305600e-05 -1.35280032e-04
      -1.76731803e-04 -2.05426986e-04 -7.06126521e-05 -8.98270230e-07
      -8.38234628e-05 2.73489331e-06 6.92703252e-05 -8.06079333e-05
      -1.98085923e-04 -1.70987943e-04 -1.33740992e-04 -9.65065337e-05
      -5.06985270e-05 1.90188002e-05 -1.95292760e-05 -7.90910199e-05
      -8.33082595e-05 -4.39144605e-06 5.30619618e-05 -1.08395370e-05
      -3.37593337e-05 -3.92069778e-05 -1.89050552e-05 6.86462954e-05
      6.65460684e-05 1.77083115e-04 1.59886768e-04 1.03490362e-04
      1.74545028e-04 1.89856044e-04 2.01294781e-04 1.08812259e-04
      2.58388955e-05 -3.23462809e-05 1.55362932e-06 1.36258759e-05
      1.92562147e-05 1.02584254e-05 -1.16555362e-04 -1.56187860e-04
      -1.71745676e-04 -1.15506664e-04 -1.46090781e-04 -1.67787832e-04
      -1.54903246e-04 -1.60408148e-04 -1.36599207e-04 -1.41382916e-04
      -7.89500846e-05 -5.15440843e-05 -8.08996774e-05 -3.20146100e-05
      7.01469107e-05 1.28253203e-04 8.72079181e-05 9.97926181e-05
      1.00574536e-04 1.78475151e-04 2.86694150e-04 1.45148850e-04
      -1.35083290e-04 -1.49097250e-04 8.08025470e-06 7.55127257e-05
      1.44090358e-04 1.99690854e-04 1.61354648e-04 2.26083619e-04
      2.37219167e-04 1.35746726e-04 9.12799660e-05 4.60450829e-05
      -7.43343771e-05 -1.82927688e-04 -7.55166693e-05 4.87355646e-05
      3.01786058e-05 3.86908796e-05 1.02467293e-05 -1.88146951e-05
      -7.34927089e-05 -1.62008655e-04 -1.16553631e-04 -8.38796313e-06
      -7.69963663e-06 -1.27643825e-05 -3.01379714e-05 4.13638300e-05
      7.62541240e-05 1.07513726e-04 1.67106497e-04 3.01959139e-04
      2.29054465e-04 3.77041761e-05 2.44202761e-06 -7.18368028e-05
      -1.40555087e-04 -1.06997373e-04 -1.20627963e-04 -1.06744919e-04
      -7.84759541e-05 3.93793671e-05 1.29322789e-05 -9.00246596e-05
      -1.50665815e-04 -1.22170954e-04 -1.17302196e-04 -3.19565515e-05
      -1.23541642e-04 -8.95258490e-05 -2.42289880e-05 -3.58668649e-06
      -5.96077189e-05 -4.25689323e-05 -4.56462913e-05 -2.99168478e-05
      -3.59205806e-05 -4.34744034e-05 -5.17374901e-05 3.79645826e-05
      6.84423430e-05 2.01968323e-05 2.60806951e-06 -1.02934566e-04
      -8.30142744e-06 -2.51972833e-05 3.83770930e-06 4.90582279e-05
      7.36457514e-05 5.61159759e-05 4.85735400e-05 8.99036022e-05
      1.34091708e-04 6.09942836e-05 7.81691997e-05 4.47666389e-05
      5.34691899e-05 -1.00439438e-05 -1.79656017e-05 -7.05752827e-05
      -5.65981718e-05 -1.60626496e-05 -4.48995743e-05 -9.19653248e-05
      -1.42079385e-04 -1.95927380e-04 -4.28811145e-05 4.88532860e-05
      -6.67729182e-05 5.55341067e-05 4.86958379e-05 -7.45977450e-05
      -8.87162096e-05 -7.57768066e-05 -7.76611614e-07 1.54165871e-04
      1.95616012e-04 2.45436240e-04 1.32871515e-04 -7.17711591e-05
      -1.33432448e-04 6.12338999e-06 9.07277717e-05 -8.36869185e-06
      -6.16369434e-05 -1.01824873e-04 3.25415840e-06 2.26304095e-04
      2.53488543e-04 1.97649977e-04 1.68337690e-04 1.54260459e-04
      1.63456920e-04 1.25508857e-04 1.39057171e-04 1.47486862e-04
      1.32240326e-04 5.82008179e-05 1.29538330e-05 9.98627274e-06
      -2.46586169e-05 -1.35777125e-04 -2.15199383e-04 -4.66608763e-05
      -4.83945987e-05 -1.13221809e-04 -2.00584007e-04 -2.19293579e-04
      -1.78596150e-04 -1.86943318e-04 -2.29023703e-04 -2.56880652e-04
      -1.59430783e-04 -3.27169801e-05 -2.31643917e-05 -1.22793135e-05
      1.36242365e-04 1.67213017e-04 1.51923727e-04 1.75885885e-04
      1.22850397e-04 1.13656803e-04 1.85387558e-04 1.20572062e-04
      -1.32076806e-04 -1.64109733e-04 -3.03366614e-05 -5.44130598e-05
      2.11292881e-05 6.89969165e-05 4.78546899e-05 1.40538059e-05
      -3.28813767e-05 -3.02107710e-05 -1.05389754e-05 -3.22027117e-05
      -2.00925115e-05 -1.39627882e-05 -4.31481067e-06 -3.23265558e-05
      6.31600460e-06 8.35927203e-05 -9.67557571e-05 -2.34040228e-04
      -1.86372374e-04 -2.64117516e-05 8.97518403e-05 -1.23954692e-06
      -9.87077510e-05 -2.25736760e-04 -1.54354857e-04 -4.74368426e-05
      -7.84479053e-05 2.88677184e-05 6.39283535e-05 1.37053386e-04
      5.27271804e-05 -2.02604369e-05 1.13051938e-05 -5.32776576e-05
      -8.21463545e-05 -2.92235327e-05 -5.26488875e-05 -7.85079246e-05
      -5.59291948e-05 4.04395614e-05 4.16238254e-05 5.36022583e-07
      -1.48349223e-04 -1.70756815e-04 -1.38178832e-04 -8.41486399e-05
      -1.15079420e-04 -9.65453510e-05 -9.61628321e-05 -5.55564984e-05
      -2.45451738e-05 -1.36671142e-05 -3.48491922e-05 -3.46099914e-05
      -6.41442239e-05 -7.76619927e-05 -5.52793827e-05 3.62153560e-06
      3.98645134e-05 -7.07039476e-07 -1.47840765e-05 -1.07384825e-04
      -2.00727645e-05 -9.71580721e-06 1.38201403e-05 2.38631892e-05
      3.08435046e-05 7.69691105e-05 7.80456176e-05 8.32709120e-05
      7.98028632e-05 4.53688481e-05 1.21492485e-06 -3.55170329e-07
      6.51531445e-05 5.93889563e-05 4.88253427e-05 2.20482343e-05
      -3.67635630e-06 2.75974326e-05 7.71424238e-05 -1.43759489e-05
      -1.48859195e-04 -2.32094331e-04 -1.07272659e-04 -1.81498599e-05
      -5.22824448e-05 5.55445258e-05 4.37461276e-05 -8.74157922e-05
      -6.16278412e-05 -1.15155497e-04 -2.06835148e-06 2.27312307e-06
      -3.35558934e-06 1.66699989e-04 9.99000040e-05 -1.04285173e-04
      -1.10360539e-04 -4.95914674e-06 3.88715889e-05 -6.77965290e-05
      -2.23818744e-04 -8.06267781e-05 8.11767750e-05 1.24317288e-04
      4.11124929e-05 -6.84033002e-05 1.97636655e-05 7.45230282e-05
      1.12788730e-04 1.09496432e-04 1.02473401e-04 7.30037937e-05
      1.29366948e-04 1.63826495e-04 1.31212000e-04 1.68933606e-04
      1.30294633e-04 -1.56120914e-05 -7.41230906e-05 1.27948093e-04
      7.00313540e-05 -6.94343689e-05 -1.18330645e-04 -1.48503852e-04
      -1.98336027e-04 -1.09384353e-04 -1.54710913e-04 -2.52407859e-04
      -1.31717257e-04 -5.75458689e-05 -8.75038895e-05 -8.37133775e-05
      6.65019616e-05 1.68066181e-04 1.87489059e-04 3.21617466e-04
      2.44877301e-04 7.76653833e-05 1.51990345e-04 9.68722743e-05
      -7.78163158e-05 -1.16946016e-04 -1.04420324e-04 -1.34010857e-04
      -1.13404247e-04 2.85175556e-05 3.19305036e-05 9.13584188e-07
      2.93162229e-05 -1.11217043e-04 -7.52003107e-05 9.03665641e-05
      9.36775614e-05 3.98812663e-05 3.89930319e-05 6.82233513e-05
      1.10873538e-04 6.30349386e-05 4.90364073e-06 -7.29627718e-05
      4.42647324e-05 1.91321844e-04 2.01474948e-04 1.07505832e-04
      -6.96732168e-05 -1.26066428e-04 -2.14081028e-05 -5.39317771e-05
      -9.60249963e-05 5.26086587e-05 2.84197677e-06 -3.95569296e-05
      -9.99897238e-05 -8.87131609e-05 -3.34651522e-05 3.14936187e-05
      1.82327331e-05 5.19303176e-05 -7.53540080e-05 -9.35587450e-05
      -1.94597869e-05 5.41087029e-05 4.21971163e-05 9.48662364e-06
      -4.68075050e-05 -1.01402344e-04 -3.79539160e-05 5.55217084e-05
      -1.87657461e-05 1.46836428e-05 6.41140869e-05 6.50567090e-05
      8.68853094e-05 7.49221945e-05 5.98737497e-05 6.61479862e-05
      6.20063875e-05 1.38617761e-05 -4.42593991e-05 -6.62632665e-05
      -3.99309574e-05 -6.22112784e-05 -5.13519808e-05 -7.45806246e-05
      -4.54425353e-05 -1.80465668e-06 -2.19041031e-05 -6.43906606e-05
      -1.13927645e-05 4.29703250e-05 5.95328747e-05 4.42089549e-05
      9.42135739e-05 1.17953954e-04 5.84738482e-05 4.00369318e-05
      6.62173479e-05 3.75441268e-05 2.48965880e-05 2.76502419e-06
      2.40527188e-05 7.83764481e-05 1.27030245e-04 8.31896396e-05
      -6.43744497e-05 -1.67685153e-04 -5.41947156e-05 -6.26500041e-05
      -1.31415218e-04 1.52688135e-05 2.20973798e-05 -1.48741121e-04
      -1.00974779e-04 -1.22793776e-04 -5.03422962e-05 -1.45602346e-04
      -1.33284368e-04 3.46922534e-05 -2.02163646e-05 -1.17511219e-04
      -2.47814878e-05 1.72090498e-04 1.04598104e-04 -7.97972170e-05
      -2.11612176e-04 -8.37371554e-05 -1.74485322e-05 4.46185804e-05
      -7.72972053e-05 -1.74451634e-04 -9.76312076e-05 4.13740891e-05
      4.29131251e-05 -7.06078754e-06 6.84529050e-06 -2.84617727e-05
      1.18002426e-05 4.41494121e-05 2.17025536e-05 7.54426437e-05
      1.00353191e-05 4.10368084e-05 7.39897441e-05 1.94822947e-04
      1.76210291e-04 1.33083959e-04 8.80944717e-05 7.55581914e-06
      -1.16670388e-04 -5.37375126e-05 -1.65523656e-04 -2.97727733e-04
      -2.19584195e-04 -3.65625019e-05 -2.67154410e-05 -7.48414677e-05
      -9.17967118e-05 1.34628644e-04 3.57939163e-04 3.48643865e-04
      7.66658468e-06 -5.93692967e-05 1.03615581e-04 7.01885365e-05
      -1.54215755e-04 -2.31327678e-04 -2.16560686e-04 -1.90996230e-04
      -5.50913755e-05 1.47950966e-04 7.62539494e-05 -5.12545193e-06
      -3.43731699e-05 -1.80542891e-04 -1.51139393e-04 5.49355318e-05
      6.34996177e-05 -1.15387658e-04 -5.01715986e-05 3.37169695e-05
      5.93864115e-06 1.57240691e-04 8.63353489e-05 1.64820940e-05
      4.79976770e-05 -1.16504907e-05 -1.17696196e-04 8.41229485e-06
      7.46120786e-05 4.78931433e-05 4.54611873e-05 -2.48485485e-05
      -5.59530818e-05 -1.06628795e-04 -1.91857049e-04 -1.45689599e-04
      -1.66018770e-04 -1.92537584e-04 -1.15686125e-04 5.48085918e-05
      1.12005189e-04 8.80199295e-05 4.54916044e-05 -5.18691049e-05
      2.39708934e-05 6.21307627e-05 3.51818198e-05 2.61886544e-05
      -2.97860770e-05 -1.27048756e-04 -5.47785858e-05 4.19713215e-05
      -5.60593508e-05 -8.47733390e-05 -2.91997912e-05 -1.47485771e-05
      1.51236436e-05 3.93237824e-05 6.89458830e-05 9.51984257e-05
      1.04084924e-04 8.93963515e-05 5.97481703e-05 4.19978733e-06
      -3.50314913e-05 -9.20367020e-05 -6.09769377e-05 -1.04296385e-04
      -1.18057520e-04 -1.46940132e-04 -1.32243687e-04 -1.75234527e-04
      -1.45987142e-04 -8.57509513e-05 -7.33303459e-05 -1.00563797e-04
      -4.99124617e-05 5.08517987e-05 5.23790513e-05 1.07149372e-05
      7.06396349e-06 -4.22751218e-05 -3.16267106e-05 -4.53395587e-05
      -4.88827936e-05 -1.69468365e-06 2.76983847e-05 -3.95335974e-06
      -1.14173570e-04 -1.04145925e-04 2.63737184e-05 -3.32889103e-05
      -1.02166974e-04 5.20829235e-05 5.66823801e-05 -1.05133942e-04
      -1.40837816e-04 -1.76342437e-04 -7.85947559e-05 -1.12334681e-04
      -1.05621380e-04 1.58211205e-05 -8.61139633e-05 -1.82780161e-04
      -6.83796679e-05 4.01280995e-05 -8.72829914e-05 -3.88584449e-05
      -6.41901570e-05 -1.58147566e-04 -9.75435105e-05 -3.40663173e-05
      -1.40541975e-04 -1.31582419e-04 -7.17534817e-07 2.35046518e-05
      -7.10380336e-05 -7.43640048e-05 4.86202225e-06 -3.40478291e-05
      -9.19318627e-05 -1.00988786e-04 -1.06635373e-04 -7.08859880e-05
      -1.78066039e-05 -1.60235431e-05 4.58462710e-05 1.49773303e-04
      1.66441838e-04 7.57386151e-05 1.13903785e-04 3.88842273e-05
      -9.56237709e-05 -1.10208763e-04 -1.52380700e-04 -2.03831907e-04
      -1.41691868e-04 -4.85093369e-05 -3.73112089e-05 -5.66293238e-05
      -8.07747929e-05 5.65596456e-05 2.14363681e-04 1.93703017e-04
      3.74171541e-05 -9.72413254e-05 -5.32723243e-05 3.51267481e-05
      -1.58906900e-04 -2.99207022e-04 -2.00566530e-04 -6.18008999e-05
      2.97271981e-05 1.36623748e-05 -4.07263869e-05 -4.29500215e-05
      -4.50136395e-05 -6.58167628e-05 -5.98817132e-05 -1.00215570e-04
      -7.06245046e-05 -8.35448736e-05 -7.32919652e-05 -3.19020546e-05
      -1.12842390e-04 7.85713783e-05 -3.16336809e-05 -1.07633416e-04
      -3.60049598e-05 -3.76926109e-05 -6.58421122e-05 1.28780694e-05
      4.58726317e-05 1.96517303e-05 8.37213229e-05 6.23636952e-05
      -1.48167674e-05 -2.08862673e-07 2.24222167e-05 -5.31827209e-06
      -9.28770605e-05 -9.59490280e-05 1.24536658e-04 6.94878181e-05
      -5.19561581e-05 -5.41243098e-05 -2.19840967e-05 -2.62836929e-05
      -2.31253380e-05 2.76473747e-06 7.37956952e-07 1.98133580e-06
      -6.22983353e-05 -1.09799323e-04 -1.38276882e-04 -1.25543302e-05
      -2.34464060e-05 -8.31822181e-05 -4.80129820e-05 -2.74123995e-05
      -1.17407299e-05 4.19652861e-05 1.33855036e-04 1.57289338e-04
      1.44915350e-04 1.24057493e-04 7.57447851e-05 4.79948903e-05
      1.26876039e-05 -4.43235585e-05 -1.75864607e-05 -3.00054508e-05
      -1.32119982e-04 -1.28996791e-04 -1.26953877e-04 -9.47310400e-05
      -3.98441371e-05 -4.23226047e-05 -1.56093449e-06 2.58840355e-05
      7.53700442e-05 1.21783371e-04 1.19204386e-04 9.69891844e-05
      3.56189557e-05 -3.69958179e-05 -8.69663854e-05 -1.03311366e-04
      -8.46208277e-05 -9.49454625e-05 -1.14011680e-04 -8.29442579e-05
      -1.55718240e-04 -2.01327319e-04 -5.06546667e-06 8.23428782e-05
      7.28651430e-05 8.60172877e-05 3.19630199e-05 -2.24767609e-05
      -4.49369581e-05 -6.00650710e-05 5.47609015e-05 -1.11153995e-05
      -9.84049620e-05 -2.24798823e-05 -5.93594777e-05 -1.76876463e-04
      -1.85007666e-04 3.98729499e-05 -5.24655152e-05 -6.71643211e-05
      -1.19803903e-04 -2.22854884e-04 -1.40182266e-04 -3.14517201e-05
      3.49575494e-05 3.37198580e-05 -1.21911035e-04 -1.78588729e-04
      -9.27628425e-05 -6.44741813e-05 -7.61248375e-05 -1.77917449e-04
      -1.61167380e-04 1.10914789e-05 2.63379825e-05 4.21288787e-05
      6.91877285e-05 6.12823060e-05 8.04731608e-05 1.22156969e-04
      1.49969113e-04 1.26111408e-05 2.21710275e-06 1.91704621e-05
      -1.25736275e-04 -1.39129959e-04 -1.86422869e-04 -1.68941784e-04
      -1.27585387e-04 -1.09001659e-04 -2.98063853e-04 -2.55905848e-04
      -1.64329278e-04 -1.05473096e-04 -3.31804695e-05 7.50802283e-05
      1.05543822e-05 -1.26539322e-04 -1.28130356e-04 -8.78142018e-05
      -1.88724749e-04 -2.28489196e-04 -2.08136422e-04 -7.20859825e-05
      -4.33033892e-05 -3.41157029e-05 -1.09925692e-04 -1.19285585e-04
      -7.39220050e-05 -5.42427697e-05 -5.60303815e-05 -1.29369960e-06
      2.87124749e-05 -9.20669481e-05 -4.92635518e-05 7.64458855e-06
      4.89087643e-06 1.54033303e-04 1.32332134e-04 1.08763146e-04
      1.01094236e-04 8.33948579e-05 1.18544267e-04 5.44777795e-05
      -8.05367017e-05 -1.63304328e-04 -4.97246947e-05 -4.56517009e-05
      -6.88920845e-05 -8.11015616e-06 -3.91025897e-05 -1.52005028e-04
      -2.14314539e-04 -3.01008527e-06 4.38076277e-05 -8.28483462e-05
      -1.37395225e-04 -8.44475144e-05 -1.22590582e-05 -1.57209197e-05
      4.33801142e-05 1.33396054e-04 4.22464691e-05 3.17739868e-05
      6.42470695e-06 -7.68304890e-05 -1.02597638e-04 -5.87355971e-05
      -5.68475298e-05 -1.16249976e-04 -3.52350762e-05 -3.79277299e-05
      -2.14768334e-05 1.09501652e-05 6.18209742e-05 1.38855015e-04
      6.94971895e-05 2.38227403e-05 -1.38684727e-05 -5.84618147e-06
      5.96221071e-05 -6.49732056e-06 -3.63461950e-05 -9.39135352e-05
      -1.12693975e-04 -5.60834014e-05 -1.15013027e-04 -3.19572937e-05
      -6.56648263e-06 2.43909308e-05 -2.95674345e-05 -3.26140944e-05
      -1.63150744e-05 -2.19035537e-05 -1.35025675e-05 -7.86766977e-05
      -7.82486095e-05 -6.18790655e-05 -6.49540234e-05 -7.98138644e-05
      -8.73419485e-05 -7.09636297e-05 -9.74766808e-05 -9.46168002e-05
      -1.29655091e-04 -1.82018295e-04 -1.29105960e-04 -4.93231637e-05
      -7.86822602e-06 -2.06953773e-05 3.14660610e-05 -5.41900736e-05
      -3.52828374e-06 5.34275059e-05 4.55061272e-05 -1.87068144e-05
      -6.52005401e-05 -1.95439607e-05 -2.55305877e-05 -6.72030219e-05
      -4.00547506e-05 1.09104687e-04 1.24764765e-05 3.85872181e-06
      -2.62041467e-05 1.00146281e-05 6.61703598e-05 1.20185301e-04
      1.01980135e-04 3.78215009e-05 8.58462863e-06 5.66905728e-05
      1.53057466e-04 1.25167469e-04 3.91708563e-05 2.04415646e-05
      3.40570514e-05 3.60228878e-05 -4.29283682e-05 -8.00322596e-06
      1.24797138e-04 1.78469229e-04 1.42067074e-04 6.97044306e-05
      3.29206232e-05 -4.02921105e-05 -1.83980883e-05 4.20065262e-05
      -2.06326931e-05 -5.77746141e-05 -1.42781922e-04 -1.03625964e-04
      -6.08306109e-05 -6.25414896e-06 -3.53863179e-05 -1.31676396e-04
      -1.26454208e-04 -3.36864941e-05 9.39944221e-05 4.84265620e-05
      -4.37279632e-05 -8.82504683e-05 -8.20529604e-05 -1.24721919e-04
      -9.46380969e-05 -1.06630767e-04 -4.93495681e-05 -4.69955012e-05
      -7.72637213e-05 5.22512391e-06 2.22061990e-05 1.31355060e-04
      1.59239629e-04 7.49528335e-05 6.94105111e-05 5.07582126e-06
      -6.91361784e-05 -8.56526240e-05 -6.40305079e-05 -8.53667734e-05
      -2.67625528e-05 4.26552615e-05 5.77010942e-05 6.61182930e-05
      6.23926899e-05 -6.95893277e-06 2.32958646e-05 -1.87854166e-05
      -1.13014947e-04 -1.39084645e-04 -1.43695623e-04 -1.12972484e-04
      -2.54252827e-05 -1.18010881e-04 -3.28908121e-04 -3.96595598e-04
      -2.93647696e-04 -1.45896469e-04 -9.36133365e-05 -1.24752682e-04
      -1.59199801e-04 -1.19134376e-04 -8.94311233e-05 -6.17777041e-05
      5.83097426e-05 1.83813143e-04 1.70875763e-04 9.36797951e-05
      3.34544566e-05 -2.40372156e-05 -3.57030804e-05 -4.90561579e-05
      1.04989203e-05 -8.93415126e-05 -1.07780848e-04 -8.77900675e-05
      -4.69265869e-05 -5.05554344e-05 -3.77286233e-05 -2.75729690e-06
      -5.84500158e-05 -1.36601911e-05 -2.28299996e-05 1.81274281e-05
      9.52257960e-06 3.22544547e-05 -1.23449320e-06 -7.74935324e-05
      -8.69295691e-05 -3.45786975e-05 1.99724273e-05 -3.44534419e-05
      -1.53197925e-05 7.68841710e-05 9.84773433e-05 1.04103288e-04
      7.14891721e-05 3.05384201e-05 2.41250109e-06 -6.51475711e-05
      -1.36647621e-04 -1.35807510e-04 -8.54647660e-05 -1.71703196e-05
      -1.78197138e-06 9.36592623e-05 7.25672435e-05 8.00183552e-05
      -1.41854416e-05 -1.03767357e-04 -1.00448204e-04 -1.16462354e-04
      -8.95731282e-05 -3.96419910e-06 4.37407725e-05 1.58767234e-05
      3.00189567e-05 9.76742012e-05 1.41075434e-04 1.52505512e-04
      1.49837317e-04 1.08047796e-04 9.46499349e-05 2.86065861e-05
      -1.51164995e-05 4.60020201e-05 8.61312510e-05 5.56438354e-05
      4.03506165e-05 7.86466262e-05 1.07460939e-04 8.94956975e-05
      5.59580876e-05 1.08727596e-04 1.59785166e-04 1.16139505e-04
      1.13593655e-04 6.30884169e-05 4.94053020e-05 3.31880074e-05
      2.65634981e-06 -7.00854653e-05 -1.06490043e-04 -6.45075852e-05
      5.76575403e-05 9.91782072e-05 8.38676206e-05 1.06936990e-04
      3.22810301e-05 2.43504883e-06 3.21426051e-05 7.23712656e-05
      5.93260665e-05 6.82955852e-06 8.55274629e-05 4.94943670e-05
      -1.84121564e-05 -2.39575129e-05 -2.30545920e-05 3.02592480e-06
      -6.09886274e-06 1.21027688e-05 2.12989698e-06 1.84121127e-05
      -9.75152216e-06 -3.20485706e-05 -8.55058170e-05 -9.70105393e-05
      -1.07001506e-05 -1.42163935e-05 1.67538728e-05 2.86200338e-06
      1.74160014e-05 5.69538024e-05 1.30783606e-04 1.21813748e-04
      8.04296797e-05 7.55090805e-05 1.01111007e-04 5.74012956e-05
      3.92023867e-05 2.03376549e-05 2.18674450e-05 2.15255350e-05
      5.33977473e-05 1.03234954e-04 3.85121457e-05 5.14134663e-05
      8.23265946e-05 9.57686279e-05 1.34353089e-04 1.39257667e-04
      2.49976274e-05 1.94606164e-05 -2.85608476e-05 -6.48591413e-06
      -3.80848110e-06 -4.89113045e-05 -5.91071876e-05 -5.22041009e-05
      5.27549200e-05 3.00811953e-05 -3.31722113e-05 -1.17458694e-04
      -8.41682850e-05 -7.55969086e-05 -4.68901562e-05 4.38755342e-05
      1.81286741e-04 1.73437249e-04 1.26051804e-04 1.07767119e-04
      9.40677419e-05 6.63424362e-06 -3.60379017e-05 -7.79063193e-05
      -8.32846927e-05 -1.17205011e-04 -1.10772133e-04 -9.10636809e-05
      -1.21450335e-04 -7.00874371e-05 -8.38750784e-05 -8.21077265e-05
      -1.17051764e-04 -7.78358226e-05 -3.23811364e-05 3.26244372e-05
      1.20793802e-05 2.37801778e-05 -9.15030705e-06 -5.03698466e-05
      9.29841190e-06 4.11459587e-05 6.13522425e-05 9.48624256e-06
      -6.56281190e-05 -2.59268145e-05 9.19426602e-05 1.02365106e-04
      8.39455533e-05 5.62951027e-05 7.09338656e-06 -3.83428305e-05
      -6.52682138e-05 -7.67290039e-05 -3.61393577e-05 2.37772565e-06
      1.61946009e-05 7.34262940e-05 7.76179004e-05 1.05427243e-04
      5.96340760e-05 5.22483751e-05 7.88740799e-05 9.37212317e-05
      1.01718215e-04 5.18063534e-05 9.74964787e-05 6.87315987e-05
      -2.48034576e-05 -1.77161855e-05 4.28012900e-05 1.02401835e-04
      1.42165823e-04 1.51797823e-04 5.06974138e-05 -4.83456097e-06
      1.94467884e-05 9.02346874e-05 1.09404486e-04 1.22527723e-04
      6.48398200e-05 2.39142878e-06 3.38916067e-07 -1.22727613e-06
      -2.61600835e-05 1.38913010e-05 2.17994748e-05 -3.73336406e-05
      -2.36071537e-06 -2.16559347e-05 -3.75812015e-05 -1.46944894e-05
      -8.82303502e-05 -1.58182869e-04 -9.80251571e-05 -2.41180237e-06
      8.66461560e-05 8.31498692e-05 5.77597675e-05 6.58239878e-05
      -6.74617477e-05 -4.47037855e-05 4.27330997e-05 4.60562151e-05
      6.42354935e-05 3.89161833e-05 6.56209886e-05 1.09790373e-04
      5.03025585e-05 -6.76638520e-05 -5.41070222e-05 2.42786209e-05
      -1.20512414e-05 -2.69311422e-05 -5.63596259e-05 -4.27564373e-05
      -6.06331814e-05 -4.11682377e-05 -2.87180355e-05 4.03994345e-05
      4.56939597e-05 1.87020814e-05 -1.09165230e-05 1.67354165e-06
      1.13439950e-04 1.65540449e-04 2.05028133e-04 1.98098234e-04
      1.52570326e-04 1.55388218e-04 1.28508487e-04 9.95535011e-05
      8.65813490e-05 5.58164029e-05 8.20243731e-05 1.17784839e-04
      1.04574574e-04 1.07022293e-04 5.77592073e-05 1.75868900e-05
      6.95523340e-05 1.43001729e-04 1.13019269e-04 6.33671734e-05
      -1.77949868e-08 -1.57980830e-05 -3.87868713e-05 -3.33713833e-05
      -3.57534118e-05 -8.35247920e-06 8.71153170e-05 1.39461772e-04
      1.30123357e-04 7.90578542e-06 -9.88290485e-05 -6.72942479e-05
      -7.45790931e-06 -6.59742182e-06 2.91647357e-05 4.73782129e-05
      9.27464571e-05 6.49616777e-05 -1.11375211e-05 -7.84080476e-05
      -1.06482759e-04 -1.59782314e-04 -1.64401368e-04 -1.73364140e-04
      -1.44377627e-04 -1.00895420e-04 -1.10822482e-04 -1.40448814e-04
      -1.30646556e-04 -7.75931985e-05 -5.92619253e-05 -4.71929088e-05
      -5.66136187e-05 -2.18078494e-05 1.64584435e-05 7.94159496e-05
      8.26225805e-05 6.60993755e-05 1.61544631e-05 -1.13723240e-06
      2.49973855e-05 -5.04137897e-05 2.04622938e-05 3.97140229e-06
      -2.32507264e-05 6.45187527e-07 1.07753003e-04 1.08173757e-04
      1.16838506e-04 8.89561416e-05 4.05082938e-05 -2.92953664e-05
      -6.13862576e-05 -6.68416324e-05 -1.14376264e-04 -7.74512664e-05
      -3.94413655e-05 9.00140822e-06 4.32710585e-05 1.90883529e-05
      -2.20313814e-05 -1.01589631e-05 1.88730723e-06 5.83568471e-05
      4.99004018e-05 7.01199269e-06 1.05392835e-04 5.88526382e-05
      -5.37210190e-06 -3.14430167e-06 2.94446545e-05 3.44013788e-05
      1.79765848e-05 4.33606983e-05 5.64945731e-05 9.74340946e-05
      1.80609117e-04 2.58356216e-04 2.47001153e-04 2.18590591e-04
      2.28900142e-04 2.42704948e-04 2.03040909e-04 2.29032798e-04
      2.01210773e-04 2.06404045e-04 2.07817109e-04 2.23491021e-04
      1.99402159e-04 1.48412713e-04 1.05787425e-04 6.85684063e-05
      5.59672917e-05 6.04495835e-05 5.46144365e-05 7.03764672e-05
      7.96779423e-05 1.27908163e-04 1.18137294e-04 6.76437994e-05
      2.74816248e-05 -1.17059162e-05 8.55630278e-05 5.44601717e-05
      5.57697749e-05 6.98085933e-05 1.00810052e-04 1.58747556e-04
      1.34060567e-04 5.17591761e-05 4.66506062e-05 -5.19812420e-06
      1.38020378e-05 7.96486711e-05 8.32207224e-05 1.21955936e-05
      -1.94283202e-05 -6.56597240e-06 1.44834794e-05 3.88108856e-05
      7.55827859e-05 6.76614145e-05 4.31442531e-05 4.76772402e-05
      1.01593439e-04 1.16023271e-04 1.17651463e-04 8.67980852e-05
      4.74928675e-05 4.72280117e-05 7.34187925e-05 4.54013934e-05
      4.37603994e-05 -5.14352178e-06 1.68036167e-05 4.65050216e-05
      -1.70892258e-06 -3.66239328e-05 -1.07401020e-05 -2.69020566e-05
      -1.28074032e-06 8.56717816e-06 -4.14182796e-05 -1.04064588e-04
      -8.84920155e-05 -9.47685767e-05 -8.94013428e-05 -3.88502194e-05
      4.99701855e-05 3.95396637e-05 6.86207131e-05 1.79016461e-05
      -4.84014781e-05 -6.58129720e-05 -7.61141564e-05 -2.59150329e-05
      -1.16273959e-05 -1.66911068e-05 -2.04900016e-06 4.14930582e-05
      8.25044481e-05 1.87965979e-05 1.84187684e-05 -7.23610128e-06
      -4.15511604e-05 -9.05050256e-05 -1.26771076e-04 -1.44005433e-04
      -1.10877350e-04 -6.00778512e-05 -2.89258041e-05 4.40614986e-06
      8.85829013e-06 -6.15027457e-05 -3.96605174e-05 -8.83217799e-05
      -3.58810030e-06 -5.24994721e-06 -3.25973247e-07 4.44534380e-05
      7.00465826e-05 1.12413916e-04 5.06875622e-05 1.38176310e-05
      -4.54267210e-05 -9.27002766e-05 -6.77266289e-05 -5.87318827e-05
      -2.87830990e-05 1.46306029e-05 3.50465380e-05 2.56694148e-05
      7.05262355e-05 3.50102564e-05 2.18289842e-05 1.98296111e-05
      3.18050697e-05 -1.04841547e-05 -1.01352023e-04 -1.12812588e-04
      -5.55928127e-05 -4.12464615e-05 -2.19778995e-05 -2.29885718e-05
      4.88032038e-06 1.92717762e-05 7.41725162e-05 1.20271055e-04
      1.12937778e-04 9.68066815e-05 1.20876088e-04 1.66292943e-04
      9.27381261e-05 8.04501615e-05 1.01215563e-04 1.09811073e-04
      1.25098959e-04 7.79265029e-05 -5.18539355e-06 -2.19361809e-05
      4.40143594e-05 1.16223680e-04 9.75007788e-05 8.62054731e-05
      6.94907358e-05 6.70771042e-05 5.47548698e-05 1.09672059e-04
      9.32274124e-05 6.78532961e-05 8.90411902e-05 1.02924976e-04
      3.72064897e-05 -2.45938350e-06 -5.74405785e-05 -8.99986189e-05
      -6.39957580e-05 -1.08383820e-05 -6.16075204e-06 1.01545666e-05
      2.02436477e-05 6.01188331e-05 9.53956187e-05 5.86541610e-05
      -4.41043230e-05 -6.82126847e-05 -1.09166767e-05 8.00253474e-06
      1.50290261e-05 -1.41978835e-05 -5.89069750e-05 -3.46826511e-07
      1.74570523e-05 1.13720052e-05 2.82463225e-06 -1.99390870e-05
      1.13892820e-05 5.38920067e-05 2.36331507e-05 8.61071931e-06
      -5.27345219e-05 -6.88392101e-05 -5.89183983e-05 -4.59643998e-05
      -9.23117841e-06 1.27070749e-07 -2.20639577e-05 -3.89195384e-06
      3.22385204e-05 8.75251208e-05 6.09878116e-05 3.21194493e-05
      -6.19089551e-05 -6.90609886e-05 -7.00041419e-05 -7.80016053e-05
      -1.04512335e-04 -9.38738885e-05 -5.37811284e-05 -4.14116985e-05
      -2.14693446e-05 -2.20578368e-05 -8.10952115e-05 -4.08760861e-05
      -2.24614778e-05 -1.06065847e-04 -1.07530490e-04 -9.22993713e-05
      -3.14424688e-05 7.32285298e-06 -3.68572933e-06 4.17420342e-05
      8.67165581e-05 1.00103272e-04 1.01463207e-04 4.34293943e-05
      -1.13250071e-05 -3.90703735e-06 -1.84916935e-05 1.34153770e-05
      3.80021156e-05 3.10375544e-05 1.17351237e-05 8.45945033e-05
      8.71184820e-05 3.28729220e-05 8.77382627e-05 1.07943757e-04
      4.65953890e-05 -3.79827688e-05 -4.23707206e-05 -4.44889884e-05
      -3.07354858e-05 3.06202746e-05 7.08048683e-05 6.46704138e-05
      2.02596166e-05 5.43915576e-06 2.09518112e-05 1.09944240e-05
      1.10623023e-05 -6.68339771e-06 4.34785034e-05 3.16246187e-05
      1.69570339e-05 1.45898084e-05 2.19138929e-05 1.54780100e-05
      1.84890996e-05 -2.73706883e-05 -8.24868621e-05 -9.71218178e-05
      -5.63505746e-05 1.24954440e-05 3.42897038e-05 1.92657462e-05
      -7.79548282e-06 -1.49580246e-05 3.94040144e-05 4.32016313e-05
      4.20598662e-05 4.74956287e-05 3.09297648e-05 4.64514915e-06
      -9.20545119e-07 -5.47108430e-05 -6.44832762e-05 -7.42319462e-05
      -3.40227489e-05 -3.89407251e-05 -6.78708093e-05 -9.64716746e-05
      -1.52550187e-04 -1.67529826e-04 -1.35367663e-04 -9.66130028e-05
      1.65303391e-07 6.80571975e-06 -6.16359030e-05 -4.57298338e-05
      -2.96445651e-05 -4.43421122e-05 -9.52948903e-05 -1.05500534e-04
      -1.86360430e-05 -1.56892511e-05 -3.06843867e-05 -1.20830955e-05
      -1.81212999e-05 -8.07424512e-05 -7.81093258e-05 -6.03162953e-05
      -6.18550694e-05 -4.95351123e-05 -2.90435710e-05 -3.10007708e-05
      -3.80681267e-05 -8.63492096e-05 -1.14039089e-04 -1.04081977e-04
      -1.01302088e-04 -8.16515603e-05 -5.31167825e-05 -2.91200540e-05
      -5.66034178e-05 -3.37517522e-05 -4.55401932e-05 -7.54240100e-05
      -7.90403647e-05 -3.03241559e-05 -3.07635164e-05 7.08585185e-06
      4.36795563e-05 7.93738873e-05 6.72599854e-05 3.24260654e-05
      1.83176799e-05 8.89522707e-05 6.72294627e-05 7.86130113e-05
      2.47685657e-05 3.22463820e-05 1.88338454e-05 3.49599213e-06
      -2.76763494e-05 -5.05144999e-05 -3.95556126e-05 -3.60005943e-05
      -5.36659718e-05 -8.65174661e-06 3.97386721e-05 6.52923991e-05
      1.02819366e-04 6.54949763e-05 9.76873125e-05 1.30326691e-04
      1.38271998e-05 -7.65112491e-05 -9.54938077e-05 -9.23502012e-05
      -8.34465172e-05 -9.42573315e-05 -7.40874675e-05 -1.00191119e-05
      -1.80470033e-05 -3.02374337e-05 -5.87742761e-05 -2.86847098e-05
      -1.44739297e-05 3.57401586e-06 -8.36885374e-05 -5.77527426e-05
      -7.38550734e-05 -6.29587739e-05 -3.69223562e-05 7.52492588e-06
      3.58870711e-05 3.36338235e-05 1.52146813e-05 -3.72163486e-05
      -3.63436848e-05 -4.97829315e-05 -2.02330502e-05 -1.19410070e-05
      -6.57416149e-06 1.42822364e-05 -3.03013530e-05 -4.39709620e-05
      3.75187046e-05 -1.87795445e-06 -5.87708712e-07 6.72266397e-05
      4.58100840e-06 2.04475655e-05 1.05972940e-05 -3.61090451e-06
      -5.14276462e-06 4.48333340e-05 8.41032452e-05 9.75083967e-05
      9.08358707e-05 7.28982268e-05 6.51221490e-05 6.52286762e-05
      4.66808888e-05 4.11380242e-05 5.69396288e-05 3.31293559e-05
      1.90159844e-05 7.58254537e-05 7.22192271e-05 7.86552628e-05
      -4.37359049e-05 -2.45631090e-05 -3.72665672e-05 -6.56990815e-05
      -1.08680542e-04 -3.45426160e-05 6.30609939e-05 6.54037431e-05
      -1.52814537e-05 -1.90695264e-05 5.53767791e-07 2.92516743e-05
      1.21113153e-05 9.38592257e-06 2.95875125e-05 1.33223029e-05
      5.81973291e-05 3.91047142e-05 3.09983952e-05 6.40456665e-06
      1.91209401e-05 -1.35481366e-06 -8.67168637e-05 -1.11088040e-04
      -1.40704185e-04 -1.38966294e-04 -6.69327273e-05 -9.39037636e-05
      -9.59416357e-05 -5.50238765e-05 -7.82284988e-05 -1.05681182e-04
      -2.49812165e-05 -5.54068502e-05 -9.92909627e-05 -6.86240310e-05
      -5.45117364e-05 5.38241193e-06 1.05348463e-05 1.62040906e-05
      -1.87553251e-05 -2.67403830e-05 -1.57897539e-05 -3.01430055e-06
      -3.02373010e-05 -3.27171438e-05 -1.97643858e-05 2.05998676e-05
      4.75246597e-05 -1.88702143e-05 -6.84957777e-05 -5.73597717e-05
      -6.09497438e-05 -1.15894349e-04 -9.41299804e-05 -5.79977568e-05
      -2.63058246e-05 3.21511143e-05 3.57238241e-05 7.38229210e-05
      6.90856323e-05 2.02202609e-05 5.53382743e-05 5.71302044e-05
      4.13675371e-05 -1.57170762e-05 -1.03785151e-05 2.15035125e-05
      -4.45615042e-05 -7.85179946e-05 -6.24947206e-05 -5.27828934e-06
      -5.94721714e-05 -9.52884056e-06 -1.03102930e-05 -1.29559930e-05
      -2.58728051e-05 -5.54917060e-05 -6.57889686e-05 -7.04795821e-05
      -1.47380188e-05 4.05915343e-05 4.83543299e-05 3.82502913e-05
      4.04091998e-06 2.94780330e-05 4.03229251e-06 -4.07052830e-05
      -9.39756646e-05 -1.07298481e-04 -8.58139683e-05 -1.30905892e-05
      -2.21361665e-06 4.34106114e-05 6.08153459e-05 3.69242007e-05
      -2.81636112e-05 -6.02343644e-05 -6.12358926e-05 -4.19330172e-05
      -4.83330914e-05 -3.88015978e-05 -5.17281205e-06 -2.69471911e-05
      -4.18052623e-05 -3.34761244e-05 -5.27093180e-05 1.24126709e-05
      5.89190931e-05 4.79869195e-05 4.36423979e-05 6.32330339e-05
      4.98250847e-05 1.41015817e-05 -5.38651075e-05 -2.09368500e-05
      1.80067327e-05 1.19444348e-05 -2.72866760e-06 -2.70974597e-05
      1.33993071e-05 3.10172582e-05 3.45387998e-05 3.81219397e-05
      5.11984908e-05 4.67001155e-05 3.00293341e-05 -4.90322782e-06
      -4.48134160e-05 -2.65727704e-05 1.72599703e-05 3.95895549e-05
      1.11689105e-05 4.79390619e-05 1.01019476e-04 1.05507912e-04
      7.25963400e-05 3.77355464e-05 -8.93817560e-06 8.11303653e-06
      4.88572186e-05 5.52809215e-05 4.34045833e-05 2.68628846e-05
      9.42665520e-06 1.56315855e-05 2.66071147e-05 1.27280045e-05
      -3.26670961e-05 8.67515246e-06 7.17130679e-05 7.66504527e-05
      7.80214978e-05 -1.02597187e-05 1.32043006e-05 6.40954750e-05
      4.06449035e-05 6.98634321e-05 6.41005026e-05 7.05994244e-05
      1.26251369e-04 9.74041614e-05 6.62727398e-05 6.99930315e-05
      1.18202181e-04 5.70702250e-05 4.71642352e-06 -4.33920031e-05
      -8.64035246e-05 -1.09563429e-04 2.31706708e-05 -1.47360797e-05
      -3.03908946e-05 -2.36949290e-05 1.45789381e-05 -4.90088860e-05
      -6.70986046e-05 -5.65375049e-05 -1.07767206e-04 -1.14804840e-04
      -2.04261050e-05 7.81767449e-05 7.94885855e-05 6.49630165e-05
      2.78076677e-05 -3.20897489e-05 -8.12491708e-05 -5.51768389e-05
      -4.49088693e-05 -4.99127636e-05 4.98802956e-06 6.59166762e-05
      2.19297617e-05 -4.31030749e-05 -3.32841955e-05 -8.45131726e-05
      -8.49458520e-05 -9.49696405e-05 -2.35634870e-05 -1.13619414e-07
      1.90693390e-05 6.64973122e-05 8.49818389e-05 6.61083686e-05
      7.26835424e-05 6.03156113e-05 7.39967727e-05 7.58753522e-05
      2.72362304e-05 -6.40281723e-06 -3.26779846e-05 -2.58803198e-07
      3.77202741e-05 1.75852563e-06 -6.54530186e-06 2.79503274e-05
      3.77750393e-06 3.38113277e-05 3.61442253e-05 4.77870199e-05
      9.10963354e-05 5.71567616e-05 2.55687937e-05 2.56248677e-05
      1.64638695e-05 2.03555774e-05 -1.48670449e-06 -2.56730564e-05
      -2.97782917e-05 -1.16061838e-05 1.29557602e-05 -4.62678281e-06
      -6.94978007e-05 -8.25765455e-05 -5.55501101e-05 -5.43012211e-05
      -7.95183369e-05 -6.99122684e-05 -8.14603409e-05 -6.31619987e-05
      -5.59893124e-05 -2.89201107e-05 -3.28130882e-05 -1.09451994e-05
      -1.60267191e-05 -1.60575632e-06 6.01703732e-06 1.26385603e-05
      2.14811644e-05 4.56979942e-05 4.75675624e-05 8.04095689e-05
      1.16528478e-04 1.22748927e-04 1.16317715e-04 1.11060668e-04
      1.65701160e-04 1.07310923e-04 1.00535599e-05 -2.12765954e-05
      2.40318004e-05 4.29859356e-05 4.55281152e-05 2.50766316e-05
      5.49016149e-05 4.94065207e-05 5.13839841e-05 1.09218736e-05
      5.04203490e-05 4.86796052e-05 3.97392614e-05 -3.67761422e-05
      -9.74502109e-05 -1.12474685e-04 -9.09492301e-05 -5.24497373e-05
      -8.90467272e-05 -9.45911670e-05 -5.62764326e-05 -4.26803053e-05
      -8.39403147e-05 -8.13441220e-05 -5.16037799e-05 1.44410278e-05
      2.08838428e-05 4.64240402e-05 4.36113696e-05 3.24005850e-05
      5.93797231e-05 3.85646126e-05 -4.85125975e-06 -6.76886202e-07
      1.87730457e-05 4.66379861e-05 8.53105303e-05 1.20677512e-04
      1.41208555e-04 8.01151109e-05 1.54114859e-05 6.32956435e-05
      7.21030810e-05 8.65198090e-05 3.59422993e-05 3.71333008e-05
      8.58079584e-05 1.05366380e-04 1.14135473e-04 1.50245920e-04
      1.64133526e-04 1.15357689e-04 8.01653878e-05 4.26828556e-05
      -1.72315013e-05 -5.41943264e-05 3.32260897e-05 8.45408722e-05
      6.84430925e-05 8.32990700e-05 7.44746940e-05 6.17676487e-05
      -3.89427478e-05 -4.79546507e-05 3.89394954e-05 8.51141431e-06
      4.18136297e-05 3.46105589e-05 5.43662063e-05 5.10557657e-05
      1.73788030e-05 5.48870230e-06 1.17950021e-05 1.08173626e-05
      -3.68508081e-05 8.50401250e-07 5.24245334e-05 5.41099980e-05
      8.24312792e-06 -2.06431450e-05 -3.80074516e-06 -1.85516274e-05
      -4.70128944e-05 -7.59980248e-05 -6.91889290e-05 -2.43085506e-05
      -5.56096211e-07 2.02212286e-05 1.76789290e-05 1.81457526e-05
      -2.25816329e-05 -4.71020394e-05 -6.65785774e-05 -9.34377385e-06
      2.36386750e-05 2.84303660e-05 2.92535824e-05 5.15564279e-05
      6.46222252e-05 6.56741759e-05 3.83467450e-05 1.60339350e-05
      3.67072207e-05 6.96037532e-05 2.80871154e-05 1.67756534e-05
      1.83647389e-05 5.72352801e-05 7.45590878e-05 1.21813486e-04
      1.17120937e-04 1.18517492e-04 6.55122494e-05 1.34605434e-05
      -2.32223992e-05 -4.87520119e-05 -5.06277320e-05 -6.57808559e-05
      -1.07494991e-04 -9.59933095e-05 -1.13163289e-04 -1.49401545e-04
      -1.42661505e-04 -1.14481394e-04 -6.71219241e-05 -7.49368191e-05
      -1.25186169e-04 -1.40260541e-04 -9.95010705e-05 -8.29857017e-05
      -1.96431265e-05 -4.72765942e-06 2.92425448e-05 2.87754265e-05
      1.00352227e-05 -2.01273269e-05 -2.83091704e-05 1.81406758e-05
      -6.18808099e-06 1.34153106e-05 3.12708398e-05 6.27260451e-05
      9.13824479e-05 6.13362281e-05 4.09043714e-05 5.79954067e-05
      1.17851479e-04 1.34093701e-04 1.27162522e-04 1.20219309e-04
      1.30952700e-04 1.47456100e-04 1.49414991e-04 9.21677856e-05
      7.07223735e-05 7.99830377e-05 5.86125680e-05 1.00896568e-05
      3.98660850e-05 5.49465258e-05 7.51561311e-05 4.67799618e-05
      3.36543621e-06 3.73449475e-05 5.84236222e-05 1.64850335e-05
      2.75332459e-05 5.62476635e-05 9.87245367e-05 1.15414368e-04
      1.30940651e-04 1.16367250e-04 1.03222999e-04 7.33519919e-05
      5.34344508e-05 -1.91586314e-05 -1.03768129e-04 -1.11299159e-04
      -1.00654521e-04 -9.56832300e-05 -7.36103357e-06 2.01931889e-05
      4.53476459e-05 5.62402929e-05 -1.92624993e-05 -3.18886232e-05
      3.74637384e-05 3.09708703e-05 -5.61814250e-06 6.37956828e-06
      1.66432201e-05 3.49913134e-05 4.03189770e-05 6.57896671e-05
      1.03492057e-04 8.13965889e-05 9.51301045e-05 6.13824159e-05
      5.56235645e-05 5.19649439e-05 6.75828560e-05 7.05476632e-05
      6.07601069e-05 3.71668793e-05 2.28287336e-05 -1.70852545e-05
      -2.16721128e-05 -4.18890850e-05 -5.77645869e-06 2.24604210e-05
      1.68528622e-05 1.57113918e-05 2.79002415e-05 5.67241696e-05
      8.32550213e-05 7.21446559e-05 4.11848196e-05 7.25014397e-05
      4.77137946e-05 -1.12642665e-05 9.44125350e-06 2.70332421e-05
      3.94737035e-05 2.83736408e-05 1.69138693e-05 -1.09149460e-05
      -5.20273315e-05 -6.18898921e-05 -8.17756227e-05 -5.16438049e-05
      -3.08506642e-05 -2.25078820e-05 1.18654907e-05 3.46123597e-05
      1.64791581e-05 -3.68238834e-05 -1.87551650e-05 -2.06449040e-05
      7.02490288e-05 8.26252653e-05 8.22572417e-07 -4.21428776e-05
      -6.54074611e-05 -5.57223866e-05 -6.27972549e-05 -3.59962796e-05
      -3.83710176e-05 -8.82139211e-05 -8.09631892e-05 -1.22121142e-04
      -1.26239029e-04 -9.17172583e-05 -3.73825023e-05 1.89268849e-05
      4.85970340e-05 5.30610259e-06 -1.82930344e-05 -1.40753364e-05
      -5.64080074e-06 -2.39741366e-05 -6.62177408e-05 -1.08558226e-04
      -9.69375033e-05 -4.91900719e-05 -1.69322648e-05 -2.61430814e-05
      -6.74585899e-05 -6.94334376e-05 -3.87694126e-05 -2.33735545e-06
      -3.91613357e-05 -5.67528150e-05 -3.01596974e-05 3.04247169e-05
      4.11800138e-05 4.20146062e-05 4.74798144e-05 1.72755335e-05
      -2.66935531e-05 -5.03006231e-05 -6.04873640e-05 -6.74713083e-05
      -6.54276228e-05 -3.40599690e-05 2.59492426e-05 7.89713449e-05
      1.00260404e-04 1.11006695e-04 1.07177650e-04 9.00790765e-05
      9.93189678e-05 1.06038431e-04 8.98167564e-05 1.02496153e-04
      1.03387327e-04 1.06806503e-04 4.71826606e-05 4.62603166e-05
      4.03031336e-05 4.27345403e-05 6.47401030e-05 4.33843961e-05
      8.18977333e-06 -9.22639811e-06 -3.46841443e-05 -9.18946680e-05
      -8.28340999e-05 2.01766829e-06 -6.02179534e-06 1.19976685e-05
      -2.92845039e-06 3.92959737e-06 3.10996511e-05 4.66279162e-05
      7.71505656e-05 5.94664707e-05 3.97074036e-05 1.19066617e-05
      7.88455873e-05 3.11055082e-05 4.60487172e-05 2.66535244e-05
      -2.51795827e-05 -5.48281014e-06 1.20366153e-07 -8.05471154e-06
      -1.18947373e-05 -5.71634200e-06 -1.63058394e-05 -4.78043257e-05
      -8.45569411e-06 6.77493563e-06 1.49014722e-05 -3.68400993e-06
      4.91211722e-06 2.28486570e-05 3.71579603e-07 1.18065982e-05
      3.26208210e-05 3.09365641e-05 3.79936137e-05 2.32865841e-05
      2.60906836e-05 2.85483875e-05 1.65839392e-05 -1.70396179e-05
      -2.74657959e-05 -5.66832823e-05 -6.44386528e-05 -5.95245729e-05
      -2.18749483e-05 -5.89668271e-05 -8.92981334e-05 -1.64344256e-05
      2.48939905e-05 1.25484721e-05 1.92277730e-05 5.83528199e-05
      7.26888175e-05 8.04883239e-05 8.74547841e-05 7.99851696e-05
      1.06069747e-04 9.31263494e-05 9.05789639e-05 1.47484476e-04
      1.48208128e-04 1.64596902e-04 1.25793231e-04 9.49435416e-05
      3.44279579e-05 6.12368240e-06 -3.13789383e-06 -9.94991751e-06
      8.10149777e-06 2.52380487e-05 2.23743391e-05 4.11378314e-05
      6.25470348e-05 4.79276823e-05 4.79754744e-05 4.55663903e-05
      6.32749434e-05 1.05604893e-04 1.17825155e-04 9.93459034e-05
      5.19037203e-05 6.14608434e-05 7.91461498e-05 6.95509807e-05
      -5.66176714e-05 -6.82310783e-05 -5.67818424e-05 -9.48882371e-05
      -1.15272582e-04 -8.22980510e-05 -7.91276616e-05 -2.47777625e-05
      -2.20241873e-05 -1.72877626e-05 -1.04696355e-05 -2.70039982e-05
      -9.09921291e-05 -6.83607723e-05 -3.37042584e-05 -2.66823863e-05
      1.54660611e-05 -1.35026976e-05 -5.36297230e-05 -9.02666361e-05
      -1.02882317e-04 -9.66719745e-05 -1.25323102e-04 -1.26291401e-04
      -1.29021224e-04 -1.06698513e-04 -8.23051159e-05 -9.13615659e-05
      -8.13138395e-05 -7.43349156e-05 -6.69165092e-05 -8.09694611e-05
      -1.30103130e-04 -1.46964347e-04 -1.47531347e-04 -1.28770131e-04
      -9.72546623e-05 -7.74243817e-05 -9.43555860e-05 -9.78684475e-05
      -8.43558300e-05 -5.71487581e-05 -6.22352163e-05 -7.87676181e-05
      -8.62138841e-05 -9.08232614e-05 -5.02662297e-05 -1.25635233e-05
      -2.93852008e-05 -9.09603841e-05 -1.08819688e-04 -6.68328430e-05
      -3.63834079e-05 -6.23818560e-05 -6.59982761e-05 -8.46660914e-05
      -1.20580989e-04 -9.47927329e-05 -9.55163414e-05 -1.19138997e-04
      -1.02882259e-04 -1.07389707e-04 -9.34732816e-05 -8.36635445e-05
      -7.51767366e-05 -7.54904613e-05 -5.29988065e-05 -6.87569409e-05
      -1.14779305e-05 -6.05649120e-06 2.03809996e-05 3.47459172e-05</_></support_vectors>
  <uncompressed_sv_total>102</uncompressed_sv_total>
  <uncompressed_support_vectors>
    <_>
      87. 87. 87. 85. 87. 87. 87. 85. 87. 90. 89. 87. 87. 92. 95. 93.
      93. 95. 96. 99. 101. 101. 102. 102. 99. 98. 98. 103. 110. 111.
      114. 115. 115. 115. 110. 110. 109. 106. 103. 101. 99. 99. 101.
      101. 102. 102. 102. 101. 102. 102. 102. 102. 102. 102. 103. 103.
      102. 103. 102. 101. 101. 106. 117. 120. 102. 68. 43. 43. 68. 82.
      101. 103. 95. 99. 107. 110. 111. 105. 93. 87. 82. 78. 76. 70. 66.
      64. 61. 59. 61. 56. 59. 66. 64. 66. 68. 70. 78. 72. 64. 93. 117.
      106. 89. 115. 150. 143. 96. 70. 90. 106. 98. 107. 106. 109. 110.
      110. 110. 110. 110. 109. 109. 110. 109. 109. 106. 105. 103. 103.
      102. 101. 101. 99. 96. 95. 92. 92. 90. 89. 85. 85. 85. 85. 87. 87.
      87. 84. 93. 96. 102. 102. 102. 105. 99. 98. 99. 102. 103. 106.
      103. 103. 103. 107. 109. 110. 110. 106. 103. 102. 102. 102. 102.
      103. 103. 102. 103. 102. 101. 102. 102. 101. 101. 102. 102. 103.
      103. 105. 105. 103. 102. 103. 105. 105. 103. 103. 105. 105. 105.
      103. 102. 103. 103. 103. 106. 112. 123. 120. 95. 64. 46. 53. 72.
      89. 90. 87. 105. 117. 117. 112. 93. 72. 64. 50. 43. 56. 50. 50.
      50. 46. 53. 53. 46. 43. 43. 66. 84. 53. 28. 0. 70. 166. 192. 146.
      61. 28. 50. 70. 89. 125. 131. 110. 99. 90. 74. 78. 95. 98. 80. 74.
      76. 82. 84. 80. 78. 82. 82. 76. 78. 78. 78. 80. 80. 80. 82. 85.
      87. 92. 95. 98. 99. 101. 102. 106. 110. 112. 111. 106. 105. 106.
      103. 56. 39. 70. 90. 85. 87. 101. 109. 112. 107. 105. 103. 105.
      105. 103. 102. 102. 102. 103. 102. 102. 102. 102. 103. 102. 101.
      102. 103. 105. 105. 105. 105. 105. 105. 105. 106. 109. 110. 110.
      110. 111. 110. 110. 109. 109. 109. 110. 111. 112. 114. 116. 114.
      109. 112. 115. 111. 115. 114. 102. 78. 56. 46. 64. 85. 92. 90. 92.
      98. 112. 126. 124. 85. 53. 50. 43. 53. 28. 43. 74. 90. 92. 76. 80.
      103. 74. 0. 21. 56. 158. 137. 59. 28. 28. 59. 84. 106. 171. 116.
      0. 21. 21. 21. 66. 127. 133. 106. 99. 74. 56. 136. 164. 125. 112.
      95. 82. 92. 103. 107. 107. 110. 109. 112. 115. 118. 122. 124. 124.
      126. 127. 126. 125. 127. 129. 128. 129. 127. 120. 114. 102. 101.
      114. 111. 105. 132. 141. 147. 181. 188. 185. 188. 136. 72. 96.
      110. 112. 109. 109. 111. 110. 110. 112. 112. 114. 114. 115. 116.
      115. 114. 115. 116. 115. 115. 115. 116. 115. 112. 111. 110. 110.
      111. 111. 109. 106. 105. 103. 103. 101. 98. 96. 93. 93. 93. 92.
      89. 87. 84. 82. 85. 80. 76. 78. 64. 61. 68. 80. 96. 99. 96. 90.
      87. 101. 126. 130. 126. 114. 70. 56. 85. 59. 21. 39. 21. 46. 95.
      84. 61. 66. 78. 74. 46. 28. 53. 87. 85. 21. 46. 103. 114. 64. 0.
      0. 46. 39. 34. 43. 64. 101. 120. 124. 114. 102. 106. 92. 76. 96.
      128. 127. 127. 125. 126. 132. 128. 125. 130. 125. 115. 117. 118.
      118. 115. 114. 115. 117. 118. 116. 115. 110. 112. 114. 110. 87.
      53. 21. 0. 68. 126. 130. 249. 249. 242. 225. 197. 161. 141. 119.
      85. 98. 109. 110. 109. 109. 105. 103. 103. 102. 99. 99. 99. 96.
      92. 90. 90. 89. 87. 87. 85. 82. 80. 80. 80. 78. 78. 76. 78. 76.
      76. 74. 74. 76. 76. 76. 76. 76. 76. 76. 78. 80. 80. 82. 82. 82.
      82. 89. 84. 80. 96. 103. 102. 99. 96. 96. 90. 87. 99. 123. 141.
      123. 115. 125. 120. 105. 90. 78. 66. 72. 64. 50. 46. 50. 50. 43.
      43. 46. 46. 46. 43. 43. 46. 39. 39. 43. 43. 46. 50. 64. 70. 89.
      99. 120. 122. 124. 117. 103. 106. 112. 109. 107. 103. 96. 101.
      112. 116. 106. 102. 105. 103. 102. 110. 110. 110. 109. 107. 109.
      109. 106. 106. 106. 105. 102. 105. 102. 99. 107. 117. 116. 106.
      89. 76. 87. 112. 110. 101. 90. 76. 70. 68. 59. 56. 59. 70. 84. 85.
      82. 84. 74. 72. 78. 80. 82. 84. 84. 84. 87. 89. 90. 90. 89. 89.
      90. 95. 95. 93. 93. 95. 98. 99. 98. 98. 98. 101. 102. 103. 103.
      103. 103. 105. 105. 105. 105. 105. 103. 103. 103. 103. 105. 103.
      103. 106. 105. 105. 103. 102. 105. 109. 109. 110. 120. 131. 132.
      120. 116. 114. 114. 117. 123. 122. 119. 122. 117. 110. 110. 105.
      103. 101. 96. 92. 90. 89. 87. 90. 93. 93. 95. 99. 105. 109. 112.
      116. 112. 110. 111. 109. 102. 102. 102. 103. 105. 103. 105. 109.
      107. 107. 106. 103. 101. 101. 101. 98. 98. 98. 98. 96. 95. 95. 96.
      98. 98. 98. 96. 98. 101. 99. 98. 99. 101. 103. 101. 101. 103. 110.
      114. 115. 115. 110. 112. 70. 72. 74. 74. 61. 46. 53. 53. 43. 56.
      66. 85. 114. 127. 122. 118. 110. 99. 99. 105. 109. 107. 107. 107.
      106. 105. 107. 107. 109. 107. 107. 109. 109. 107. 107. 109. 110.
      110. 110. 110. 111. 115. 116. 115. 114. 112. 111. 110. 111. 112.
      112. 112. 112. 112. 115. 116. 115. 116. 116. 118. 117. 116. 117.
      120. 126. 127. 122. 117. 116. 115. 115. 112. 110. 109. 107. 106.
      107. 109. 105. 103. 105. 110. 114. 112. 110. 110. 110. 106. 106.
      106. 106. 107. 110. 111. 111. 110. 109. 111. 112. 112. 115. 117.
      122. 122. 119. 118. 120. 117. 111. 112. 114. 109. 107. 110. 109.
      107. 107. 107. 106. 107. 107. 109. 107. 107. 110. 110. 110. 110.
      111. 114. 115. 115. 116. 117. 118. 117. 117. 118. 119. 119. 119.
      120. 122. 122. 87. 87. 76. 61. 46. 43. 53. 61. 56. 53. 39. 34. 39.
      50. 74. 109. 141. 144. 128. 119. 119. 120. 123. 123. 117. 117.
      119. 120. 120. 122. 123. 124. 124. 123. 120. 119. 117. 116. 114.
      114. 116. 116. 112. 112. 111. 111. 111. 112. 114. 112. 110. 110.
      112. 112. 111. 111. 110. 110. 111. 111. 111. 110. 109. 109. 106.
      106. 105. 105. 105. 107. 107. 107. 107. 107. 109. 109. 107. 107.
      109. 103. 105. 110. 110. 106. 103. 107. 111. 120. 123. 125. 127.
      132. 136. 142. 144. 147. 151. 150. 151. 150. 147. 144. 142. 137.
      136. 126. 119. 135. 149. 139. 128. 129. 125. 122. 122. 120. 119.
      118. 117. 117. 117. 116. 116. 116. 116. 116. 116. 116. 117. 117.
      116. 116. 117. 118. 118. 117. 117. 117. 119. 119. 120. 120. 122.
      122. 96. 98. 93. 84. 74. 72. 70. 70. 72. 74. 76. 80. 78. 68. 56.
      46. 76. 107. 110. 119. 116. 110. 111. 115. 111. 112. 111. 110.
      110. 110. 110. 110. 111. 115. 119. 126. 122. 125. 134. 132. 126.
      130. 134. 133. 132. 130. 130. 131. 131. 130. 130. 129. 126. 122.
      123. 117. 114. 116. 105. 101. 96. 90. 90. 87. 85. 84. 87. 90. 87.
      82. 80. 80. 80. 78. 78. 76. 74. 72. 70. 80. 74. 70. 76. 82. 82.
      85. 85. 84. 92. 92. 92. 82. 84. 90. 85. 82. 89. 89. 82. 74. 80.
      85. 82. 80. 80. 74. 61. 78. 143. 156. 126. 129. 123. 122. 122.
      123. 123. 122. 122. 123. 122. 119. 119. 118. 118. 118. 118. 118.
      118. 120. 122. 123. 123. 123. 120. 120. 120. 119. 119. 122. 122.
      122. 123. 123. 99. 99. 102. 103. 105. 105. 106. 109. 110. 111.
      112. 114. 114. 117. 120. 119. 111. 105. 105. 109. 111. 110. 110.
      110. 109. 112. 116. 120. 126. 133. 142. 149. 152. 156. 159. 168.
      178. 151. 114. 131. 151. 131. 131. 135. 133. 130. 126. 125. 119.
      114. 107. 96. 87. 84. 87. 89. 82. 74. 70. 80. 90. 89. 80. 76. 85.
      78. 56. 53. 53. 70. 76. 72. 68. 66. 72. 76. 84. 92. 74. 43. 61.
      106. 90. 56. 66. 68. 59. 76. 92. 164. 118. 66. 43. 28. 43. 72. 89.
      103. 105. 90. 78. 85. 92. 90. 89. 80. 50. 53. 126. 172. 130. 126.
      125. 126. 126. 124. 124. 123. 123. 124. 124. 124. 124. 124. 123.
      120. 120. 120. 120. 120. 122. 124. 124. 123. 123. 124. 125. 126.
      127. 127. 127. 127. 128. 129. 103. 103. 105. 106. 106. 107. 109.
      110. 110. 111. 111. 112. 112. 112. 112. 114. 117. 117. 117. 117.
      118. 120. 122. 120. 123. 129. 132. 134. 139. 143. 144. 146. 147.
      150. 154. 164. 171. 64. 0. 92. 146. 80. 85. 87. 85. 85. 87. 89.
      72. 56. 64. 107. 151. 132. 90. 68. 56. 84. 148. 149. 85. 53. 66.
      66. 80. 143. 140. 53. 34. 61. 80. 74. 66. 72. 78. 74. 84. 93. 84.
      39. 50. 134. 120. 78. 95. 85. 66. 66. 85. 156. 114. 56. 39. 39.
      46. 59. 66. 74. 95. 98. 85. 80. 84. 87. 85. 85. 56. 43. 118. 171.
      137. 123. 128. 126. 125. 126. 126. 126. 124. 125. 126. 125. 125.
      126. 127. 128. 128. 128. 128. 128. 128. 128. 127. 127. 127. 127.
      128. 129. 130. 130. 131. 132. 132. 133. 106. 107. 109. 109. 109.
      110. 111. 112. 114. 114. 114. 114. 115. 117. 118. 119. 119. 120.
      120. 120. 120. 122. 125. 129. 131. 131. 130. 133. 134. 134. 134.
      133. 134. 136. 149. 160. 164. 53. 0. 95. 132. 85. 93. 92. 89. 93.
      92. 87. 72. 39. 34. 78. 125. 133. 118. 93. 66. 64. 107. 129. 90.
      66. 76. 80. 92. 101. 80. 56. 39. 61. 89. 93. 103. 103. 87. 87. 90.
      80. 66. 53. 53. 64. 68. 70. 70. 68. 68. 66. 74. 80. 92. 70. 64.
      76. 80. 76. 82. 87. 74. 80. 87. 92. 96. 74. 72. 87. 56. 39. 109.
      167. 147. 129. 123. 125. 127. 127. 127. 127. 126. 127. 128. 128.
      128. 130. 130. 131. 131. 131. 131. 131. 131. 131. 131. 131. 132.
      133. 133. 133. 133. 132. 132. 134. 136. 137. 110. 110. 111. 111.
      112. 112. 112. 115. 116. 116. 117. 117. 119. 122. 122. 123. 123.
      124. 125. 126. 128. 129. 129. 129. 130. 130. 128. 130. 130. 130.
      132. 132. 132. 133. 144. 152. 154. 53. 0. 87. 127. 82. 85. 89. 82.
      84. 76. 78. 84. 80. 64. 46. 43. 61. 64. 72. 72. 68. 66. 76. 82.
      82. 84. 84. 84. 76. 78. 84. 80. 87. 92. 84. 64. 61. 76. 66. 64.
      64. 70. 90. 109. 111. 110. 115. 112. 106. 101. 78. 66. 66. 80. 85.
      85. 85. 85. 82. 70. 59. 82. 145. 160. 132. 92. 61. 68. 87. 59. 39.
      105. 167. 151. 130. 131. 132. 131. 132. 131. 129. 129. 130. 132.
      133. 133. 132. 133. 134. 134. 134. 133. 133. 134. 134. 135. 135.
      136. 137. 138. 139. 139. 137. 137. 138. 140. 140. 111. 112. 114.
      115. 116. 116. 118. 118. 119. 119. 119. 120. 123. 123. 123. 123.
      124. 125. 127. 127. 128. 129. 129. 129. 128. 128. 129. 131. 131.
      131. 131. 130. 130. 129. 144. 152. 151. 50. 0. 82. 122. 84. 82.
      70. 64. 76. 98. 112. 117. 112. 116. 119. 98. 70. 53. 68. 70. 61.
      76. 87. 99. 111. 106. 98. 102. 98. 102. 137. 144. 129. 122. 101.
      56. 53. 76. 61. 87. 136. 144. 124. 98. 84. 89. 85. 84. 101. 127.
      150. 130. 78. 64. 74. 82. 85. 76. 59. 70. 120. 159. 140. 99. 64.
      56. 70. 80. 90. 70. 39. 90. 162. 158. 139. 133. 136. 137. 137.
      137. 137. 137. 137. 137. 137. 137. 137. 136. 135. 134. 135. 137.
      139. 137. 136. 140. 141. 141. 138. 137. 138. 140. 141. 141. 143.
      144. 144. 114. 116. 117. 116. 117. 118. 120. 122. 122. 123. 123.
      125. 125. 125. 125. 125. 126. 127. 127. 128. 129. 129. 129. 129.
      129. 129. 130. 130. 130. 132. 131. 128. 128. 132. 137. 155. 146.
      46. 0. 74. 115. 80. 53. 64. 132. 152. 124. 87. 80. 76. 66. 85.
      142. 160. 109. 59. 64. 72. 76. 76. 70. 66. 68. 76. 93. 105. 131.
      144. 116. 82. 61. 59. 70. 80. 66. 59. 111. 120. 87. 59. 64. 72.
      70. 66. 66. 68. 102. 159. 146. 93. 59. 68. 78. 70. 68. 102. 148.
      157. 134. 109. 96. 117. 122. 112. 90. 72. 64. 50. 66. 142. 176.
      151. 138. 138. 140. 140. 140. 141. 141. 141. 141. 141. 140. 138.
      138. 137. 137. 138. 139. 140. 143. 144. 145. 145. 144. 143. 141.
      141. 142. 142. 142. 144. 144. 144. 116. 117. 118. 118. 119. 120.
      123. 123. 124. 124. 125. 126. 128. 129. 128. 128. 129. 130. 130.
      130. 131. 132. 132. 131. 131. 131. 131. 131. 133. 134. 131. 131.
      132. 136. 143. 157. 138. 39. 0. 72. 112. 84. 59. 50. 129. 156.
      102. 78. 90. 95. 76. 85. 142. 151. 101. 61. 61. 82. 89. 84. 76.
      56. 72. 128. 117. 90. 117. 119. 115. 123. 125. 105. 78. 66. 74.
      82. 80. 78. 76. 80. 72. 68. 80. 107. 138. 150. 124. 92. 70. 66.
      66. 72. 80. 109. 146. 152. 118. 85. 76. 85. 80. 92. 76. 123. 171.
      142. 78. 39. 50. 123. 186. 158. 139. 140. 141. 142. 143. 144. 144.
      144. 144. 144. 144. 143. 142. 142. 142. 143. 144. 144. 145. 145.
      144. 144. 142. 141. 141. 144. 146. 148. 148. 145. 144. 142. 119.
      122. 124. 124. 124. 125. 127. 127. 127. 127. 127. 128. 130. 130.
      131. 130. 129. 129. 129. 131. 131. 133. 134. 134. 135. 134. 134.
      135. 136. 138. 138. 137. 136. 134. 149. 162. 129. 34. 0. 68. 116.
      89. 72. 53. 76. 124. 144. 132. 112. 105. 106. 112. 126. 138. 125.
      95. 66. 70. 80. 87. 84. 80. 76. 70. 76. 82. 74. 76. 72. 59. 114.
      189. 162. 80. 56. 70. 84. 76. 70. 74. 92. 124. 141. 129. 98. 68.
      59. 66. 76. 80. 68. 56. 96. 152. 167. 140. 89. 64. 80. 89. 78. 78.
      39. 103. 183. 159. 95. 46. 28. 106. 188. 172. 145. 145. 148. 145.
      144. 146. 146. 145. 146. 147. 145. 145. 145. 144. 144. 144. 144.
      145. 144. 144. 144. 144. 144. 144. 145. 148. 150. 149. 146. 144.
      143. 142. 122. 125. 128. 128. 129. 129. 130. 131. 131. 132. 132.
      133. 132. 131. 133. 136. 135. 134. 134. 135. 135. 136. 138. 140.
      141. 140. 138. 139. 138. 138. 139. 138. 143. 145. 152. 172. 123.
      34. 0. 59. 116. 84. 56. 117. 160. 124. 84. 64. 66. 72. 72. 66. 46.
      59. 173. 175. 93. 46. 50. 96. 131. 133. 107. 80. 82. 89. 89. 93.
      82. 64. 105. 175. 160. 82. 50. 64. 80. 92. 109. 137. 153. 135.
      101. 82. 85. 98. 105. 107. 109. 109. 72. 66. 61. 61. 90. 124. 129.
      119. 111. 111. 110. 106. 109. 119. 101. 68. 70. 61. 34. 85. 182.
      186. 151. 145. 149. 149. 148. 147. 147. 148. 149. 148. 147. 148.
      147. 146. 146. 146. 146. 148. 148. 148. 149. 151. 151. 151. 151.
      151. 151. 151. 152. 153. 152. 151. 127. 128. 129. 130. 131. 133.
      135. 137. 137. 137. 138. 137. 136. 136. 138. 139. 138. 137. 138.
      138. 140. 140. 140. 141. 141. 143. 141. 139. 141. 143. 142. 139.
      138. 142. 163. 183. 103. 21. 0. 46. 112. 117. 59. 82. 132. 138.
      119. 109. 99. 92. 96. 103. 107. 116. 142. 119. 74. 68. 72. 68. 80.
      103. 119. 120. 111. 109. 107. 107. 114. 120. 112. 90. 70. 68. 70.
      66. 80. 107. 105. 99. 96. 93. 95. 96. 98. 98. 95. 95. 93. 101. 70.
      72. 84. 84. 76. 74. 78. 85. 90. 89. 90. 93. 93. 89. 90. 96. 103.
      107. 103. 132. 175. 178. 155. 146. 149. 149. 146. 145. 147. 150.
      147. 144. 145. 145. 144. 145. 145. 144. 144. 144. 145. 150. 150.
      149. 150. 151. 151. 149. 149. 150. 150. 151. 151. 151. 130. 131.
      133. 135. 136. 137. 138. 138. 138. 139. 140. 141. 140. 139. 140.
      141. 140. 141. 143. 143. 144. 144. 144. 144. 144. 145. 147. 145.
      147. 147. 144. 145. 147. 149. 170. 195. 87. 0. 0. 28. 90. 126. 82.
      68. 59. 76. 92. 99. 93. 93. 95. 90. 95. 92. 70. 61. 74. 89. 89.
      87. 78. 74. 80. 82. 85. 90. 93. 92. 96. 92. 85. 93. 103. 106. 109.
      107. 110. 106. 106. 110. 115. 117. 117. 120. 124. 127. 127. 130.
      134. 133. 144. 147. 147. 150. 151. 150. 149. 151. 150. 151. 151.
      153. 154. 156. 155. 153. 152. 152. 156. 155. 148. 146. 151. 149.
      149. 147. 143. 141. 141. 141. 140. 141. 143. 143. 143. 143. 141.
      141. 140. 133. 133. 143. 144. 144. 141. 140. 144. 151. 153. 148.
      145. 147. 154. 158. 134. 135. 137. 138. 139. 140. 141. 141. 141.
      141. 141. 141. 142. 143. 142. 142. 143. 144. 145. 147. 147. 147.
      146. 146. 147. 147. 148. 149. 149. 149. 148. 149. 149. 152. 164.
      186. 137. 89. 82. 90. 99. 107. 115. 115. 117. 117. 117. 116. 120.
      124. 122. 124. 125. 119. 123. 130. 137. 143. 146. 145. 150. 154.
      154. 156. 156. 155. 156. 158. 158. 158. 157. 156. 156. 156. 156.
      157. 156. 156. 155. 153. 151. 151. 153. 152. 149. 147. 146. 145.
      147. 146. 144. 143. 139. 140. 140. 138. 134. 130. 128. 130. 132.
      131. 130. 130. 126. 123. 122. 119. 118. 122. 123. 124. 125. 123.
      124. 125. 125. 122. 117. 116. 119. 119. 116. 118. 119. 119. 119.
      124. 130. 132. 132. 133. 134. 141. 141. 137. 150. 167. 164. 151.
      148. 148. 150. 151. 138. 140. 143. 143. 143. 144. 145. 145. 144.
      146. 148. 148. 148. 148. 147. 147. 147. 147. 148. 150. 151. 151.
      152. 152. 152. 150. 150. 151. 153. 154. 155. 156. 156. 156. 156.
      157. 164. 164. 164. 164. 161. 159. 158. 157. 158. 158. 156. 156.
      156. 155. 153. 152. 151. 148. 144. 143. 143. 144. 144. 140. 142.
      142. 137. 131. 128. 127. 126. 123. 120. 119. 119. 120. 122. 122.
      120. 119. 118. 117. 116. 115. 112. 112. 111. 110. 110. 110. 110.
      111. 112. 111. 110. 107. 105. 106. 109. 107. 106. 105. 103. 103.
      107. 110. 107. 103. 102. 102. 105. 105. 106. 105. 106. 109. 110.
      111. 111. 115. 116. 117. 119. 122. 122. 122. 125. 126. 128. 129.
      131. 134. 135. 135. 134. 134. 134. 129. 126. 124. 122. 119. 118.
      117. 115. 115. 112. 111. 144. 146. 147. 149. 151. 153. 156. 158.
      160. 156. 158. 159. 161. 160. 156. 156. 152. 147. 148. 148. 147.
      146. 146. 147. 147. 147. 146. 144. 144. 145. 146. 145. 145. 143.
      139. 137. 135. 132. 129. 126. 125. 125. 126. 127. 124. 120. 118.
      118. 117. 118. 120. 118. 116. 115. 114. 112. 112. 112. 114. 114.
      112. 112. 110. 109. 107. 107. 106. 106. 107. 106. 105. 105. 105.
      103. 103. 105. 105. 105. 103. 105. 106. 107. 107. 107. 106. 106.
      106. 106. 107. 109. 111. 112. 114. 116. 117. 119. 120. 122. 124.
      124. 124. 125. 127. 129. 130. 129. 130. 130. 131. 133. 133. 133.
      132. 130. 130. 129. 127. 127. 127. 126. 124. 124. 124. 122. 119.
      118. 117. 117. 116. 115. 112. 112. 112. 112. 114. 114. 114. 112.
      112. 114. 115. 115. 114. 114. 150. 151. 153. 153. 152. 151. 151.
      151. 150. 149. 151. 149. 144. 137. 135. 141. 142. 137. 132. 128.
      125. 125. 125. 125. 124. 123. 122. 120. 118. 118. 118. 117. 118.
      118. 114. 115. 115. 116. 115. 114. 111. 110. 110. 111. 111. 111.
      111. 110. 107. 107. 111. 111. 110. 111. 111. 112. 112. 114. 116.
      117. 118. 118. 118. 119. 122. 123. 123. 125. 126. 125. 126. 128.
      129. 128. 128. 128. 131. 132. 131. 131. 130. 130. 132. 134. 134.
      132. 132. 132. 131. 129. 129. 130. 131. 129. 127. 126. 126. 127.
      128. 127. 123. 123. 123. 123. 122. 119. 119. 119. 119. 119. 119.
      120. 119. 118. 117. 117. 118. 118. 117. 117. 117. 117. 117. 116.
      115. 115. 115. 117. 117. 117. 117. 117. 116. 116. 116. 115. 115.
      114. 114. 112. 111. 111. 111. 111. 142. 140. 137. 134. 131. 130.
      129. 129. 128. 130. 131. 129. 127. 127. 127. 131. 130. 128. 127.
      125. 125. 125. 126. 129. 129. 128. 126. 127. 126. 125. 126. 126.
      126. 127. 125. 127. 130. 132. 132. 132. 132. 132. 133. 133. 134.
      135. 135. 134. 133. 132. 133. 135. 135. 134. 134. 133. 132. 132.
      133. 133. 132. 132. 132. 132. 132. 132. 132. 131. 129. 129. 128.
      127. 127. 127. 128. 127. 125. 125. 125. 125. 124. 122. 122. 123.
      123. 122. 119. 118. 119. 119. 119. 120. 120. 120. 119. 120. 120.
      120. 122. 122. 119. 119. 119. 120. 122. 120. 119. 119. 119. 119.
      120. 120. 119. 119. 118. 118. 117. 117. 116. 115. 115. 114. 112.
      114. 115. 115. 115. 112. 111. 111. 111. 111. 111. 111. 110. 109.
      109. 109. 110. 109. 109. 109. 110. 110. 144. 143. 140. 139. 139.
      139. 139. 139. 139. 137. 137. 138. 141. 141. 138. 137. 136. 136.
      136. 136. 137. 138. 136. 135. 133. 134. 135. 135. 136. 135. 134.
      133. 134. 134. 132. 132. 132. 131. 128. 126. 127. 128. 128. 128.
      127. 126. 125. 125. 126. 126. 125. 124. 123. 123. 123. 123. 123.
      123. 123. 123. 123. 123. 123. 123. 123. 123. 123. 124. 124. 123.
      123. 124. 124. 124. 125. 126. 126. 126. 125. 125. 126. 127. 126.
      125. 125. 124. 124. 123. 122. 123. 123. 122. 122. 122. 123. 122.
      119. 119. 119. 119. 118. 119. 119. 119. 118. 117. 116. 116. 116.
      117. 115. 112. 112. 114. 114. 114. 115. 115. 114. 114. 114. 114.
      114. 115. 115. 116. 116. 116. 118. 118. 118. 117. 118. 117. 117.
      117. 117. 117. 116. 115. 114. 112. 110. 109. 119. 120. 122. 120.
      119. 122. 122. 122. 120. 119. 119. 119. 120. 122. 122. 120. 120.
      122. 122. 122. 122. 123. 123. 124. 124. 123. 123. 125. 126. 126.
      125. 124. 124. 124. 125. 125. 125. 126. 126. 125. 126. 126. 125.
      124. 124. 124. 125. 125. 125. 126. 126. 126. 125. 125. 125. 125.
      125. 125. 125. 124. 124. 124. 124. 124. 124. 123. 123. 124. 124.
      123. 123. 123. 123. 123. 124. 124. 124. 123. 122. 122. 122. 122.
      122. 122. 122. 120. 120. 120. 120. 119. 118. 118. 119. 120. 120.
      118. 117. 117. 116. 116. 116. 118. 119. 119. 119. 120. 122. 123.
      120. 118. 118. 120. 122. 120. 118. 118. 117. 116. 115. 112. 110.
      109. 107. 105. 103. 102. 99. 96. 95. 90. 87. 85. 80. 76. 72. 72.
      70. 68. 64. 61. 59. 56. 56. 56. 124. 124. 124. 123. 122. 123. 123.
      124. 124. 124. 124. 125. 125. 125. 125. 125. 126. 125. 126. 126.
      125. 125. 125. 125. 125. 125. 125. 125. 126. 126. 126. 125. 125.
      125. 124. 125. 125. 125. 126. 125. 125. 124. 123. 122. 123. 124.
      124. 124. 124. 124. 125. 124. 124. 123. 122. 122. 122. 122. 123.
      123. 122. 122. 122. 120. 120. 120. 120. 122. 122. 122. 122. 122.
      123. 123. 122. 120. 119. 119. 119. 119. 119. 119. 120. 120. 119.
      119. 119. 119. 122. 123. 122. 119. 123. 125. 123. 120. 122. 122.
      120. 118. 117. 112. 107. 106. 105. 102. 98. 95. 89. 87. 82. 80.
      78. 72. 72. 68. 66. 64. 59. 56. 53. 53. 53. 53. 53. 50. 50. 50.
      50. 50. 50. 53. 53. 59. 59. 59. 59. 61. 64. 64. 59. 59. 56. 56.</_>
    <_>
      125. 125. 124. 125. 125. 126. 125. 125. 126. 126. 125. 127. 127.
      126. 127. 129. 129. 128. 129. 129. 128. 128. 129. 128. 129. 129.
      128. 128. 128. 125. 127. 125. 124. 123. 118. 117. 120. 119. 119.
      119. 117. 118. 118. 120. 127. 131. 133. 140. 141. 141. 142. 142.
      144. 143. 142. 142. 141. 144. 143. 142. 144. 144. 142. 141. 142.
      141. 140. 141. 143. 143. 141. 142. 143. 143. 142. 143. 140. 140.
      143. 143. 143. 144. 143. 142. 143. 143. 143. 140. 141. 140. 137.
      138. 137. 137. 134. 133. 133. 129. 132. 124. 112. 106. 102. 99.
      96. 95. 95. 93. 93. 95. 95. 95. 96. 95. 95. 96. 96. 96. 96. 95.
      98. 96. 96. 96. 96. 99. 96. 96. 98. 98. 98. 98. 96. 96. 96. 98.
      99. 99. 99. 98. 98. 98. 98. 99. 124. 124. 123. 124. 124. 124. 123.
      123. 125. 124. 123. 124. 126. 124. 124. 126. 125. 126. 128. 127.
      127. 129. 128. 129. 129. 129. 128. 130. 129. 131. 131. 132. 130.
      130. 131. 132. 133. 133. 132. 134. 132. 132. 133. 135. 137. 138.
      139. 141. 139. 140. 141. 140. 139. 142. 141. 140. 138. 142. 140.
      142. 142. 140. 142. 141. 140. 141. 140. 139. 140. 141. 140. 139.
      140. 141. 140. 140. 139. 138. 141. 142. 142. 143. 142. 140. 142.
      141. 141. 143. 142. 142. 142. 143. 142. 143. 141. 142. 141. 138.
      137. 138. 137. 130. 125. 114. 109. 106. 102. 102. 99. 98. 99. 96.
      93. 93. 96. 96. 96. 95. 93. 96. 95. 93. 96. 96. 98. 96. 95. 95.
      98. 95. 95. 96. 98. 96. 96. 93. 95. 96. 96. 92. 93. 96. 96. 98.
      123. 124. 124. 124. 124. 125. 126. 126. 126. 125. 123. 124. 124.
      126. 124. 126. 125. 125. 125. 126. 127. 127. 127. 127. 126. 127.
      128. 128. 126. 127. 129. 129. 129. 128. 129. 132. 132. 131. 131.
      132. 132. 131. 132. 133. 134. 133. 133. 134. 135. 136. 135. 134.
      135. 135. 137. 137. 135. 136. 136. 138. 136. 136. 137. 137. 136.
      135. 137. 137. 135. 137. 138. 137. 138. 138. 138. 137. 137. 136.
      139. 141. 139. 139. 140. 138. 141. 141. 140. 141. 141. 140. 140.
      141. 141. 142. 141. 142. 140. 144. 141. 141. 143. 141. 142. 137.
      130. 122. 117. 114. 111. 112. 111. 109. 106. 106. 107. 109. 106.
      105. 103. 105. 105. 102. 103. 105. 105. 103. 102. 101. 101. 101.
      103. 101. 102. 103. 103. 101. 102. 105. 102. 101. 103. 103. 103.
      105. 123. 124. 124. 124. 124. 124. 125. 126. 123. 124. 124. 124.
      124. 124. 124. 124. 123. 123. 124. 123. 124. 122. 122. 126. 126.
      125. 125. 128. 127. 126. 126. 127. 124. 127. 127. 126. 126. 127.
      128. 128. 128. 129. 129. 130. 132. 131. 130. 130. 131. 133. 132.
      131. 134. 132. 133. 134. 133. 134. 135. 136. 135. 135. 133. 134.
      132. 135. 133. 135. 134. 134. 136. 135. 135. 136. 136. 136. 134.
      135. 137. 138. 137. 137. 138. 138. 138. 139. 139. 139. 140. 138.
      140. 139. 141. 139. 140. 139. 139. 141. 139. 139. 140. 140. 140.
      142. 142. 140. 138. 135. 132. 133. 130. 130. 129. 129. 129. 129.
      130. 130. 129. 128. 126. 127. 126. 125. 125. 124. 123. 123. 123.
      123. 123. 124. 126. 127. 125. 126. 128. 128. 127. 128. 128. 128.
      126. 128. 120. 122. 120. 120. 120. 120. 122. 120. 122. 122. 122.
      120. 123. 122. 122. 122. 122. 122. 123. 122. 120. 120. 119. 122.
      122. 119. 119. 123. 124. 122. 123. 123. 123. 124. 124. 123. 125.
      126. 126. 128. 126. 125. 126. 126. 127. 126. 127. 128. 126. 127.
      128. 128. 129. 129. 129. 128. 128. 129. 131. 132. 131. 129. 130.
      130. 131. 131. 132. 132. 130. 133. 135. 135. 134. 135. 134. 131.
      133. 134. 135. 134. 135. 136. 136. 135. 136. 137. 135. 137. 137.
      136. 137. 137. 137. 136. 137. 138. 138. 139. 138. 137. 137. 137.
      137. 139. 138. 138. 140. 139. 138. 137. 137. 138. 139. 139. 139.
      140. 141. 142. 142. 142. 141. 140. 140. 139. 139. 139. 140. 140.
      141. 142. 143. 142. 142. 143. 143. 144. 144. 142. 144. 144. 144.
      144. 144. 144. 119. 120. 119. 118. 118. 119. 119. 119. 119. 119.
      120. 118. 120. 119. 117. 111. 109. 107. 107. 109. 109. 107. 107.
      109. 110. 107. 110. 111. 112. 114. 115. 114. 116. 115. 116. 114.
      117. 118. 119. 124. 124. 122. 122. 122. 123. 124. 126. 126. 127.
      128. 126. 125. 127. 126. 127. 127. 127. 128. 128. 129. 130. 126.
      128. 128. 129. 129. 129. 128. 129. 129. 128. 130. 130. 129. 130.
      128. 128. 130. 131. 131. 132. 133. 132. 131. 132. 133. 133. 133.
      132. 133. 134. 134. 133. 133. 135. 135. 133. 134. 135. 134. 134.
      135. 137. 137. 136. 137. 136. 136. 135. 135. 135. 135. 137. 136.
      137. 138. 138. 138. 138. 140. 140. 142. 140. 140. 139. 138. 139.
      139. 141. 141. 140. 142. 144. 143. 144. 145. 145. 144. 145. 144.
      146. 147. 144. 144. 118. 117. 118. 116. 117. 119. 118. 117. 118.
      118. 119. 117. 119. 110. 95. 92. 96. 93. 92. 92. 93. 96. 95. 95.
      93. 95. 93. 93. 93. 95. 96. 95. 95. 96. 99. 98. 96. 96. 99. 102.
      102. 101. 103. 105. 106. 107. 109. 110. 109. 112. 115. 115. 114.
      115. 115. 118. 118. 120. 120. 119. 123. 124. 124. 126. 127. 127.
      127. 128. 129. 128. 124. 126. 129. 128. 129. 129. 129. 130. 129.
      130. 131. 131. 131. 131. 129. 131. 126. 126. 131. 130. 130. 130.
      131. 132. 131. 131. 130. 131. 132. 131. 131. 132. 132. 131. 132.
      133. 133. 133. 132. 133. 134. 133. 135. 134. 135. 136. 136. 136.
      137. 137. 138. 138. 139. 138. 138. 139. 139. 138. 140. 141. 140.
      142. 142. 142. 142. 143. 142. 145. 145. 143. 144. 145. 144. 144.
      115. 116. 116. 114. 115. 117. 116. 117. 117. 115. 116. 116. 114.
      93. 84. 102. 115. 114. 115. 114. 112. 112. 110. 110. 110. 107.
      107. 107. 107. 103. 105. 105. 102. 103. 102. 102. 101. 101. 96.
      98. 95. 96. 98. 98. 96. 95. 93. 95. 96. 95. 93. 95. 93. 93. 93.
      95. 95. 96. 99. 99. 99. 99. 99. 102. 103. 103. 106. 106. 106. 106.
      106. 107. 109. 109. 109. 114. 112. 114. 116. 116. 118. 119. 123.
      123. 122. 120. 123. 122. 124. 127. 124. 129. 127. 127. 131. 129.
      131. 130. 129. 130. 129. 128. 128. 129. 128. 129. 129. 129. 128.
      128. 130. 128. 129. 130. 134. 134. 134. 134. 134. 135. 135. 135.
      136. 135. 133. 136. 134. 136. 137. 136. 139. 137. 140. 140. 141.
      141. 141. 143. 142. 142. 144. 144. 141. 144. 116. 115. 115. 115.
      116. 116. 116. 115. 115. 116. 114. 111. 109. 90. 85. 114. 124.
      126. 127. 125. 124. 125. 124. 124. 122. 122. 124. 128. 126. 118.
      120. 124. 128. 125. 120. 119. 120. 119. 118. 122. 122. 122. 120.
      122. 122. 118. 115. 112. 114. 114. 112. 110. 109. 110. 107. 109.
      106. 103. 105. 103. 103. 103. 102. 102. 101. 99. 101. 101. 101.
      98. 96. 93. 95. 95. 95. 95. 96. 95. 92. 92. 98. 96. 96. 96. 95.
      96. 96. 98. 98. 96. 99. 99. 101. 101. 102. 106. 107. 106. 106.
      109. 109. 110. 110. 107. 111. 112. 112. 112. 110. 112. 112. 112.
      112. 116. 114. 115. 118. 118. 117. 119. 119. 124. 122. 120. 120.
      123. 123. 123. 128. 128. 129. 132. 135. 139. 139. 140. 141. 140.
      141. 142. 141. 141. 141. 141. 106. 106. 107. 107. 109. 110. 109.
      110. 111. 109. 106. 103. 101. 85. 93. 119. 125. 125. 126. 124.
      125. 127. 127. 125. 124. 133. 122. 102. 93. 98. 102. 93. 102. 117.
      132. 123. 123. 125. 130. 120. 107. 102. 105. 106. 107. 119. 132.
      126. 123. 126. 126. 127. 125. 124. 122. 122. 123. 122. 122. 127.
      123. 122. 120. 120. 123. 123. 120. 120. 120. 119. 116. 116. 117.
      117. 119. 119. 119. 118. 115. 110. 111. 112. 109. 110. 109. 103.
      102. 105. 103. 102. 101. 96. 98. 101. 96. 93. 95. 96. 95. 96. 98.
      96. 96. 92. 92. 95. 98. 93. 92. 92. 92. 92. 93. 93. 93. 93. 95.
      92. 92. 93. 93. 95. 98. 98. 96. 98. 96. 101. 101. 102. 105. 107.
      109. 120. 137. 136. 137. 138. 138. 139. 140. 140. 140. 139. 89.
      89. 89. 90. 92. 90. 90. 92. 90. 92. 92. 90. 89. 85. 98. 126. 124.
      126. 128. 126. 125. 126. 126. 126. 128. 123. 85. 84. 109. 114.
      118. 111. 92. 82. 114. 132. 125. 130. 110. 82. 85. 107. 111. 109.
      93. 82. 107. 133. 129. 122. 99. 115. 132. 126. 124. 123. 124. 126.
      120. 109. 126. 128. 122. 124. 124. 127. 124. 123. 125. 124. 124.
      126. 129. 127. 118. 112. 107. 114. 120. 127. 131. 122. 122. 122.
      126. 125. 123. 120. 120. 120. 124. 126. 124. 118. 117. 118. 118.
      118. 116. 116. 116. 115. 117. 116. 116. 115. 111. 111. 110. 110.
      111. 110. 109. 107. 105. 103. 102. 101. 101. 99. 98. 101. 99. 95.
      93. 98. 93. 93. 95. 90. 89. 89. 90. 96. 116. 130. 132. 134. 137.
      136. 136. 138. 136. 137. 85. 85. 85. 85. 85. 84. 85. 84. 84. 85.
      84. 85. 82. 89. 103. 122. 131. 133. 135. 137. 133. 125. 125. 125.
      130. 109. 76. 101. 127. 125. 125. 126. 107. 74. 103. 128. 125.
      125. 102. 96. 115. 123. 120. 126. 119. 82. 85. 119. 132. 118. 80.
      96. 127. 126. 125. 127. 127. 129. 110. 82. 118. 129. 125. 124.
      124. 126. 124. 122. 125. 127. 126. 129. 114. 92. 89. 101. 103. 99.
      89. 89. 118. 134. 124. 127. 123. 103. 93. 95. 99. 99. 96. 99. 120.
      135. 124. 120. 122. 123. 124. 122. 124. 130. 120. 110. 103. 120.
      128. 123. 124. 115. 118. 116. 117. 115. 114. 118. 119. 119. 120.
      122. 118. 116. 118. 117. 117. 114. 114. 114. 115. 109. 96. 78. 89.
      90. 109. 118. 124. 128. 130. 133. 134. 135. 133. 133. 85. 85. 85.
      85. 85. 85. 85. 85. 85. 85. 85. 82. 85. 85. 102. 120. 133. 134.
      140. 139. 132. 128. 125. 125. 125. 107. 78. 101. 128. 125. 122.
      127. 106. 78. 105. 126. 123. 122. 120. 122. 120. 128. 134. 120.
      89. 80. 102. 123. 129. 114. 80. 103. 125. 126. 130. 120. 120. 119.
      96. 85. 120. 124. 125. 124. 126. 124. 125. 125. 125. 125. 128.
      118. 84. 84. 115. 125. 120. 124. 116. 76. 80. 125. 131. 123. 95.
      80. 96. 114. 118. 116. 109. 85. 78. 112. 132. 122. 122. 125. 124.
      128. 130. 109. 92. 85. 82. 114. 125. 125. 126. 93. 89. 95. 95. 95.
      93. 99. 98. 96. 96. 117. 124. 120. 123. 122. 123. 122. 119. 119.
      122. 112. 96. 82. 85. 93. 107. 114. 119. 123. 124. 125. 128. 127.
      128. 127. 85. 85. 85. 85. 85. 85. 85. 85. 85. 85. 85. 84. 84. 85.
      106. 115. 117. 122. 125. 126. 125. 126. 125. 125. 129. 101. 76.
      110. 127. 120. 123. 124. 101. 78. 115. 127. 124. 125. 123. 125.
