<?xml version="1.0"?>
<opencv_storage>
<opencv_ml_svm>
  <format>3</format>
  <svmType>C_SVC</svmType>
  <kernel>
    <type>LINEAR</type></kernel>
  <C>1.</C>
  <term_criteria><iterations>1000</iterations></term_criteria>
  <var_count>4032</var_count>
  <class_count>2</class_count>
  <class_labels type_id="opencv-matrix">
    <rows>2</rows>
    <cols>1</cols>
    <dt>i</dt>
    <data>
      0 1</data></class_labels>
  <sv_total>1</sv_total>
  <support_vectors>
    <_>
      -2.38202279e-04 -2.24064861e-04 -2.02863652e-04 -1.31907800e-04
      -1.28372543e-04 -1.42493198e-04 -1.81377312e-04 -1.82359072e-04
      -1.79493145e-04 -1.05598330e-04 -7.03209371e-05 -7.60918847e-05
      -1.02801278e-04 -3.69021218e-05 -1.66806840e-05 -8.70218792e-05
      -8.39561399e-05 -3.15783946e-05 5.71922419e-06 -7.41059102e-06
      1.51339773e-05 4.57617571e-05 1.32173054e-05 -1.21576697e-04
      -1.98367095e-04 -1.48570121e-04 -9.19097511e-05 -3.72287832e-05
      -1.51403565e-05 -9.65293020e-06 -5.20769499e-05 -5.08415287e-05
      -2.35014868e-05 3.63836916e-05 8.81992746e-05 6.18041304e-05
      3.24704342e-05 -3.57511999e-05 -6.33661621e-05 -1.07858585e-04
      -1.32014015e-04 -3.33395146e-05 -8.10009169e-06 -1.47589990e-05
      1.37890709e-06 1.40129550e-05 -6.86128396e-06 9.82268648e-06
      -1.52623161e-05 -7.29296225e-05 -1.02644808e-04 -1.65425270e-04
      -1.75175301e-04 -2.13679508e-04 -1.37920550e-04 -3.38724749e-05
      4.98701738e-05 8.70992590e-05 1.11624453e-04 1.18519441e-04
      -3.97925578e-05 -7.42403354e-05 -8.31667876e-06 -3.92412730e-05
      -2.89522177e-05 -3.50502451e-05 1.53050350e-05 6.13285592e-05
      7.71233827e-05 1.23503109e-04 1.43538258e-04 4.39413707e-05
      4.87933794e-05 4.50526386e-06 -2.54888837e-05 -6.75244883e-05
      -8.97633290e-05 -1.48876614e-04 -6.56656630e-05 -3.66774730e-05
      -5.49348915e-05 -4.36734990e-05 2.34754571e-05 7.76282031e-05
      1.45476995e-04 1.57563933e-04 1.09834458e-04 9.54816278e-05
      7.64043652e-05 9.15461860e-05 1.43053461e-04 2.21139358e-04
      2.38696026e-04 2.23701703e-04 1.33934736e-04 6.27545087e-05
      -2.71331937e-05 5.16112377e-05 3.14116478e-05 8.48299605e-05
      7.84196018e-05 5.53702994e-05 3.38229438e-05 2.19477151e-05
      5.39108332e-05 1.68845625e-04 2.29500030e-04 2.77328916e-04
      2.06058510e-04 1.86864199e-04 1.71828113e-04 2.03309653e-04
      2.31100887e-04 1.05553787e-04 -1.15122748e-06 9.06530568e-06
      4.83851145e-05 2.29354428e-05 -4.96559878e-05 -3.23114218e-05
      -4.66622987e-05 -2.60441375e-05 -4.91449646e-05 -1.42611330e-04
      -1.18920849e-04 -9.02273023e-05 -1.01190955e-04 -8.06858880e-05
      -7.80409755e-05 -5.65170194e-05 -1.38823680e-05 8.71496086e-05
      1.35828304e-04 1.68902654e-04 2.25030875e-04 2.86912895e-04
      2.82401888e-04 1.83806071e-04 1.14923372e-04 9.58623641e-05
      -2.59367916e-05 8.47257434e-06 7.13904810e-05 1.45873360e-04
      -2.97742576e-04 -1.50227002e-04 -1.82406133e-04 -2.18052461e-04
      -2.15789740e-04 -1.97032889e-04 -1.25176943e-04 -4.58543582e-05
      -3.05137492e-05 4.28545900e-05 7.09030428e-05 6.68335633e-05
      5.50746190e-05 6.09867639e-05 2.94950623e-05 1.47394837e-06
      -1.41441142e-05 -4.91164337e-06 -3.76831595e-05 -5.63601170e-05
      -3.91246867e-05 3.15546022e-05 7.42571792e-05 4.29597804e-07
      -2.16325607e-05 2.15758087e-06 -5.16525915e-06 3.72771246e-05
      2.89916788e-05 -1.70487729e-05 -2.67616324e-05 -5.33659186e-05
      -2.22992876e-05 3.97568474e-05 8.35692626e-05 5.64781076e-05
      3.63715662e-05 4.27943560e-05 9.34014315e-05 2.96316266e-05
      -2.24440446e-05 -1.09693401e-05 -1.49971820e-05 -6.68005305e-05
      -2.73402893e-05 2.87244602e-05 6.76568379e-06 5.68367468e-05
      1.11221607e-05 -2.79256310e-05 -8.52706144e-05 -2.01783696e-04
      -2.00779483e-04 -2.23623007e-04 -9.72211856e-05 -6.68969224e-05
      4.13082762e-06 8.88860959e-05 1.46568942e-04 1.07441767e-04
      -1.43261695e-05 -7.67253368e-05 -1.08397522e-04 -8.67011040e-05
      -1.26716095e-05 -4.91388419e-05 -2.49575078e-05 1.14361028e-05
      4.15291543e-05 1.04311730e-04 1.40586199e-04 -2.04439766e-05
      -1.02860853e-04 -2.32057591e-05 -9.68520817e-06 -5.02631665e-05
      -4.06724757e-05 -9.37249933e-05 -1.14201648e-04 -1.99664530e-04
      -1.36587696e-04 -7.60375697e-05 -9.26386838e-06 -5.59633190e-06
      -2.40754980e-05 -4.16735420e-05 -8.52201047e-05 -6.51072914e-05
      -5.65221053e-05 3.31982119e-05 -2.59095177e-05 8.30525169e-05
      1.07499720e-04 1.15056995e-04 -2.67067335e-05 -1.60510259e-04
      -2.13934487e-04 -9.94098154e-05 -3.10397650e-06 1.18063724e-06
      -5.85660791e-06 -8.06202843e-06 -9.05675042e-05 -1.32199115e-04
      -9.85698789e-05 5.51730518e-05 1.67741266e-04 1.97815985e-04
      1.95018991e-04 1.44679449e-04 1.07007931e-04 1.34488146e-04
      1.66377024e-04 1.05936429e-04 3.71525748e-05 6.87929642e-05
      3.75927193e-05 1.59545569e-04 1.40085656e-04 7.25949067e-05
      7.22325494e-05 -1.35267710e-05 1.87499813e-06 -6.53170864e-05
      -7.62139316e-05 -3.70998350e-05 -8.47631327e-06 4.22732264e-05
      5.96264399e-05 1.08079963e-04 1.30855609e-04 6.19042257e-05
      8.56851184e-05 1.21930731e-04 2.17980662e-04 2.86137802e-04
      2.09488557e-04 1.13102935e-04 8.05809468e-05 1.82123108e-06
      -2.70955061e-05 -1.38051455e-05 -1.10256472e-07 8.37907010e-06
      -1.84729928e-04 -1.37235271e-04 -1.02787817e-04 -1.39194381e-04
      -1.41279670e-04 -1.01704456e-04 -6.54732576e-05 -5.11159378e-05
      1.10029805e-05 2.95182563e-05 8.47418996e-05 5.52868623e-05
      4.49600630e-05 8.92388634e-05 1.04812592e-04 6.77827047e-05
      2.10433227e-05 6.54130854e-05 2.25969798e-05 -3.51672134e-06
      2.55542136e-06 -1.06297430e-05 7.83930154e-05 3.34806537e-05
      3.60920785e-05 -4.49213330e-05 -3.70629823e-05 7.97181565e-06
      -1.10553847e-05 4.01106736e-05 7.84806616e-05 1.09955457e-04
      1.19804608e-04 1.32958143e-04 5.24323077e-05 3.72734467e-05
      1.25312390e-05 1.91789186e-05 5.82842113e-05 5.16344699e-05
      -3.14386016e-05 1.16053877e-06 1.15202092e-05 2.20593520e-05
      1.32623201e-04 1.01985359e-04 1.67341586e-05 8.27688636e-05
      9.16827703e-05 -1.22311221e-05 -6.28978232e-05 -8.13633815e-05
      -1.22036858e-04 -1.43759476e-04 -1.71138799e-05 5.74047772e-05
      4.99488888e-05 9.14289267e-05 1.22360623e-04 1.34360133e-04
      1.76533780e-04 1.31104229e-04 9.57367884e-05 7.33577981e-05
      7.69571343e-05 8.05774034e-05 5.95080819e-05 1.07861291e-04
      1.18335243e-04 9.51940674e-05 9.31186605e-06 -1.23174294e-04
      -2.00641443e-04 -1.02946375e-04 3.94629315e-05 -1.18501730e-05
      -1.11967332e-04 -1.35365990e-04 -1.29102147e-04 -2.17451903e-04
      -2.50572193e-04 -2.41275586e-04 -2.09057675e-04 -2.40151872e-04
      -2.69111362e-04 -1.73807362e-04 -8.63829191e-05 -1.33983704e-04
      -1.33234527e-04 -1.75239125e-04 -5.50662917e-05 2.66150273e-05
      4.57282295e-06 3.32960117e-05 8.14253144e-05 3.45306726e-05
      -7.11593966e-05 -1.44523467e-04 -2.51116471e-05 8.10243728e-06
      -3.62393689e-06 -1.04852101e-04 -6.42509913e-05 -4.09831409e-05
      -4.86675563e-05 6.31073708e-05 1.32912814e-04 9.49196328e-05
      1.49471336e-04 1.41306024e-04 2.73064907e-05 2.06840668e-05
      8.84608562e-06 -3.62678802e-05 -6.87614083e-05 -3.80953716e-05
      -6.05287505e-06 1.56486585e-05 2.92929144e-05 2.88385818e-05
      3.51008421e-05 -1.96852743e-05 -1.43968588e-04 -1.40523014e-04
      -9.27494330e-05 -6.37414050e-05 -7.02355028e-05 8.93949527e-06
      3.52368625e-05 8.41275178e-05 1.26259372e-04 1.35002425e-04
      8.99954466e-05 4.49713116e-05 8.45532923e-05 9.32450203e-05
      5.19676651e-05 7.96235418e-06 -9.05340421e-05 -1.36721501e-04
      -9.68859895e-05 -1.57267743e-04 -1.30686574e-04 -1.50075313e-04
      -6.06556787e-05 -7.86316959e-05 -5.40111287e-05 -2.04513290e-05
      -3.33765856e-05 -9.29777525e-06 -3.42229032e-06 3.59258520e-05
      8.78417995e-05 1.89069251e-05 3.47147216e-05 1.33590984e-05
      -1.41627534e-05 1.58777984e-05 1.69856248e-05 4.22511903e-06
      -2.56321637e-05 -3.73953080e-05 -1.29942737e-05 2.81088001e-06
      -2.14179340e-06 -6.94978735e-05 -7.50836552e-05 -9.62986669e-05
      -1.09964261e-04 -1.74084125e-04 -1.44947873e-04 -1.16048715e-04
      -8.39271743e-05 -7.03795376e-05 -8.76269496e-06 5.55945517e-05
      -1.24787994e-05 3.90316891e-05 -1.79508643e-05 -4.83158583e-05
      -2.97416609e-05 -2.97071201e-05 -8.66684422e-06 -7.21744000e-05
      -1.00624646e-04 -7.26503931e-05 -4.28943349e-05 -4.08782507e-05
      1.63930690e-05 6.28827547e-05 1.12047172e-04 1.26676954e-04
      8.49313001e-05 4.04032471e-05 2.59402314e-05 -1.54357422e-05
      -1.56767230e-04 -1.56328038e-04 1.17948939e-05 1.17461241e-04
      1.11863737e-05 4.43829376e-05 6.70888840e-05 2.54922998e-05
      6.04015549e-05 1.03014281e-04 1.00585567e-04 8.25677198e-05
      7.91085986e-05 9.49978930e-05 1.02265753e-04 1.11716559e-04
      2.11950010e-05 -5.70429293e-05 -7.87150857e-05 -3.10782270e-05
      -4.53978464e-05 -9.25308123e-05 -1.82254098e-05 3.83445222e-05
      9.57968805e-05 1.02093109e-04 6.81025413e-05 3.01273813e-05
      -2.45437750e-05 -9.58927631e-05 -1.49789063e-04 -1.82100819e-04
      -2.11785009e-04 -2.21063892e-04 -1.34273534e-04 -7.67041565e-05
      -7.25149293e-05 -1.01874022e-04 -1.13374932e-04 -1.13956361e-04
      -1.59478703e-04 -1.69689141e-04 -2.16868619e-04 -1.58001683e-04
      -1.01746198e-04 -1.24997721e-04 -9.59230601e-05 -8.94436816e-05
      -8.94772529e-05 -1.22597805e-04 -5.85173548e-05 -6.93267648e-05
      -5.46573574e-05 4.66296806e-05 1.24070837e-04 6.64755280e-05
      8.07062679e-05 6.60983205e-05 4.06405306e-05 8.76378108e-05
      6.84441693e-05 5.31328951e-05 1.58998282e-05 -1.98764901e-05
      1.30453273e-05 6.12829463e-05 3.82405415e-05 2.89194631e-05
      1.39937192e-05 -3.16088176e-07 -7.79392576e-05 -6.80252851e-05
      -4.60432857e-05 -6.42479645e-05 -9.97017851e-05 -7.35779176e-05
      -2.63117981e-05 -6.00180647e-05 -5.30319849e-05 2.10282378e-05
      5.24256102e-05 6.83856997e-05 3.84002487e-05 9.45350348e-06
      -3.10798423e-05 -1.89017337e-05 6.28897988e-06 -2.32651309e-05
      -1.97264035e-05 -5.02338735e-05 -1.24727492e-04 -1.58968032e-04
      -1.18529701e-04 -1.03998726e-04 -7.55847796e-05 -3.15374541e-06
      4.13670496e-05 3.70335511e-05 -2.27692217e-05 7.19858872e-06
      5.60496810e-05 7.43473283e-05 7.86817327e-05 7.66755693e-05
      2.02428018e-05 4.98492045e-05 6.45271721e-05 6.94270930e-05
      5.73254110e-05 -1.53636374e-05 -5.60351255e-05 -6.91867317e-05
      1.80927454e-05 -1.24516055e-05 -3.22701089e-05 -2.61743462e-05
      -9.13143740e-05 -1.41885321e-04 -1.00576792e-04 -1.04995946e-04
      -7.86083401e-05 -2.05136785e-05 -2.25692274e-05 -6.40366707e-05
      -2.67508130e-05 2.01039052e-06 -2.46429718e-05 -9.60694670e-05
      -6.13781231e-05 -4.65803605e-05 1.68711667e-05 3.07043265e-05
      -3.25560541e-05 -8.31131038e-05 -7.87234967e-05 -5.30360703e-05
      -3.37168967e-05 -7.32804028e-06 4.36749542e-05 7.60561743e-05
      4.11172732e-05 2.28978624e-05 -1.07938749e-05 -2.17404067e-05
      -9.97447933e-05 -8.40607099e-05 5.76003695e-05 1.32615503e-04
      1.41237379e-05 7.70474362e-05 1.58289840e-05 -1.08064422e-04
      -9.20495149e-05 -3.73049370e-05 6.90255692e-05 1.15687901e-04
      1.08673172e-04 8.38278866e-05 -8.83921416e-08 -4.43856115e-05
      -4.65390003e-05 -3.83280749e-05 1.55068665e-05 1.41903847e-05
      2.17341621e-05 -5.06208198e-05 -3.23892564e-05 1.07224565e-04
      1.77782931e-04 1.77811322e-04 9.84725630e-05 7.63228309e-05
      1.43866982e-05 -8.25704774e-05 -8.63426685e-05 -1.10669316e-04
      -1.61028147e-04 -1.70818093e-04 -1.62839759e-04 -1.68016661e-04
      -7.86953460e-05 1.67867202e-05 6.77944718e-06 -4.78062757e-05
      -5.25401010e-05 -1.79110955e-07 -5.41844056e-05 -1.53236353e-04
      -1.20381876e-04 -1.14510083e-04 -1.09492597e-04 -7.03588812e-05
      -6.42999439e-05 -1.39333177e-04 -1.24804559e-04 -1.07302694e-04
      -2.44160292e-05 6.22330044e-05 1.26499654e-04 9.06608839e-05
      6.22523148e-05 3.72087379e-05 6.39321152e-05 1.42301447e-04
      1.53622968e-04 3.33540302e-05 5.06960532e-06 3.46967181e-06
      -4.13339112e-05 2.39329747e-05 1.68061160e-05 -7.02818943e-06
      -4.33192145e-06 -1.64171634e-05 -2.70171822e-05 5.79207335e-05
      1.17991112e-04 1.26661529e-04 1.57083741e-05 -5.69454278e-05
      -8.57973282e-05 -7.45917205e-05 -8.28543580e-06 1.37991756e-05
      4.83320582e-05 4.10403773e-05 8.19759807e-05 6.52017916e-05
      -4.31495719e-05 -5.58108622e-05 -2.03361833e-06 3.86889333e-05
      6.14811943e-05 -7.27464721e-05 -1.16193725e-04 -1.36340779e-04
      1.55814021e-04 1.59952382e-04 1.33558584e-04 9.47799199e-05
      6.99828888e-05 4.67040700e-05 1.88285685e-05 2.51788915e-05
      1.14802369e-05 2.83512600e-05 6.75573392e-05 1.27348976e-04
      1.25234859e-04 9.97442767e-05 1.21728859e-04 5.19884925e-05
      4.86767349e-05 6.82844693e-05 -1.12496691e-05 7.32686885e-06
      1.04470564e-04 1.00510239e-04 1.29450229e-04 1.04748491e-04
      5.53858517e-05 -4.29525571e-05 -7.36522779e-05 -1.07727043e-04
      -4.12757072e-05 1.08443883e-05 -4.42774799e-05 -1.99834267e-05
      4.15276263e-05 5.96235805e-05 -1.70636486e-05 -5.83695364e-05
      -9.39873426e-05 -8.69640135e-05 -1.73520766e-05 2.30029673e-06
      1.64811754e-05 -1.46786060e-05 -2.29072502e-05 -1.45172244e-05
      -2.20699803e-05 -7.41954573e-05 -5.12460501e-05 3.53620853e-05
      2.34521412e-05 -2.40947284e-05 -7.64454671e-06 4.26530642e-06
      -6.73186951e-05 -1.10103421e-04 -3.78214281e-05 -3.80739129e-06
      -1.24233384e-06 4.79632363e-05 1.73460739e-05 -1.35808179e-04
      -1.20056560e-04 -4.00285317e-05 6.94923656e-05 4.13029738e-05
      5.20167987e-07 -2.81332177e-05 -8.99678853e-05 -4.28032909e-05
      5.76211933e-05 9.70708425e-05 1.14170747e-04 7.51517655e-05
      4.21389777e-05 3.80025813e-05 2.52196387e-05 8.43149537e-05
      4.45739497e-05 5.86125025e-05 3.33318712e-05 -7.02510297e-05
      -6.13567317e-05 -6.15395984e-05 -1.01959238e-04 -1.15212089e-04
      -1.19821161e-04 -6.91503374e-05 -1.05360577e-05 3.96051546e-05
      9.66534717e-05 1.16394731e-04 5.72273784e-05 -1.48211366e-05
      -7.29365711e-05 -8.35308310e-05 -7.01065801e-05 -1.25643754e-04
      -7.37158916e-05 -6.11562573e-05 -4.56513735e-05 1.62623382e-05
      5.42684102e-05 2.81952634e-06 -8.89573566e-05 -7.32769477e-05
      3.11529875e-05 2.89645668e-05 5.91725911e-05 1.59802890e-04
      2.33795421e-04 2.58734130e-04 1.84357516e-04 2.01452247e-04
      1.82090924e-04 2.75633301e-05 -4.80713861e-05 -3.15198849e-05
      -1.56020214e-05 7.88654070e-05 1.04940926e-04 1.24403479e-04
      1.34447822e-04 1.59416668e-04 1.85331446e-04 1.50062449e-04
      1.34041009e-04 1.55816233e-04 1.31183915e-04 7.13694972e-05
      4.25008402e-05 1.18537100e-05 1.09789135e-05 1.67423968e-05
      6.89930530e-05 5.63762733e-05 6.83911858e-05 3.66358072e-05
      1.17883992e-05 3.18689854e-05 7.17503353e-05 1.06642488e-04
      7.67670354e-05 -2.49920358e-05 -7.66377343e-05 -1.63382021e-04
      1.70780098e-04 1.06317180e-04 1.14637682e-04 1.05007777e-04
      5.65129812e-05 4.35156253e-05 8.55568142e-05 5.86686547e-05
      7.09581436e-05 4.46888007e-05 6.61459708e-05 7.02133766e-05
      1.31988214e-04 1.53186877e-04 1.32085770e-04 1.17460158e-05
      -2.86655268e-05 2.41794150e-05 6.03058033e-05 1.63023375e-04
      2.37791130e-04 2.67403288e-04 2.72685895e-04 2.73981073e-04
      1.66195197e-04 4.17918782e-05 2.95713453e-05 4.43616373e-05
      6.03069748e-05 6.73409959e-05 5.31704718e-05 7.04033664e-05
      8.34299499e-05 1.04570563e-05 -4.88997903e-05 -2.52825757e-05
      1.22521135e-06 6.32931478e-05 9.29256639e-05 2.41971611e-05
      -1.61273820e-05 -4.95012901e-05 -4.45531223e-05 -1.03079648e-04
      -1.04221668e-04 4.16270296e-07 7.41379190e-05 6.58844729e-05
      -1.58597431e-05 -7.11546600e-05 4.76676450e-06 -6.17480146e-06
      -1.03881226e-04 -1.15495270e-04 -4.60942356e-05 -8.39806380e-05
      -8.65161419e-05 -5.49277211e-05 -1.84136297e-05 -9.70913170e-05
      -8.22483489e-05 4.15004506e-05 1.21830140e-04 1.31899447e-04
      1.09032459e-04 6.92742469e-05 5.08285630e-05 7.77897949e-05
      6.65754633e-05 4.60995107e-05 5.87883878e-05 7.25516074e-05
      5.55429397e-05 4.91426399e-05 1.04869592e-04 1.28608546e-04
      1.02786740e-04 1.45038808e-04 1.39614334e-04 8.13475490e-05
      1.77073034e-05 1.77565362e-05 1.92357002e-05 1.20496079e-05
      -5.58720239e-05 -3.73268558e-05 2.00554787e-05 2.46380514e-05
      -5.55050838e-06 6.09855269e-05 4.80895906e-05 4.08931337e-05
      8.72665478e-05 5.85100970e-05 2.56044459e-05 2.07900921e-05
      7.52616252e-05 9.31952600e-05 4.72010688e-05 3.08084745e-05
      1.38888907e-04 9.10327362e-05 1.88097729e-05 1.20855600e-06
      2.64744522e-05 3.90797613e-05 3.15135912e-06 -1.76721460e-05
      4.07596599e-05 1.28062456e-04 1.40958859e-04 1.90344697e-04
      1.20458033e-04 -7.88431043e-06 -5.98656807e-05 -9.47348453e-05
      -1.27265652e-04 -7.84695440e-05 -9.52291612e-06 9.01561143e-05
      5.47804848e-05 6.91346359e-05 1.29043081e-04 2.19149733e-04
      2.28144912e-04 1.14063514e-04 6.40613871e-05 5.85555863e-05
      1.01780337e-04 1.27039515e-04 1.41954020e-04 1.04664468e-04
      1.55809801e-04 2.08158206e-04 1.35209499e-04 1.25905892e-04
      3.88533699e-05 3.39469079e-05 1.35695982e-05 2.80090553e-05
      -4.92792333e-06 -1.34382746e-04 -1.11506452e-04 -2.33509127e-04
      3.32467826e-05 -7.15882436e-07 4.15134855e-05 5.84730478e-05
      8.35880855e-05 4.00139834e-05 6.61833474e-05 -7.81722974e-07
      -2.90581211e-05 -3.17488848e-05 -3.30103876e-06 1.54542940e-05
      1.64275643e-05 -2.18164150e-05 -1.30896779e-05 -5.21458751e-05
      -4.73715081e-05 9.14093016e-06 5.99079394e-05 7.26143699e-05
      1.18691678e-04 7.54272260e-05 7.77902314e-05 1.24330938e-04
      1.18370430e-04 1.07824191e-04 1.38426316e-04 1.25373583e-04
      5.20096328e-05 -2.56935473e-05 -5.46563133e-05 -2.84580328e-05
      6.24785971e-05 -5.26898584e-05 -1.37178038e-04 -9.16369245e-05
      -7.24049241e-05 -2.06376717e-05 4.86997633e-05 4.46571139e-05
      -2.57952815e-05 -6.90752931e-05 -1.07119093e-04 -1.36527073e-04
      -1.49667350e-04 -2.16719818e-05 2.57303527e-05 4.04900275e-05
      -1.36907884e-05 -6.92800168e-05 -8.11705904e-05 4.41589364e-05
      4.04763887e-05 -3.37943820e-05 -6.01831380e-05 -1.16035306e-04
      -1.63157994e-04 -5.52283491e-05 -2.42529695e-05 -5.66424424e-05
      -2.56736184e-05 7.08207972e-06 -5.78221579e-06 -1.36434919e-05
      -1.48530989e-06 -6.10449133e-05 -1.07750406e-04 -3.64032530e-05
      2.39739747e-05 6.38142301e-05 1.53658082e-04 1.26351515e-04
      8.50582219e-05 1.07154636e-04 1.06007697e-04 5.45553521e-05
      2.45355113e-05 7.41713447e-05 1.52653185e-04 1.35433787e-04
      5.85397574e-05 -2.81020584e-05 1.34426773e-05 1.59604333e-05
      -1.74718061e-05 4.89692247e-05 3.69903792e-05 -3.42083003e-05
      -2.23399184e-05 9.10439267e-05 5.82198081e-05 -3.72400609e-05
      -5.93142386e-06 3.09499264e-05 2.28389054e-05 -4.83969561e-05
      3.13281416e-05 8.50433935e-05 6.68780922e-05 8.54092359e-05
      1.67172533e-04 1.15156749e-04 -3.02929675e-05 -5.62401110e-05
      -6.05816467e-06 -2.20466463e-05 -3.98706470e-05 -1.15035054e-05
      7.77375317e-05 1.15284507e-04 8.66481423e-05 8.92578319e-05
      5.02970470e-05 -5.44476206e-05 -8.73494864e-05 -5.59725086e-05
      -7.96741642e-06 -6.40651797e-06 -6.43113963e-05 6.39962600e-05
      9.38543089e-05 1.75071830e-06 2.09961272e-05 9.46209984e-05
      6.66982451e-05 5.47006130e-05 8.88985669e-05 6.68961147e-05
      3.28215106e-06 5.40580113e-05 6.96052084e-05 6.75001575e-05
      -7.86986857e-05 -3.40035076e-05 1.11292356e-05 6.51771843e-05
      2.57590054e-05 -2.71936424e-05 -4.75389825e-05 -5.41167174e-05
      -3.90935384e-05 -1.26153973e-04 -8.48477139e-05 -1.88406688e-04
      -2.36933902e-05 3.89649995e-06 1.72240398e-05 -5.74927653e-05
      -5.27005504e-05 2.53417584e-05 4.61607378e-05 9.87680396e-05
      1.33214227e-04 1.45487982e-04 1.02415586e-04 6.21184663e-05
      7.03200349e-05 4.80425260e-05 5.98776351e-05 4.48759238e-05
      5.48166972e-05 8.93066317e-05 1.08675551e-04 1.34144124e-04
      1.86418940e-04 8.85870177e-05 1.76051908e-05 1.50411597e-05
      3.86703432e-05 2.81651082e-05 2.90740118e-05 4.39788600e-05
      -7.05973871e-05 -1.94303775e-05 2.65375402e-05 2.44872645e-05
      3.42926141e-05 3.37401411e-06 -5.35411164e-05 -1.89460843e-05
      -6.17671394e-05 -1.97839636e-05 3.09193092e-05 -3.18566345e-05
      -4.83491676e-05 -4.63393480e-05 -8.16261454e-05 -7.11321409e-05
      -3.32073796e-05 1.01025016e-05 -2.43147097e-05 -1.09692678e-06
      -2.70115816e-05 -1.49921470e-04 -1.53711633e-04 -7.44015706e-05
      -8.79530398e-06 3.45684603e-05 1.38592732e-05 -3.10066825e-05
      -1.24349041e-04 -3.45814733e-05 3.40807674e-05 -1.91009512e-05
      -8.13008410e-06 -1.48155859e-05 -1.43896352e-06 7.97110042e-05
      1.44615304e-04 1.05266765e-04 2.44661460e-05 8.22301899e-06
      4.68908220e-05 8.86034250e-05 1.29256921e-04 1.08711945e-04
      7.37028313e-05 1.51081971e-04 2.08083540e-04 1.33687718e-04
      1.62931203e-04 2.48832599e-04 1.84273958e-04 9.58333912e-05
      5.32702288e-05 -2.88191914e-05 -9.17345824e-05 -6.05906680e-05
      2.87892217e-05 1.04489918e-04 4.48074861e-05 -7.77389650e-05
      -7.74400032e-05 1.10952176e-04 6.97699434e-05 -5.40295405e-05
      -5.07293807e-05 4.19286589e-05 1.15785144e-04 5.51143094e-05
      7.31171167e-05 1.07495034e-04 1.59234369e-05 1.34175589e-05
      8.59383581e-05 5.68138921e-06 -3.19739920e-05 -6.24002496e-05
      -4.05129176e-05 4.51552187e-05 8.73532990e-05 1.00456775e-04
      7.28490704e-05 5.72668287e-05 8.75365095e-06 -2.65718299e-05
      -2.38079683e-05 -1.13805363e-04 -1.31317182e-04 -1.67859849e-04
      -1.60871758e-04 -1.86447032e-05 -2.95049158e-05 -3.64839543e-05
      3.83333827e-05 8.22381262e-05 1.22331141e-04 9.36712167e-05
      8.96981292e-05 8.23192895e-05 1.36307892e-04 1.65195524e-04
      7.98683177e-05 7.74506625e-05 1.02121834e-04 3.75083582e-05
      -2.41842772e-05 -2.19339436e-05 -7.07270956e-05 -1.05329898e-04
      -2.06167369e-05 1.56689930e-05 8.35659557e-06 8.69064024e-05
      1.34971036e-04 1.57945506e-05 4.42116761e-05 -8.87187616e-06
      1.55008329e-05 8.70483382e-06 1.96470737e-05 -2.85146325e-05
      -3.24567118e-05 1.50088899e-05 6.70709123e-05 1.05372870e-04
      4.67747159e-05 7.24056154e-05 9.21537649e-05 1.04337041e-05
      -5.83108977e-06 3.24263237e-05 2.60992456e-05 9.57560860e-06
      2.68728691e-05 3.72647228e-05 4.59781222e-05 6.94032278e-05
      1.35435621e-04 5.36786283e-05 -4.27370542e-05 1.51443601e-05
      6.22482839e-05 6.75305637e-05 7.13398476e-05 6.85629275e-05
      -3.34544566e-05 -7.44784920e-05 -2.23704537e-05 -2.82916026e-05
      -3.34373726e-05 2.31487556e-05 4.28409840e-05 4.38941061e-05
      9.28954178e-05 1.22118392e-04 1.55710164e-04 6.95025301e-05
      7.28307214e-06 8.07206670e-05 1.27830790e-04 1.24311933e-04
      6.93760012e-05 5.11940925e-06 -5.71169721e-06 4.36993469e-05
      4.65376033e-05 -1.24365630e-04 -1.77661903e-04 -1.23174599e-04
      -3.24407374e-05 6.93963593e-05 1.59095172e-04 1.53864428e-04
      2.08572746e-05 8.25991738e-05 1.22429803e-04 8.14665473e-05
      6.52051458e-05 -6.61646311e-07 2.85579267e-06 5.40412984e-05
      1.33691341e-04 1.10725523e-04 7.94134321e-05 8.68356292e-05
      1.18533178e-04 9.89570690e-05 1.10638415e-04 3.24115863e-05
      3.66119493e-05 1.55996982e-04 2.39208326e-04 1.39897558e-04
      6.89167427e-05 1.61069111e-04 1.28650427e-04 1.18635639e-04
      4.42667879e-05 -7.32101398e-05 -6.44891115e-05 2.20276524e-05
      8.09825651e-05 8.65665206e-05 -4.79034788e-05 -1.05161133e-04
      -9.14445482e-05 -9.08929214e-05 -6.68342545e-05 -1.11170528e-04
      -9.09351220e-05 -4.82339738e-06 4.07593252e-05 -1.94164149e-05
      2.70168275e-05 -5.94578751e-06 -1.99975566e-05 -1.88906233e-05
      1.52857993e-07 4.65241974e-05 5.76889533e-06 -4.84722614e-06
      -5.10885402e-05 4.09364111e-06 1.36080198e-04 1.37071518e-04
      6.03652661e-05 1.53984856e-05 2.60147353e-05 1.53105400e-04
      1.18674012e-04 3.28095484e-05 2.35337393e-05 1.14618369e-05
      -3.78833647e-05 3.89690395e-05 4.99981579e-05 -8.18024128e-05
      -3.71529786e-05 2.24227952e-05 8.43529851e-05 3.72526993e-05
      6.23336018e-05 1.20177581e-04 1.12477392e-04 2.03347838e-04
      1.00835168e-04 8.34170442e-06 3.55214688e-05 2.89595519e-05
      -6.02420005e-05 -8.77323328e-05 -1.54177411e-04 -1.84150951e-04
      -1.61656484e-04 -1.42120072e-04 -6.72861133e-05 -2.53023936e-05
      3.60832128e-05 3.44467953e-05 -4.47523198e-05 -4.27289706e-05
      -3.31268129e-05 -4.77588874e-05 -2.36773576e-05 3.66943532e-05
      7.36539369e-05 1.27095045e-04 1.72338303e-04 2.00047143e-04
      1.29321925e-04 2.22179460e-05 1.33124377e-05 -4.95412241e-05
      -2.29951638e-05 2.27958753e-05 1.57029899e-05 -1.79228064e-05
      -2.86219656e-05 -1.28092261e-05 5.05385906e-05 3.67250541e-05
      -5.94700869e-05 -9.65863583e-05 -1.03196733e-04 -1.92833104e-05
      2.69438460e-05 6.52428571e-05 1.99824299e-05 -1.11936779e-05
      -8.65432303e-05 -8.17919354e-05 -4.12273839e-05 -4.36773007e-05
      -3.05938702e-05 1.62540873e-05 4.72323118e-05 6.92446192e-05
      1.65720106e-04 1.76317379e-04 1.36239280e-04 8.46088878e-05
      5.93159093e-05 4.54311812e-05 1.67761769e-04 1.39538912e-04
      1.31870867e-04 8.06889875e-05 7.00771125e-05 5.38661225e-05
      5.05777498e-05 5.55362567e-05 -2.35517527e-05 -7.76712841e-05
      -3.35692894e-05 -7.02930902e-06 1.03456914e-04 1.00429563e-04
      6.11948344e-05 1.46604325e-05 -3.91752983e-05 -5.69566182e-05
      -4.14059541e-05 -9.99685653e-05 -1.89248109e-04 -1.21387951e-04
      -1.18632423e-04 -1.73879598e-04 -6.98787189e-05 6.06297399e-05
      7.68863538e-05 5.78200816e-05 2.12899904e-05 -4.43999088e-05
      -1.12916605e-05 1.13990973e-04 9.55718133e-05 4.86775207e-05
      5.71993696e-05 1.03930295e-04 1.23432706e-04 1.64900630e-04
      6.78048964e-05 -7.91044367e-05 -3.26169102e-05 5.92062752e-05
      1.94754117e-04 2.32422186e-04 1.26454979e-04 7.25991122e-05
      7.38480376e-05 5.09432139e-05 5.80111846e-05 8.19680208e-05
      1.04519122e-05 3.56412647e-06 9.41903345e-05 7.22904006e-05
      1.02708313e-04 1.27143221e-06 1.59209758e-05 3.17681224e-05
      7.33914349e-05 1.07409716e-04 5.30369471e-05 7.56748632e-05
      -1.89717775e-05 -9.97515963e-06 1.18653770e-04 8.94456971e-05
      7.71937266e-05 1.68563085e-04 1.84746372e-04 2.08516693e-04
      2.37011307e-04 1.57503164e-04 8.98898506e-05 1.10758010e-05
      -3.95467287e-05 -4.31311082e-06 4.96482171e-05 -1.17240088e-05
      -9.00982122e-05 2.08222373e-05 4.26390361e-05 -6.52982635e-05
      -1.26585117e-04 -5.44281247e-05 1.22879328e-05 1.02212944e-04
      5.46360752e-05 4.17500778e-05 7.72154526e-05 5.91926619e-05
      -8.31696234e-05 -1.79365205e-04 -2.22521630e-04 -2.43210714e-04
      -2.04379554e-04 -1.32167756e-04 -1.26667830e-04 -1.41906741e-04
      -2.70601759e-05 -8.14131454e-06 -6.61765007e-05 -1.09830791e-04
      -1.59802759e-04 -1.41373137e-04 -8.88957293e-05 -1.66626360e-05
      9.54926800e-05 9.29051384e-05 1.61986914e-04 2.14942949e-04
      1.24421393e-04 2.45580268e-05 -1.95684861e-05 -8.52956800e-05
      -9.75635849e-05 -5.25212308e-05 -5.74540645e-05 -3.13813507e-05
      -6.21039135e-06 -1.78295923e-05 -6.16731631e-05 -1.31815905e-04
      -1.53180474e-04 -1.80865085e-04 -1.51941567e-04 -5.66744311e-05
      -4.51007727e-05 2.68646872e-05 -3.47657042e-05 -1.63609977e-04
      -1.95531029e-04 -1.29140462e-04 2.47360776e-06 2.80697332e-05
      2.72966772e-05 -2.43201112e-06 -5.54970757e-05 -1.36665549e-04
      -1.60032723e-04 -5.92469260e-05 2.30307178e-05 -6.68367284e-05
      -1.17063340e-04 -8.00601047e-05 1.38370788e-05 1.25663079e-04
      1.68731742e-04 2.05345190e-04 1.28104832e-04 1.03666287e-04
      1.42273246e-04 1.37843745e-04 1.45102284e-04 8.93778852e-05
      9.26698194e-05 -1.62306296e-05 5.42738553e-06 7.13259215e-05
      8.01266287e-05 6.84943661e-05 -9.82961865e-05 -1.94565364e-04
      -1.87087004e-04 -1.34064481e-04 -1.84046949e-04 -1.99764239e-04
      -2.17720110e-04 -2.15038119e-04 -1.55327609e-04 -1.49274958e-04
      -6.29211863e-05 -5.87205286e-05 -1.00517456e-04 -1.81621763e-05
      6.89401422e-05 1.96523091e-04 2.01346309e-04 2.47553486e-04
      2.36143242e-04 3.10384814e-04 3.27169080e-04 1.00237296e-04
      -1.06119689e-04 -1.08483553e-04 3.30698822e-05 8.29111304e-05
      1.52685854e-04 2.69049313e-04 2.36538399e-04 2.80491862e-04
      2.84846843e-04 1.76690417e-04 8.15935127e-05 6.42968735e-05
      -4.49600630e-05 -1.03221500e-04 2.33694082e-05 1.01663594e-04
      5.06235956e-05 3.82265862e-05 1.59355404e-05 1.61292810e-05
      3.29375325e-05 -5.43078349e-05 -4.28921776e-05 -4.56513480e-05
      -6.49500289e-05 -3.85013518e-05 -2.52505870e-05 2.64068603e-05
      8.33294034e-05 1.64279176e-04 1.88865117e-04 2.64602073e-04
      2.25987722e-04 8.78818901e-05 4.92071813e-05 -5.54405378e-05
      -9.99030235e-05 -5.34908177e-05 -1.39624448e-04 -1.54408306e-04
      -1.52738794e-04 -4.73935143e-05 -8.85957925e-05 -1.08135500e-04
      -1.21092104e-04 -1.11939211e-04 -1.14737639e-04 -9.36261858e-06
      -9.83888240e-05 -2.67824234e-05 3.53114301e-05 6.01898973e-05
      -4.76099449e-05 -1.04742408e-04 -1.64341807e-04 -1.97405694e-04
      -1.53850706e-04 -1.03137092e-04 -8.54579703e-05 3.08043382e-05
      8.38643027e-05 4.65515623e-05 4.80297458e-05 -8.57630439e-05
      2.28854860e-05 -3.26097506e-05 -2.11519346e-05 7.07239960e-05
      7.64283759e-05 8.48270502e-05 8.89954608e-05 9.83493956e-05
      1.39647876e-04 3.15892175e-05 1.82121275e-05 -1.72005202e-05
      5.43485794e-06 -4.89870108e-05 -3.29103459e-05 -8.65168695e-05
      -8.77797938e-05 -5.56393861e-05 -7.11473476e-05 -1.32525558e-04
      -1.34433940e-04 -1.66511905e-04 -7.32854605e-05 4.44158759e-05
      1.51003760e-05 9.82374841e-05 -5.74953010e-05 -1.12011876e-04
      -8.31075376e-05 4.38258530e-06 1.71129781e-04 2.98502127e-04
      2.74453138e-04 2.11944542e-04 8.09456251e-05 -8.02611976e-05
      -1.58276031e-04 -1.46333559e-05 2.74729282e-05 -7.57027010e-05
      -8.16854663e-05 -5.19104906e-05 -3.17107479e-05 9.96653907e-05
      2.24961608e-04 1.71083404e-04 1.06306426e-04 1.07837026e-04
      1.25620674e-04 1.06941756e-04 6.50073125e-05 5.73220241e-05
      9.86771120e-05 -2.22960643e-05 -9.94350848e-05 -8.47838237e-05
      -4.80115741e-05 -4.33027672e-05 -1.08593813e-04 -3.95337556e-05
      3.01257896e-05 -3.97750882e-05 -1.66540965e-04 -2.19449401e-04
      -1.97466521e-04 -2.45674513e-04 -2.83649366e-04 -2.60352768e-04
      -1.48213032e-04 -4.19017160e-05 -6.71863818e-05 -6.86672502e-05
      5.83083965e-05 2.23054187e-04 2.56492407e-04 1.94269029e-04
      1.57447677e-04 1.89325263e-04 2.19523528e-04 1.57200175e-05
      -2.47556542e-04 -2.38805980e-04 -4.19660173e-05 -8.29257406e-05
      -5.59254477e-05 1.87822461e-05 -1.24884755e-05 7.79038430e-07
      2.29212601e-05 4.08259802e-05 5.61906381e-05 7.45597936e-05
      9.77786931e-06 1.20418999e-05 5.87090835e-05 6.46187254e-05
      1.03663864e-04 1.77313064e-04 -2.20053953e-05 -1.56255177e-04
      -6.39527425e-05 1.14571245e-04 1.65761667e-04 -6.12030417e-05
      -1.59319010e-04 -2.51194520e-04 -1.46209088e-04 -2.65470080e-05
      -3.43853826e-05 5.70646225e-05 3.12832744e-05 1.25360661e-04
      1.41627825e-04 3.15634315e-05 -1.81232588e-06 -2.13059629e-05
      -5.25135738e-06 1.81204941e-05 -4.26229599e-05 -1.15367795e-04
      -1.50244174e-04 -1.81742180e-05 1.46550065e-05 3.74881492e-05
      -1.27046995e-04 -1.59704025e-04 -1.07710650e-04 -4.42793862e-05
      -1.06379550e-04 -6.50988804e-05 -8.60735818e-05 -3.34655051e-05
      -3.60180056e-05 -4.87560101e-05 -1.07881868e-04 -1.21471530e-04
      -9.36914075e-05 -8.97637510e-05 -6.73023824e-05 4.06742110e-05
      8.18149056e-05 4.03604026e-05 2.91257656e-05 -6.77320859e-05
      1.47722840e-05 9.95906612e-06 4.52926179e-05 8.88863942e-05
      6.21565050e-05 5.99902851e-05 5.54474318e-05 7.34216155e-05
      7.87154495e-05 4.15432478e-05 -2.38240355e-05 -4.06854815e-05
      5.06006545e-05 6.85383638e-05 1.00400372e-04 6.24378517e-05
      -1.73362278e-05 3.56119290e-06 6.47499182e-05 -2.54366296e-05
      -1.85783589e-04 -2.66201911e-04 -1.55501300e-04 -6.29568895e-05
      -4.81245479e-06 9.74961149e-05 1.86145144e-07 -7.38370873e-05
      -8.24546350e-06 -8.95446283e-05 7.95671949e-05 6.30135182e-05
      1.09502696e-04 1.96895489e-04 1.38840653e-04 4.34419198e-05
      -3.82267062e-05 -4.18046220e-05 -1.83840220e-05 -9.94069342e-05
      -8.90776573e-05 1.97203517e-05 -4.89108461e-05 -6.91213281e-05
      -1.16234878e-06 -1.28112765e-06 -3.34620090e-05 -5.53326900e-05
      1.02287820e-04 1.19427154e-04 -6.38457641e-06 -4.89122685e-05
      1.76902788e-04 1.42800869e-04 7.19693926e-05 4.88032529e-05
      6.75578558e-05 7.22362020e-05 -8.81796768e-06 8.89003204e-05
      6.21895524e-05 -4.27622981e-05 -1.33787456e-04 -1.32774076e-04
      -2.21972237e-04 -1.62178025e-04 -2.12889616e-04 -2.69819866e-04
      -1.25357954e-04 -7.04159465e-05 -1.46073682e-04 -1.51560744e-04
      3.54878830e-05 1.62653247e-04 1.37730836e-04 2.06226017e-04
      1.94633700e-04 4.01421821e-05 1.61586751e-04 8.37944099e-05
      -8.36596737e-05 -1.78741029e-04 -6.79559380e-05 -1.01171623e-04
      -1.51554312e-04 -1.30923887e-04 -9.02581160e-05 -8.53349557e-05
      -3.96217456e-06 -1.83901539e-05 -4.16424227e-05 1.88784688e-05
      -6.90363086e-05 -7.90087579e-05 3.76324242e-05 1.08908054e-04
      1.50723848e-04 -1.57417235e-05 -1.35241629e-04 -2.39234840e-04
      -1.12549031e-04 8.10273559e-05 1.23028731e-04 7.51249681e-05
      -7.36836737e-05 -1.73528155e-04 -9.72880589e-05 -1.37219162e-04
      -1.65854333e-04 -4.01437574e-05 -4.00014978e-05 -3.85505446e-05
      -7.50279141e-05 -1.03108629e-04 -4.74954941e-05 4.65319208e-05
      5.15467182e-05 8.62220913e-05 -6.66801934e-05 -1.33425201e-04
      -9.00532250e-05 -1.63182376e-05 -1.04305946e-05 6.26616747e-05
      3.88511071e-05 -7.99902318e-06 7.33662528e-05 1.76895031e-04
      5.15466527e-05 1.15015042e-04 1.47518658e-04 1.00974255e-04
      7.89330443e-05 4.24738064e-05 -2.40615755e-05 -3.02867356e-05
      3.92887596e-05 4.08116248e-05 -2.49130735e-05 -8.63325404e-05
      -4.07587358e-05 -5.74464066e-05 -3.01414639e-05 -4.76258901e-05
      -5.95224483e-05 1.93304240e-05 2.06335917e-05 -5.58357424e-05
      -4.12762929e-05 7.07888512e-06 7.33723427e-05 8.29421551e-05
      1.57258211e-04 1.52295441e-04 5.86855203e-05 1.92776442e-05
      4.80896706e-05 3.62970859e-05 6.97527721e-05 5.49243014e-05
      1.34068123e-05 5.79634288e-05 1.12136862e-04 1.02661994e-04
      -3.52360730e-05 -1.55875154e-04 -4.79122536e-05 -8.06566823e-05
      -1.10318557e-04 6.56917910e-05 2.59341396e-05 -1.51232525e-04
      -6.71383605e-05 -1.45887607e-04 -3.06642978e-05 -8.27333060e-05
      -4.27018203e-05 6.14603050e-05 3.55090269e-05 5.14168969e-05
      1.00334015e-04 1.10265755e-04 4.57913811e-05 -1.03098682e-04
      -1.00827012e-04 -5.47934396e-05 -1.03408405e-04 -9.13970216e-05
      -9.51391703e-05 -5.06157048e-05 -9.62885824e-05 -5.78077706e-05
      7.41262338e-05 -6.06021786e-06 -8.00642010e-05 -7.20530516e-05
      6.75493502e-05 5.42053203e-05 6.00705971e-05 1.50077176e-04
      8.12289436e-05 1.51722896e-04 1.51766959e-04 1.74168992e-04
      1.64366720e-04 1.78386705e-04 1.34020243e-04 6.55849290e-05
      -6.64449399e-05 1.13546894e-05 -1.45011159e-04 -2.85962131e-04
      -1.75438312e-04 8.01570968e-06 9.98117685e-06 -9.13408803e-06
      -5.67386560e-05 1.41394281e-04 2.73411337e-04 2.30929349e-04
      3.03935849e-05 1.18446123e-05 1.92368563e-04 8.64765825e-05
      -1.13131668e-04 -2.22802075e-04 -2.00389302e-04 -1.13247050e-04
      -3.39816288e-05 6.21487270e-05 3.62167921e-05 8.48387135e-05
      3.26003442e-06 -1.35049122e-04 -1.74415691e-04 -5.99476589e-05
      -1.68957704e-04 -2.73595419e-04 -9.30162423e-05 1.12492835e-05
      -2.26073207e-05 1.07073996e-04 3.91840695e-06 -4.87924699e-05
      3.62212668e-05 -9.36224296e-06 -1.68310245e-04 -8.92526514e-05
      -1.54786812e-05 -3.31699375e-05 2.68959889e-06 -7.87348108e-05
      -8.12791477e-05 -9.74483337e-05 -1.39913405e-04 -1.69502324e-04
      -2.02717871e-04 -2.97099730e-04 -1.90051098e-04 4.12609224e-05
      6.04176566e-05 1.14424874e-04 4.64047553e-05 -1.10701127e-04
      -7.14848356e-05 -5.54918843e-05 -2.93940266e-05 5.22985320e-05
      4.78625916e-05 -4.96241119e-05 1.49928810e-05 1.08599692e-04
      2.01194580e-05 5.01832437e-06 5.21148650e-05 4.89458798e-05
      4.14735478e-05 3.31337760e-05 -2.01844819e-06 1.66751652e-05
      6.11482465e-05 7.81367271e-05 9.09800801e-05 -2.45467959e-06
      -4.32174529e-05 -7.31301116e-05 -2.33289829e-05 -8.25739335e-05
      -2.03783085e-04 -2.45674979e-04 -2.01915202e-04 -2.54294777e-04
      -2.41217655e-04 -1.59337636e-04 -1.27183623e-04 -1.40718897e-04
      -7.12317851e-05 5.75838822e-05 5.84340742e-05 -2.87613511e-05
      -1.73221779e-05 -2.60912220e-05 3.20422041e-05 -1.26082923e-05
      -4.92058498e-05 -1.26910481e-05 7.89758360e-06 -3.65744963e-05
      -1.37870142e-04 -1.13783135e-04 -1.54350473e-05 -8.01623319e-05
      -1.04555715e-04 2.82776055e-05 -1.22287765e-05 -1.47246086e-04
      -1.41630953e-04 -1.85201396e-04 -8.11502105e-05 -1.40053671e-04
      -1.25812992e-04 5.94118646e-05 -5.05854005e-05 -9.10195158e-05
      -1.44502555e-05 -2.01133807e-05 -1.14371906e-04 -1.21057376e-04
      -8.92678581e-05 -1.46875042e-04 -1.93563304e-04 -1.78046073e-04
      -1.17711024e-04 1.56669521e-05 6.13244447e-06 -2.73272562e-05
      -2.89390500e-05 -6.41332663e-05 -1.05328363e-04 -1.75878900e-04
      -1.06166641e-04 -8.70940275e-05 -8.03829316e-05 2.65826693e-05
      2.03358679e-04 5.87003960e-05 -2.97193383e-05 1.70926069e-05
      1.75965091e-04 1.69896317e-04 5.11902872e-05 -5.14256317e-05
      -1.25333332e-04 -1.18045835e-04 -1.59591698e-04 -2.07904624e-04
      -1.48831183e-04 -2.59008193e-05 5.46494302e-05 2.83023201e-05
      -3.15984435e-05 8.37499247e-05 1.23507329e-04 8.67409035e-05
      4.44752259e-05 -2.42836995e-05 3.39834405e-05 -8.82919703e-05
      -2.68515345e-04 -3.08110582e-04 -2.06177967e-04 -1.23657301e-04
      -1.09105509e-04 -6.56342381e-05 -4.60451483e-05 2.99733510e-05
      -1.19275364e-05 -2.33250503e-05 -1.20315643e-04 -1.41582757e-04
      -7.69979451e-05 -1.38729374e-04 -1.02779763e-04 -5.82428984e-05
      -1.79812196e-04 -3.89913694e-05 -8.55259568e-05 -1.22872414e-04
      -9.48060260e-05 -9.39256934e-05 -8.50444121e-05 -4.83559670e-05
      -1.27963896e-04 -1.12483416e-04 5.00218703e-05 7.93683284e-05
      5.66736308e-05 6.18508275e-05 8.84605251e-05 -6.04647394e-05
      -1.87007026e-04 -3.03626584e-04 -1.49137941e-05 4.82113355e-05
      4.82682572e-06 1.24962680e-05 -5.15253196e-05 -6.81638776e-05
      -9.32382536e-05 -9.69639223e-05 -6.37073099e-05 4.30129949e-05
      1.55625841e-07 -7.04148842e-05 -9.13566982e-05 3.00508873e-05
      2.34654945e-05 -3.51241797e-05 -1.69372142e-05 -5.78618528e-06
      -2.48452470e-05 -2.21580922e-05 7.64800279e-05 1.31841720e-04
      1.24887389e-04 8.48457275e-05 1.06124180e-05 -2.73474088e-05
      -3.74282317e-05 -6.76086056e-05 -1.13482256e-05 -9.12225005e-06
      -1.66589060e-04 -2.13258609e-04 -2.28557343e-04 -1.57305898e-04
      -7.75911903e-05 -7.82699062e-05 -1.65204438e-05 3.30969415e-05
      9.34358177e-05 1.42054676e-04 1.28695086e-04 6.68610446e-05
      5.76697039e-06 -6.28374473e-05 -8.72000455e-05 -1.03658596e-04
      -9.81074627e-05 -1.64179699e-04 -1.53593894e-04 -1.36878880e-04
      -1.65896039e-04 -1.80477902e-04 -8.52503581e-06 5.09471029e-05
      9.15260171e-05 1.63030461e-04 -1.45974254e-05 -6.79242075e-05
      -5.83142064e-05 -9.98994001e-05 5.80912729e-06 -3.60388913e-05
      -1.42818186e-04 -7.73377396e-05 -1.11083260e-04 -1.44444930e-04
      -9.42772313e-05 1.24571397e-05 -1.27666906e-04 -1.66940954e-04
      -1.77711365e-04 -2.99776410e-04 -2.05876466e-04 -9.13988115e-05
      5.62329915e-05 5.69858712e-05 -1.13910690e-04 -2.07111370e-04
      -1.36565941e-04 -1.21562422e-04 -1.90967578e-04 -3.32023686e-04
      -2.37008935e-04 -3.31011870e-05 -7.60057083e-05 1.80010484e-05
      1.52700348e-04 1.08570232e-04 3.19716601e-05 1.03010861e-04
      1.30955392e-04 6.76260606e-05 2.30588630e-05 1.11049530e-05
      -1.08366497e-04 -9.86215382e-05 -1.74822198e-04 -2.12078594e-04
      -1.86735313e-04 -1.30836401e-04 -2.32504754e-04 -1.94175285e-04
      -1.41711847e-04 -1.09102388e-04 -6.91208115e-05 3.48335125e-05
      2.95248938e-05 -6.95982017e-05 -1.26646468e-04 -2.13618492e-04
      -2.39980291e-04 -1.62756522e-04 -2.60310131e-04 -1.85526427e-04
      -1.32251706e-04 -5.26569420e-05 -8.24465096e-05 -8.68989082e-05
      -1.07679618e-04 -2.14753563e-05 -5.44801078e-05 4.52351014e-06
      7.11074463e-05 2.42809838e-05 1.93341475e-05 -3.88568515e-06
      -9.13766053e-05 -2.35975895e-05 6.57387645e-05 1.14254253e-04
      1.45580852e-04 2.70729452e-05 2.60651359e-05 5.85648559e-05
      -9.55465366e-05 -2.12498679e-04 -1.07895830e-04 -9.53477138e-05
      -1.15382180e-04 -9.29943417e-06 -4.94033484e-05 -2.18272733e-04
      -3.13789293e-04 -1.48164865e-04 -3.82976759e-05 -4.69517290e-05
      -6.22581938e-05 -6.98786389e-05 -8.67599454e-07 -2.58955042e-05
      -4.75274646e-06 3.16059122e-05 -8.25181705e-05 -1.28269567e-05
      3.21895664e-06 -6.50409420e-05 -9.69628018e-05 -1.17343479e-04
      -9.59841855e-05 -9.31593677e-05 2.48858923e-05 2.57568827e-05
      -7.67381516e-06 -2.43921841e-05 1.42051840e-05 1.21454694e-04
      8.96930724e-05 2.60480483e-05 -4.65031408e-05 -4.72538450e-05
      8.35409155e-05 4.08149754e-05 1.12935122e-05 -6.94422779e-05
      -1.04606421e-04 -6.30444702e-05 -1.64783400e-04 -6.78993165e-05
      -1.09479106e-05 5.42101370e-05 1.15736802e-05 3.24354296e-05
      4.70689702e-05 4.49825820e-05 3.42324092e-05 -6.31169896e-05
      -7.96915701e-05 -5.76735001e-05 8.47456886e-06 1.47687933e-05
      8.04601677e-06 -4.87731995e-05 -9.07391586e-05 -1.24984464e-04
      -1.03046063e-04 -1.55681540e-04 -1.00136836e-04 -3.49840120e-05
      1.34847769e-05 7.66439771e-05 1.13478862e-04 2.37239983e-05
      5.79995722e-05 1.87642345e-05 2.07076027e-05 -5.99268287e-06
      -1.94408694e-05 -5.32718877e-05 -8.68704883e-05 -1.19418211e-04
      -9.87549938e-05 -1.33781632e-05 -6.56908451e-05 -7.76342713e-05
      -1.51009779e-04 -9.71678892e-05 -3.68339897e-05 3.72683971e-05
      1.04593229e-04 6.63307292e-05 -3.73437360e-05 -3.98763004e-05
      6.98370641e-05 4.02597252e-05 -6.13332577e-06 -7.37056644e-06
      1.24196879e-06 -2.49616232e-06 -1.22667625e-04 -4.19092576e-05
      1.35928887e-04 1.92298277e-04 1.57772709e-04 9.38917074e-05
      6.90619199e-05 -7.24263518e-05 -6.89246081e-05 1.80093775e-05
      -3.51147992e-06 -1.75648438e-05 -1.65577294e-04 -1.92687818e-04
      -1.60988537e-04 -6.52498929e-05 -5.93767290e-05 -9.45919091e-05
      -1.16771967e-04 -5.05097887e-05 9.15677665e-05 4.07421576e-05
      -7.49442042e-05 -1.24799408e-04 -1.41050739e-04 -1.71499982e-04
      -9.57062948e-05 -1.13004040e-04 -8.00504422e-05 -3.57548706e-05
      -4.12627633e-05 2.85139231e-05 8.13922670e-05 1.72995336e-04
      1.46577993e-04 1.21568271e-04 1.06777748e-04 2.88741958e-05
      -6.31317816e-05 1.08880022e-05 3.69184563e-05 -4.38689822e-05
      -1.47481351e-05 7.13656991e-05 1.25875973e-04 1.61592703e-04
      2.13749197e-04 1.53830813e-04 1.48869556e-04 1.44031059e-04
      4.68082944e-05 1.53976653e-05 -3.98886368e-05 -7.06797218e-05
      3.40617698e-05 6.16197794e-05 -1.90825886e-04 -3.16145015e-04
      -2.35325337e-04 -1.55994523e-04 -1.55795806e-05 7.82906209e-05
      -3.23160530e-05 -1.44504491e-04 -7.79056500e-05 -1.91548011e-07
      1.19056080e-04 1.81269541e-04 1.52823879e-04 8.81685701e-05
      1.17025520e-05 3.17026934e-05 -2.71200952e-06 -8.09369812e-05
      7.07001236e-05 -1.83348384e-05 -4.52790810e-05 -5.70183111e-05
      -2.84106554e-05 -7.48024613e-05 -8.20864589e-05 -4.56340713e-05
      -9.58513410e-05 2.15656037e-05 4.01555644e-06 5.24819152e-05
      3.29228678e-05 8.90156080e-05 6.13587181e-05 -5.52509518e-05
      -1.35002774e-04 -9.37300501e-05 3.61118691e-06 -7.67649399e-05
      -4.86977806e-05 6.75678602e-05 1.05936058e-04 1.09187968e-04
      1.00283818e-04 4.64824770e-05 1.65468427e-05 -1.12153633e-04
      -2.17128167e-04 -2.04518423e-04 -1.06108178e-04 4.72104375e-06
      5.03466035e-05 1.29673426e-04 1.03034406e-04 1.01647893e-04
      1.26997547e-05 -1.25042861e-04 -1.44326463e-04 -1.62234297e-04
      -1.40562130e-04 -5.17452236e-06 5.49104625e-05 1.20318473e-04
      1.63443663e-04 1.45384111e-04 1.95043380e-04 2.30752950e-04
      2.43451883e-04 2.01387767e-04 1.62860073e-04 2.82380061e-05
      -5.46432238e-05 1.04916786e-07 1.48017662e-05 -2.40521622e-05
      -1.03261928e-05 5.64065631e-05 6.80606317e-05 4.50913467e-05
      6.58704666e-05 1.59566422e-04 1.61651478e-04 7.50916297e-05
      9.26450812e-05 2.36018677e-05 3.34832766e-05 2.78312073e-05
      1.17319642e-05 -7.98751935e-05 -1.25586899e-04 -1.02776728e-04
      3.06724469e-05 7.66960657e-05 7.95805317e-05 1.48495601e-04
      1.06114865e-04 3.28554233e-05 4.22201083e-06 4.29624961e-05
      5.60100343e-05 -6.34342177e-06 7.00173550e-05 3.74617935e-06
      -4.29728825e-05 1.84508781e-06 1.52403004e-07 4.07728694e-05
      5.11401886e-05 6.32965603e-05 1.12147109e-05 -9.40416521e-06
      -5.24158568e-05 -4.97014626e-05 -6.72512542e-05 -4.86791832e-05
      5.36360421e-05 1.31140614e-05 1.89541370e-05 2.42461138e-05
      5.49753677e-05 1.04665764e-04 1.55514615e-04 9.90213739e-05
      8.53806778e-05 1.63987963e-04 2.04520125e-04 1.03835861e-04
      4.70519153e-05 6.56796183e-05 7.20582320e-05 9.88567699e-05
      1.65327336e-04 1.99358226e-04 9.82424899e-05 7.42131597e-05
      9.04181143e-05 1.29058972e-04 1.60836556e-04 1.15052564e-04
      -1.26065231e-06 -2.30119008e-06 -7.73042339e-05 -4.06424952e-05
      1.16597712e-05 -1.38584974e-05 4.08732994e-05 1.82920739e-05
      1.06352767e-04 6.38035926e-05 5.44153991e-05 4.16038420e-05
      6.85984423e-06 -1.01700272e-04 -9.14549673e-05 5.61128982e-05
      2.05159464e-04 1.60366544e-04 7.70639308e-05 8.67244380e-05
      7.81029739e-05 2.23821262e-05 -1.00100042e-05 -6.55789772e-05
      -1.76905833e-05 -4.38408788e-05 -6.42958912e-05 -6.83969774e-05
      -1.49951869e-04 -1.15458766e-04 -1.44143647e-04 -1.43800120e-04
      -1.78208327e-04 -1.25623133e-04 -4.14682945e-05 4.33836758e-05
      -1.77222091e-06 5.98741872e-06 -7.58419856e-06 -4.49256986e-05
      4.83102995e-05 5.38984350e-05 7.18382144e-05 -6.10888674e-06
      -9.51266265e-05 -4.22913217e-05 1.07466425e-04 1.07919004e-04
      1.16150200e-04 8.50991782e-05 1.66016434e-05 -6.60062942e-05
      -1.12207126e-04 -1.48121806e-04 -5.33803141e-05 1.06932002e-05
      2.84800881e-05 4.78969851e-05 5.08523844e-05 1.14585739e-04
      6.64249892e-05 4.58849609e-05 3.30935509e-05 2.99241292e-05
      4.02579753e-05 -1.91229828e-05 3.40658662e-05 5.68859068e-05
      -2.40143127e-05 -6.34086900e-05 -3.87824002e-06 7.47514205e-05
      1.61865100e-04 2.12764819e-04 6.97433425e-05 -2.28034642e-05
      -1.79001781e-05 1.42091985e-05 2.79071792e-05 7.83064606e-05
      5.57032217e-05 2.28167100e-05 2.89021664e-05 3.42816966e-05
      2.06184177e-05 8.18861154e-05 5.21843212e-05 -3.94930248e-05
      1.15717503e-05 -3.33228199e-05 -8.04245574e-05 -5.33862112e-05
      -1.14138391e-04 -1.96817244e-04 -1.09128952e-04 3.94793005e-06
      8.83671528e-05 5.49082943e-05 4.36213522e-05 4.81325005e-05
      -1.56706374e-04 -1.41366778e-04 -1.22554984e-05 -3.37642155e-06
      8.13517363e-06 -2.71161698e-05 4.76917739e-05 1.23198930e-04
      6.75464180e-05 -6.54313480e-05 -7.53782588e-05 4.97171495e-05
      1.92896732e-05 1.36834897e-05 -7.12943220e-05 -8.56267216e-05
      -1.19101940e-04 -7.00287783e-05 -4.37742674e-05 4.13843518e-05
      5.06319593e-05 2.64339596e-05 -1.23607015e-05 -9.80725144e-06
      1.14461225e-04 1.76618560e-04 1.79277355e-04 1.77207083e-04
      1.61603268e-04 2.17944398e-04 2.27207027e-04 1.79960494e-04
      1.15577779e-04 7.62504642e-05 1.01381032e-04 1.36325034e-04
      1.38465417e-04 1.39376585e-04 6.82439786e-05 2.05914075e-05
      9.79971155e-05 2.04831435e-04 1.79843613e-04 3.66365821e-05
      -9.92104615e-05 -1.00937497e-04 -1.28880303e-04 -1.08236767e-04
      -8.25302413e-05 1.65242147e-06 1.65213030e-04 2.18374043e-04
      2.15131513e-04 7.35469512e-05 -3.92104412e-05 -8.17619275e-06
      2.19396625e-05 -1.20931509e-05 3.45133958e-05 8.95404664e-05
      9.49516543e-05 7.32629487e-05 -2.16181579e-05 -1.05133593e-04
      -1.19528697e-04 -1.07764907e-04 -9.14591874e-05 -1.11413137e-04
      -3.60205486e-05 1.84870460e-05 -2.49046934e-05 -9.07326830e-05
      -1.07112457e-04 -8.17686305e-05 -7.68234313e-05 -5.45926559e-05
      -5.97881226e-05 -2.09026784e-05 4.22042540e-05 1.45217404e-04
      1.71416599e-04 1.26932107e-04 4.31626831e-05 3.45560620e-05
      5.13271261e-05 -7.11651519e-05 -9.81517405e-06 -3.44203909e-05
      -4.81801253e-05 1.09825469e-05 1.58674142e-04 1.56484879e-04
      1.67304432e-04 1.27911160e-04 6.41314255e-05 -4.16186303e-05
      -8.69652940e-05 -1.05175423e-04 -1.42751684e-04 -8.82414606e-05
      -8.53099482e-05 -5.64682887e-05 -1.44953929e-05 -2.70083619e-05
      -3.88321751e-05 -1.58975381e-05 -2.15275322e-05 3.17445156e-05
      1.55527796e-05 -5.24224779e-05 5.64880174e-05 -6.44667671e-06
      -6.70080117e-05 -5.67166353e-05 -1.95644934e-05 -4.03497179e-05
      -5.11072540e-05 -1.20256391e-05 -1.58719740e-05 1.74925372e-05
      9.63799030e-05 1.65132573e-04 1.50229200e-04 1.33138048e-04
      1.68447106e-04 1.96507812e-04 1.74025976e-04 2.13704901e-04
      1.76297734e-04 1.89597864e-04 1.75550042e-04 1.92153268e-04
      1.61563963e-04 7.27770239e-05 2.61383157e-05 2.49269069e-05
      1.20711529e-05 1.76944704e-05 -5.89600131e-06 4.17478304e-06
      6.83172402e-06 8.63294044e-05 1.07360444e-04 3.01594046e-05
      -3.53577016e-05 -1.14686809e-04 1.81975465e-05 -8.13869337e-06
      9.42569750e-06 3.12712509e-05 6.43926323e-05 1.36192990e-04
      1.04590712e-04 2.67200653e-06 7.41875101e-06 -1.12893586e-05
      2.48601327e-06 9.37142831e-05 8.16773536e-05 -3.84346167e-05
      -5.27420343e-05 -1.47290793e-05 2.67247233e-05 2.90158787e-05
      4.26374863e-05 3.43442262e-05 9.44518320e-07 1.64206504e-05
      6.40210055e-05 6.33936506e-05 9.27697838e-05 8.63572859e-05
      3.92347938e-05 2.46034524e-05 6.74194380e-05 6.80134617e-05
      5.77888277e-05 -3.49266520e-05 -2.04732951e-05 3.63002109e-05
      -3.48664253e-05 -1.12217756e-04 -6.92908216e-05 -6.27915579e-05
      -4.96388111e-06 3.32578311e-05 2.12997111e-05 -3.66441018e-05
      -6.10335737e-05 -1.21862919e-04 -1.21523801e-04 -5.62484856e-05
      9.77676682e-05 1.15598479e-04 1.33011796e-04 3.48358735e-05
      -2.81260000e-05 -3.36710291e-05 -2.80632103e-05 3.45365552e-05
      9.29341913e-05 7.00492528e-05 7.64764336e-05 1.01506579e-04
      1.26368366e-04 7.96961176e-05 8.60723667e-05 5.22437513e-05
      1.40495604e-05 -1.19381220e-05 -6.88898872e-05 -1.22518337e-04
      -6.85089544e-05 -2.06022614e-05 3.60508125e-06 3.40007355e-05
      3.00778120e-05 -1.02111910e-04 -1.17840871e-04 -1.57950417e-04
      -3.19961582e-05 -3.72722607e-05 -1.88173981e-05 3.47751884e-05
      8.48961936e-05 1.68656421e-04 5.30843026e-05 -3.51989229e-06
      -1.54982390e-05 -9.94560105e-05 -1.02108570e-04 -8.96746133e-05
      -4.33503556e-05 3.45383705e-05 8.89645089e-05 8.96997444e-05
      1.35941387e-04 9.07380527e-05 9.36681899e-05 6.90427114e-05
      6.99519587e-05 1.53272103e-05 -7.17218645e-05 -7.20214812e-05
      -3.52154020e-05 -5.29913086e-05 -4.37145427e-05 -4.99885718e-05
      -2.52336249e-05 4.52584527e-06 7.90221384e-05 1.30452492e-04
      1.09678032e-04 9.44476342e-05 1.20768462e-04 1.59585426e-04
      8.61786975e-05 7.10494496e-05 1.00258359e-04 1.15656054e-04
      1.52326757e-04 1.21938545e-04 -2.41021044e-05 -6.81450838e-05
      2.13814292e-05 1.18896132e-04 9.08815127e-05 7.93476429e-05
      6.89147273e-05 6.64242252e-05 6.61418744e-05 1.46959006e-04
      1.37163472e-04 1.05946594e-04 1.34793139e-04 1.63994249e-04
      6.12939984e-05 4.75510569e-06 -4.39737305e-05 -6.90649395e-05
      -6.08993978e-05 1.18241669e-05 6.79969935e-06 3.68756264e-05
      3.78515215e-05 1.27165142e-04 1.90240957e-04 9.55884971e-05
      -4.89080958e-05 -8.14132072e-05 -4.97541350e-06 1.15550247e-05
      2.92649274e-05 1.00231300e-05 -3.76160133e-05 3.03143333e-05
      4.65714838e-05 4.92599829e-05 2.88150295e-05 1.42599847e-05
      8.33243248e-05 1.39668293e-04 8.60695654e-05 9.54989591e-05
      1.76789999e-05 -2.50534176e-05 -1.18084617e-05 -5.30917259e-06
      3.63996260e-05 2.91018478e-05 -2.14649681e-05 4.60027559e-06
      8.34933962e-05 1.43766927e-04 9.81457270e-05 3.56354212e-05
      -8.53577367e-05 -7.76471061e-05 -9.28511799e-05 -5.56965460e-05
      -9.25678032e-05 -1.22726109e-04 -7.96946333e-05 -5.44111390e-05
      -3.88486151e-05 -7.14982161e-05 -1.28555606e-04 -7.62321870e-05
      -6.04262277e-05 -1.64194047e-04 -1.65706180e-04 -1.02711994e-04
      4.95001586e-06 -3.73275429e-06 -4.28502135e-05 1.55686357e-05
      1.14563562e-04 1.62779310e-04 1.30693690e-04 3.73864459e-05
      -3.03247143e-05 7.01891713e-06 8.10107394e-06 5.48389653e-05
      1.32771791e-04 6.97885480e-05 -1.48022300e-05 8.54619648e-05
      8.90217852e-05 4.55559857e-05 1.09873225e-04 1.19339049e-04
      5.45385592e-05 -2.46510972e-05 -3.32256354e-06 -2.55062296e-05
      3.35214791e-05 7.84078220e-05 1.04312603e-04 8.04536685e-05
      -2.55528521e-05 -5.05521821e-05 -3.07628798e-05 -3.40173465e-05
      -5.43096103e-05 -8.36174222e-05 1.53097676e-06 1.74290119e-06
      -1.33494168e-05 2.20447109e-05 4.58229006e-05 4.41247175e-06
      4.50553271e-05 -1.89326693e-05 -9.68869426e-05 -1.24084603e-04
      -5.24079333e-05 5.39486937e-05 9.06210553e-05 6.94172704e-05
      3.02694425e-05 1.56171227e-05 8.37366606e-05 9.19641316e-05
      7.06379215e-05 6.40454091e-05 9.14406628e-05 7.46671649e-05
      7.30254469e-05 -8.73129284e-06 -1.66432346e-05 -5.53276914e-05
      -1.23893269e-05 -2.72443685e-06 -3.96791875e-05 -7.11557223e-05
      -1.44384234e-04 -1.68688930e-04 -9.43086197e-05 -3.50702612e-05
      8.93291945e-05 1.15837778e-04 1.10253302e-06 1.00535690e-05
      2.85076076e-05 2.03605214e-06 -7.58526076e-05 -8.01362548e-05
      3.71114111e-05 3.33003700e-05 2.81802795e-06 1.17690315e-05
      1.27762278e-05 -5.79413390e-05 -3.93559858e-05 -3.19325700e-05
      -2.86622162e-05 1.20747354e-05 2.83823119e-05 2.36641117e-05
      1.33238245e-05 -3.59214209e-05 -9.17992584e-05 -9.97437674e-05
      -1.06952641e-04 -6.46186309e-05 -2.03229192e-05 -3.02527087e-06
      -4.35210750e-05 7.45644320e-06 7.24426491e-06 -8.30956051e-05
      -8.22347429e-05 -2.40652698e-05 -2.87970033e-05 2.76252940e-05
      7.24679121e-05 1.09334462e-04 9.68729291e-05 3.77316537e-05
      1.68466777e-05 1.09019056e-04 7.32311673e-05 9.55978030e-05
      2.48150391e-05 5.53740356e-05 6.23140440e-05 4.67982645e-05
      -5.44022987e-06 -2.79061551e-05 1.49920998e-05 3.12205266e-05
      -1.24165408e-05 3.16777587e-05 1.00784418e-04 1.13132417e-04
      2.08779733e-04 1.66570186e-04 1.71990832e-04 1.88687191e-04
      3.40811021e-05 -7.05210769e-05 -8.85131085e-05 -6.30236682e-05
      -6.96555217e-05 -1.20506411e-04 -1.09627501e-04 -3.23108143e-05
      -2.97811257e-05 -5.85071211e-05 -1.38367308e-04 -8.22717047e-05
      -5.90729251e-05 -1.87739734e-05 -1.37317838e-04 -5.76708262e-05
      -5.39272696e-05 -6.76181808e-05 -4.89246959e-05 -4.83083659e-06
      4.93850603e-05 7.93014988e-05 1.10769379e-05 -7.40751348e-05
      -4.85505661e-05 -6.91348032e-05 -2.33312549e-05 1.76379508e-05
      7.29504391e-05 3.68235196e-05 -2.45304655e-05 -2.83147601e-05
      1.46894918e-05 -4.73198561e-05 -3.95611060e-05 4.53890061e-05
      -2.90246971e-05 1.64502471e-05 1.07038240e-05 -6.67708036e-06
      3.79104058e-05 8.73610188e-05 1.18630269e-04 8.65599213e-05
      4.50577136e-05 2.06910627e-05 5.93288059e-05 4.04114289e-05
      2.73814367e-05 3.19885771e-07 1.75441455e-05 -1.04300143e-05
      -1.14823970e-05 7.72383355e-05 8.23681330e-05 8.55047838e-05
      6.29298120e-06 1.72140262e-05 -1.63465120e-05 -9.60166508e-05
      -1.66720347e-04 -5.85446287e-05 1.09731118e-04 1.38240284e-04
      2.51531601e-05 -5.47956404e-07 1.25511096e-05 5.78782965e-05
      2.14529409e-05 3.49559218e-06 4.72295651e-05 2.63006641e-05
      8.79434228e-05 5.78921499e-05 5.42178168e-05 1.23128893e-05
      1.13008091e-05 2.23524694e-07 -1.01630263e-04 -1.27792257e-04
      -1.60543481e-04 -1.67003789e-04 -5.85352827e-05 -8.92768658e-05
      -9.08333823e-05 -3.17102422e-05 -6.24362729e-05 -9.52220726e-05
      1.65868969e-05 -1.98598646e-05 -7.69426624e-05 -4.88805126e-05
      -4.32221714e-05 2.65859562e-05 2.66813095e-05 3.60193699e-05
      -4.44149782e-06 -1.49128900e-05 1.83789034e-05 3.56155651e-05
      -6.73763225e-06 -9.86833811e-07 7.48280718e-06 7.22012701e-05
      1.30292086e-04 5.24327224e-05 -3.60848207e-05 -3.40772567e-05
      -3.38781683e-05 -1.12757298e-04 -8.42561203e-05 -4.02793085e-05
      -1.87375754e-05 7.74345099e-05 7.18143274e-05 9.65970903e-05
      1.02321195e-04 1.86015186e-05 4.54250876e-05 3.71662718e-05
      1.41200899e-05 -7.14502603e-05 -6.81078163e-05 -2.92094956e-05
      -9.27151195e-05 -1.39786454e-04 -1.27008330e-04 -2.14399024e-05
      -6.79804871e-05 -2.89469117e-05 -4.16074799e-05 -4.78775110e-05
      -8.66469127e-05 -1.41294717e-04 -1.47993662e-04 -1.55818780e-04
      -7.48661987e-05 -6.24971790e-06 4.13268208e-06 -1.34319625e-05
      -4.64056102e-05 3.15592079e-05 1.24227035e-05 -4.92195468e-05
      -9.45613210e-05 -9.75757721e-05 -5.87474678e-05 4.44813340e-05
      2.65382205e-05 7.49349783e-05 7.46116493e-05 1.91273866e-05
      -3.39064718e-05 -3.56418604e-05 -7.45903526e-05 -9.25907880e-05
      -1.09074332e-04 -6.87758002e-05 1.79619605e-07 -2.34963718e-05
      -6.58467034e-05 -9.01365129e-05 -1.31565030e-04 -4.31544831e-05
      2.07398170e-05 6.38695783e-05 1.41293949e-05 -2.25706822e-06
      -6.85605983e-06 -3.03749330e-05 -9.91139605e-05 -1.12335283e-05
      5.30311736e-05 -2.10847375e-05 -6.29853748e-05 -8.75925252e-05
      -3.74951051e-05 -6.04678280e-06 -7.99589270e-06 7.02261968e-06
      3.96341493e-05 4.36734445e-05 2.81716129e-05 -2.45519823e-06
      -4.08561027e-05 -2.14124134e-06 2.91421184e-05 3.60038466e-05
      1.09547955e-06 5.69104304e-05 1.20245284e-04 1.05440755e-04
      6.88388172e-05 3.48163194e-05 -1.65568435e-05 1.58176169e-06
      6.31930088e-05 7.36105430e-05 4.91937317e-05 4.66008823e-05
      -2.31068916e-05 -1.67948801e-05 1.99155565e-05 2.04692114e-05
      -7.66939993e-05 -2.41823454e-05 7.64322394e-05 1.01454731e-04
      1.03000602e-04 -1.74376892e-05 1.73672743e-05 7.83457144e-05
      2.29980706e-05 6.40557919e-05 1.04474253e-04 1.19666423e-04
      1.81551542e-04 1.31370311e-04 7.84216318e-05 5.14692147e-05
      9.46342043e-05 1.42327699e-05 -5.77927058e-05 -1.24189828e-04
      -1.70347572e-04 -1.71785301e-04 -4.17862502e-05 -7.41623153e-05
      -9.80645564e-05 -8.96977799e-05 -3.45981716e-05 -1.11946218e-04
      -1.43228972e-04 -1.45686485e-04 -2.09419959e-04 -2.30793928e-04
      -1.22972939e-04 -3.95169400e-06 9.38947596e-06 6.83221924e-06
      -9.79231572e-06 -6.92557660e-05 -1.13525952e-04 -6.62687162e-05
      -4.85583514e-05 -5.11440194e-05 2.69780048e-06 9.47725348e-05
      6.27448244e-05 -1.11383824e-05 -5.39072062e-06 -7.63937860e-05
      -7.45882280e-05 -8.94664918e-05 1.39519159e-07 2.04277239e-05
      3.92275797e-05 1.17954703e-04 1.45134152e-04 9.31264440e-05
      1.05711217e-04 9.07414287e-05 9.51571201e-05 1.03707054e-04
      3.64599546e-05 -2.02916835e-05 -2.89532072e-05 1.30333055e-05
      7.95737287e-05 6.44499887e-05 4.13319576e-05 9.53237759e-05
      1.00199381e-04 8.26373798e-05 4.06116305e-05 5.62920613e-05
      1.14432252e-04 6.27759437e-05 2.07572248e-05 1.54423960e-05
      -9.80951427e-07 -2.64583332e-06 -3.22308042e-05 -4.00015233e-05
      -4.81023999e-05 -7.37972869e-06 3.47145215e-05 1.67382823e-05
      -7.24086567e-05 -1.06274572e-04 -8.81463275e-05 -9.34198397e-05
      -1.35649752e-04 -1.16811367e-04 -1.28833155e-04 -1.29539374e-04
      -1.12129041e-04 -5.07545737e-05 -2.52295740e-05 -9.85534916e-06
      -2.35787957e-05 8.06653770e-06 6.15864246e-06 1.12824857e-07
      -2.56202429e-06 2.61163950e-05 2.04662065e-05 4.94359556e-05
      9.73650240e-05 1.68041239e-04 2.05951219e-04 1.73559616e-04
      2.24445597e-04 1.50088192e-04 2.96583084e-06 -1.41119817e-05
      2.07907560e-05 1.95732609e-05 1.72757859e-06 -3.17278646e-05
      1.48781864e-05 4.03441481e-05 4.13232192e-05 -3.91414578e-05
      -9.02112697e-06 -1.18593816e-05 -2.46125564e-05 -6.60095393e-05
      -1.21071724e-04 -1.42307734e-04 -1.10782632e-04 -6.14180681e-05
      -1.10336339e-04 -9.89313921e-05 -5.70736374e-05 -4.73179352e-05
      -1.12359761e-04 -1.22646758e-04 -8.18661574e-05 1.93222313e-05
      2.90938915e-05 3.62890023e-05 -5.78784011e-06 -1.83509637e-05
      7.29146632e-05 5.02621842e-05 -9.59421868e-06 -2.00215368e-06
      2.20243946e-05 7.36050861e-05 1.22526209e-04 1.36311413e-04
      1.52800363e-04 7.96972236e-05 9.93604044e-06 8.41588262e-05
      9.18049409e-05 9.57415468e-05 6.70799418e-05 8.70001022e-05
      1.54914436e-04 1.84319026e-04 2.07819714e-04 2.26965873e-04
      2.45319970e-04 1.87222045e-04 1.28217565e-04 6.48819696e-05
      -1.66686659e-05 -2.06767490e-05 4.82605683e-05 1.11033180e-04
      9.75958319e-05 1.03198523e-04 9.05839333e-05 7.71963823e-05
      -7.42637276e-05 -9.80620971e-05 1.00374864e-05 -3.39073595e-05
      -2.06893674e-06 4.08250799e-06 3.43511383e-05 2.84984653e-05
      -1.37539082e-05 -3.25931178e-05 -2.20057445e-05 -2.57207212e-05
      -6.42468804e-05 -2.10914163e-06 3.79355006e-05 6.60803926e-05
      3.15677789e-05 -3.97469080e-07 2.42454153e-05 9.95400296e-06
      -1.67897215e-05 -4.83515469e-05 -4.51060805e-05 1.59603460e-05
      1.49058787e-05 3.81775826e-05 5.94921803e-05 5.82552493e-05
      1.78045975e-05 -1.08870545e-05 -4.47664424e-05 1.89090533e-05
      5.23808740e-05 6.32369192e-05 7.58297101e-05 1.15435520e-04
      1.30889326e-04 1.33271911e-04 8.91269010e-05 5.75755148e-05
      8.44681781e-05 1.12885784e-04 5.17907501e-05 4.69710503e-05
      4.56511953e-05 1.00489284e-04 1.14737348e-04 1.77597627e-04
      1.63987192e-04 1.75137815e-04 8.42742738e-05 6.84111865e-06
      -3.35586556e-05 -6.29970891e-05 -6.60329970e-05 -7.48755920e-05
      -1.55895104e-04 -1.64163968e-04 -1.95291024e-04 -2.13843581e-04
      -1.95865898e-04 -1.46198465e-04 -7.69939143e-05 -1.06672262e-04
      -1.98959329e-04 -2.36809778e-04 -1.88414793e-04 -1.86457080e-04
      -9.89808977e-05 -8.31088037e-05 -3.74216834e-05 -2.89646759e-05
      -3.79726334e-05 -6.65925472e-05 -7.50630643e-05 -2.19816411e-05
      -5.28732417e-05 -4.40982112e-05 -8.09266112e-06 4.25352628e-05
      8.78331703e-05 5.82218454e-05 3.60044141e-05 5.86141978e-05
      1.23221704e-04 1.34718546e-04 1.35277412e-04 1.06054649e-04
      1.09772722e-04 1.52017834e-04 1.67363571e-04 7.17115690e-05
      2.64176615e-05 3.96700052e-05 -7.45719399e-06 -2.94329602e-05
      2.28772133e-05 5.37324158e-05 9.26674256e-05 3.43793363e-05
      -8.58202748e-06 2.61050773e-05 5.84100380e-05 -6.02155694e-07
      1.72556011e-05 3.78027580e-05 8.13337610e-05 1.02849335e-04
      1.26573592e-04 9.54543502e-05 8.48451164e-05 4.00923891e-05
      7.41272233e-05 -2.11397382e-05 -1.30509157e-04 -1.56773502e-04
      -1.52356588e-04 -1.34254529e-04 -3.36535632e-05 -2.84258795e-06
      2.55471787e-05 3.18210768e-05 -7.31202890e-05 -7.60924959e-05
      8.49287426e-06 6.93785410e-07 -4.50394873e-05 -1.05479885e-05
      1.88627419e-05 4.92772779e-05 5.08483608e-05 7.93985382e-05
      1.31934314e-04 1.16423013e-04 1.35220398e-04 8.92393291e-05
      7.92881110e-05 7.54149878e-05 1.07197004e-04 1.23952967e-04
      9.70770925e-05 6.53156239e-05 4.24426980e-05 -2.44838848e-05
      -2.73877376e-05 -3.03155957e-05 2.66423758e-05 6.77719072e-05
      6.27367481e-05 5.85692724e-05 6.72895694e-05 9.22892796e-05
      1.15827883e-04 9.36437791e-05 3.92872498e-05 8.09185367e-05
      5.73633079e-05 -8.94030291e-06 -1.28785387e-05 -1.26839586e-06
      5.56685427e-06 -6.53471398e-06 -1.66763857e-05 -5.58241991e-05
      -9.60132820e-05 -9.58491655e-05 -1.22609956e-04 -8.53769452e-05
      -8.04827432e-05 -6.52660892e-05 -5.55109091e-06 3.94389863e-05
      1.10371302e-05 -7.64643628e-05 -6.32602823e-05 -4.55311965e-05
      7.50345789e-05 1.01012331e-04 -6.05025070e-06 -4.68847502e-05
      -7.96906606e-05 -6.90068482e-05 -7.94882217e-05 -4.69892693e-05
      -5.12369188e-05 -1.43749145e-04 -1.30245171e-04 -1.74909743e-04
      -1.95240224e-04 -1.62944489e-04 -8.89070507e-05 -1.01380137e-05
      4.37964118e-05 2.13285125e-06 -3.43353568e-05 -3.36701778e-05
      -3.02710541e-05 -5.59410364e-05 -1.11653324e-04 -1.62029930e-04
      -1.49064028e-04 -1.06353160e-04 -6.82121390e-05 -7.92151332e-05
      -1.29215143e-04 -1.39779731e-04 -1.15844894e-04 -7.69675098e-05
      -1.20545788e-04 -1.53832734e-04 -1.29976324e-04 -5.27724806e-05
      -4.19249918e-05 -3.80693600e-05 -2.72648249e-05 -6.42019004e-05
      -1.24100465e-04 -1.50463806e-04 -1.50997148e-04 -1.57906456e-04
      -1.66514830e-04 -1.22511978e-04 -2.69206648e-05 6.62320599e-05
      1.21626632e-04 1.48013685e-04 1.73034190e-04 1.58237701e-04
      1.64662386e-04 1.59922958e-04 1.53491696e-04 1.67035134e-04
      1.46834995e-04 1.76782298e-04 8.28482298e-05 7.00558303e-05
      6.46634653e-05 6.26667606e-05 8.98216458e-05 8.54597893e-05
      5.00936621e-05 2.93092289e-05 -3.95454617e-06 -8.98287981e-05
      -8.20299247e-05 1.57819977e-05 1.00769439e-05 5.61031375e-05
      4.85523560e-05 4.36604387e-05 6.32243682e-05 8.29611090e-05
      1.06398460e-04 6.63028768e-05 2.89213785e-05 -1.98917269e-06
      1.04509549e-04 3.48200483e-05 3.58660473e-05 -2.33015635e-06
      -3.89009329e-05 -2.37674576e-05 -4.05502797e-05 -4.76443784e-05
      -3.18653620e-05 -1.85588269e-05 -3.77973010e-05 -7.75094959e-05
      -4.27755476e-05 -3.05061931e-05 -1.44311680e-05 -4.10593020e-05
      -2.79515207e-05 -1.08919585e-05 -3.91081849e-05 -2.49417717e-05
      1.13304050e-05 7.74476575e-06 1.99108872e-05 1.67576229e-06
      1.62236392e-05 1.45330305e-05 -4.06857453e-06 -4.63641372e-05
      -6.75923438e-05 -1.12498841e-04 -1.27677922e-04 -1.12313319e-04
      -5.19167697e-05 -8.06334283e-05 -1.28115862e-04 -3.75138261e-05
      2.85323185e-05 2.11323731e-05 3.42364765e-05 8.77720740e-05
      1.25481049e-04 1.29425433e-04 1.25521809e-04 1.10013614e-04
      1.42190533e-04 1.28606116e-04 1.26974264e-04 1.96897003e-04
      1.81142619e-04 2.06465367e-04 1.56452006e-04 1.24800281e-04
      4.71115418e-05 1.24423250e-05 -4.18950822e-06 2.59809417e-06
      1.19800252e-05 2.83526970e-06 1.06177913e-05 4.04739658e-05
      4.89890663e-05 2.20766997e-05 4.48277970e-05 4.70832019e-05
      6.56840566e-05 1.12347407e-04 1.28717991e-04 1.21536999e-04
      7.69450053e-05 9.07489084e-05 1.08041138e-04 1.01791564e-04
      -3.34319193e-05 -9.36617726e-05 -9.72437920e-05 -1.45998521e-04
      -1.80460149e-04 -1.50410546e-04 -1.47338433e-04 -6.98834119e-05
      -5.76132843e-05 -3.73103649e-05 -2.30158312e-05 -3.86865104e-05
      -1.01183628e-04 -9.00937957e-05 -6.85766863e-05 -4.19260396e-05
      2.12408577e-05 -2.03345699e-05 -8.22503571e-05 -1.28276908e-04
      -1.38867501e-04 -1.21994839e-04 -1.48711086e-04 -1.39097538e-04
      -1.33286216e-04 -1.10781890e-04 -7.23509802e-05 -7.85157972e-05
      -7.17947478e-05 -6.88441796e-05 -6.84293700e-05 -8.97268692e-05
      -1.36493836e-04 -1.48497056e-04 -1.46103266e-04 -1.27660809e-04
      -8.05483360e-05 -4.40074618e-05 -5.58300162e-05 -5.39056891e-05
      -4.17816991e-05 -1.80320876e-05 -9.67776759e-06 -1.95602279e-05
      -1.66068785e-05 -1.16081992e-05 6.82627797e-06 4.52557724e-05
      3.84912782e-05 -3.78361619e-05 -6.74918119e-05 -2.66677689e-05
      1.33778385e-05 -2.82629881e-05 -4.49022918e-05 -5.01039249e-05
      -9.45273423e-05 -5.35626605e-05 -5.48457210e-05 -1.10091627e-04
      -9.32719049e-05 -9.79830438e-05 -9.63397833e-05 -8.38025298e-05
      -6.94809423e-05 -7.67511665e-05 -4.39910764e-05 -5.29502613e-05
      4.04808234e-05 2.52640693e-05 4.52089807e-05 4.95991444e-05</_></support_vectors>
  <uncompressed_sv_total>143</uncompressed_sv_total>
  <uncompressed_support_vectors>
    <_>
      87. 87. 87. 85. 87. 87. 87. 85. 87. 90. 89. 87. 87. 92. 95. 93.
      93. 95. 96. 99. 101. 101. 102. 102. 99. 98. 98. 103. 110. 111.
      114. 115. 115. 115. 110. 110. 109. 106. 103. 101. 99. 99. 101.
      101. 102. 102. 102. 101. 102. 102. 102. 102. 102. 102. 103. 103.
      102. 103. 102. 101. 101. 106. 117. 120. 102. 68. 43. 43. 68. 82.
      101. 103. 95. 99. 107. 110. 111. 105. 93. 87. 82. 78. 76. 70. 66.
      64. 61. 59. 61. 56. 59. 66. 64. 66. 68. 70. 78. 72. 64. 93. 117.
      106. 89. 115. 150. 143. 96. 70. 90. 106. 98. 107. 106. 109. 110.
      110. 110. 110. 110. 109. 109. 110. 109. 109. 106. 105. 103. 103.
      102. 101. 101. 99. 96. 95. 92. 92. 90. 89. 85. 85. 85. 85. 87. 87.
      87. 84. 93. 96. 102. 102. 102. 105. 99. 98. 99. 102. 103. 106.
      103. 103. 103. 107. 109. 110. 110. 106. 103. 102. 102. 102. 102.
      103. 103. 102. 103. 102. 101. 102. 102. 101. 101. 102. 102. 103.
      103. 105. 105. 103. 102. 103. 105. 105. 103. 103. 105. 105. 105.
      103. 102. 103. 103. 103. 106. 112. 123. 120. 95. 64. 46. 53. 72.
      89. 90. 87. 105. 117. 117. 112. 93. 72. 64. 50. 43. 56. 50. 50.
      50. 46. 53. 53. 46. 43. 43. 66. 84. 53. 28. 0. 70. 166. 192. 146.
      61. 28. 50. 70. 89. 125. 131. 110. 99. 90. 74. 78. 95. 98. 80. 74.
      76. 82. 84. 80. 78. 82. 82. 76. 78. 78. 78. 80. 80. 80. 82. 85.
      87. 92. 95. 98. 99. 101. 102. 106. 110. 112. 111. 106. 105. 106.
      103. 56. 39. 70. 90. 85. 87. 101. 109. 112. 107. 105. 103. 105.
      105. 103. 102. 102. 102. 103. 102. 102. 102. 102. 103. 102. 101.
      102. 103. 105. 105. 105. 105. 105. 105. 105. 106. 109. 110. 110.
      110. 111. 110. 110. 109. 109. 109. 110. 111. 112. 114. 116. 114.
      109. 112. 115. 111. 115. 114. 102. 78. 56. 46. 64. 85. 92. 90. 92.
      98. 112. 126. 124. 85. 53. 50. 43. 53. 28. 43. 74. 90. 92. 76. 80.
      103. 74. 0. 21. 56. 158. 137. 59. 28. 28. 59. 84. 106. 171. 116.
      0. 21. 21. 21. 66. 127. 133. 106. 99. 74. 56. 136. 164. 125. 112.
      95. 82. 92. 103. 107. 107. 110. 109. 112. 115. 118. 122. 124. 124.
      126. 127. 126. 125. 127. 129. 128. 129. 127. 120. 114. 102. 101.
      114. 111. 105. 132. 141. 147. 181. 188. 185. 188. 136. 72. 96.
      110. 112. 109. 109. 111. 110. 110. 112. 112. 114. 114. 115. 116.
      115. 114. 115. 116. 115. 115. 115. 116. 115. 112. 111. 110. 110.
      111. 111. 109. 106. 105. 103. 103. 101. 98. 96. 93. 93. 93. 92.
      89. 87. 84. 82. 85. 80. 76. 78. 64. 61. 68. 80. 96. 99. 96. 90.
      87. 101. 126. 130. 126. 114. 70. 56. 85. 59. 21. 39. 21. 46. 95.
      84. 61. 66. 78. 74. 46. 28. 53. 87. 85. 21. 46. 103. 114. 64. 0.
      0. 46. 39. 34. 43. 64. 101. 120. 124. 114. 102. 106. 92. 76. 96.
      128. 127. 127. 125. 126. 132. 128. 125. 130. 125. 115. 117. 118.
      118. 115. 114. 115. 117. 118. 116. 115. 110. 112. 114. 110. 87.
      53. 21. 0. 68. 126. 130. 249. 249. 242. 225. 197. 161. 141. 119.
      85. 98. 109. 110. 109. 109. 105. 103. 103. 102. 99. 99. 99. 96.
      92. 90. 90. 89. 87. 87. 85. 82. 80. 80. 80. 78. 78. 76. 78. 76.
      76. 74. 74. 76. 76. 76. 76. 76. 76. 76. 78. 80. 80. 82. 82. 82.
      82. 89. 84. 80. 96. 103. 102. 99. 96. 96. 90. 87. 99. 123. 141.
      123. 115. 125. 120. 105. 90. 78. 66. 72. 64. 50. 46. 50. 50. 43.
      43. 46. 46. 46. 43. 43. 46. 39. 39. 43. 43. 46. 50. 64. 70. 89.
      99. 120. 122. 124. 117. 103. 106. 112. 109. 107. 103. 96. 101.
      112. 116. 106. 102. 105. 103. 102. 110. 110. 110. 109. 107. 109.
      109. 106. 106. 106. 105. 102. 105. 102. 99. 107. 117. 116. 106.
      89. 76. 87. 112. 110. 101. 90. 76. 70. 68. 59. 56. 59. 70. 84. 85.
      82. 84. 74. 72. 78. 80. 82. 84. 84. 84. 87. 89. 90. 90. 89. 89.
      90. 95. 95. 93. 93. 95. 98. 99. 98. 98. 98. 101. 102. 103. 103.
      103. 103. 105. 105. 105. 105. 105. 103. 103. 103. 103. 105. 103.
      103. 106. 105. 105. 103. 102. 105. 109. 109. 110. 120. 131. 132.
      120. 116. 114. 114. 117. 123. 122. 119. 122. 117. 110. 110. 105.
      103. 101. 96. 92. 90. 89. 87. 90. 93. 93. 95. 99. 105. 109. 112.
      116. 112. 110. 111. 109. 102. 102. 102. 103. 105. 103. 105. 109.
      107. 107. 106. 103. 101. 101. 101. 98. 98. 98. 98. 96. 95. 95. 96.
      98. 98. 98. 96. 98. 101. 99. 98. 99. 101. 103. 101. 101. 103. 110.
      114. 115. 115. 110. 112. 70. 72. 74. 74. 61. 46. 53. 53. 43. 56.
      66. 85. 114. 127. 122. 118. 110. 99. 99. 105. 109. 107. 107. 107.
      106. 105. 107. 107. 109. 107. 107. 109. 109. 107. 107. 109. 110.
      110. 110. 110. 111. 115. 116. 115. 114. 112. 111. 110. 111. 112.
      112. 112. 112. 112. 115. 116. 115. 116. 116. 118. 117. 116. 117.
      120. 126. 127. 122. 117. 116. 115. 115. 112. 110. 109. 107. 106.
      107. 109. 105. 103. 105. 110. 114. 112. 110. 110. 110. 106. 106.
      106. 106. 107. 110. 111. 111. 110. 109. 111. 112. 112. 115. 117.
      122. 122. 119. 118. 120. 117. 111. 112. 114. 109. 107. 110. 109.
      107. 107. 107. 106. 107. 107. 109. 107. 107. 110. 110. 110. 110.
      111. 114. 115. 115. 116. 117. 118. 117. 117. 118. 119. 119. 119.
      120. 122. 122. 87. 87. 76. 61. 46. 43. 53. 61. 56. 53. 39. 34. 39.
      50. 74. 109. 141. 144. 128. 119. 119. 120. 123. 123. 117. 117.
      119. 120. 120. 122. 123. 124. 124. 123. 120. 119. 117. 116. 114.
      114. 116. 116. 112. 112. 111. 111. 111. 112. 114. 112. 110. 110.
      112. 112. 111. 111. 110. 110. 111. 111. 111. 110. 109. 109. 106.
      106. 105. 105. 105. 107. 107. 107. 107. 107. 109. 109. 107. 107.
      109. 103. 105. 110. 110. 106. 103. 107. 111. 120. 123. 125. 127.
      132. 136. 142. 144. 147. 151. 150. 151. 150. 147. 144. 142. 137.
      136. 126. 119. 135. 149. 139. 128. 129. 125. 122. 122. 120. 119.
      118. 117. 117. 117. 116. 116. 116. 116. 116. 116. 116. 117. 117.
      116. 116. 117. 118. 118. 117. 117. 117. 119. 119. 120. 120. 122.
      122. 96. 98. 93. 84. 74. 72. 70. 70. 72. 74. 76. 80. 78. 68. 56.
      46. 76. 107. 110. 119. 116. 110. 111. 115. 111. 112. 111. 110.
      110. 110. 110. 110. 111. 115. 119. 126. 122. 125. 134. 132. 126.
      130. 134. 133. 132. 130. 130. 131. 131. 130. 130. 129. 126. 122.
      123. 117. 114. 116. 105. 101. 96. 90. 90. 87. 85. 84. 87. 90. 87.
      82. 80. 80. 80. 78. 78. 76. 74. 72. 70. 80. 74. 70. 76. 82. 82.
      85. 85. 84. 92. 92. 92. 82. 84. 90. 85. 82. 89. 89. 82. 74. 80.
      85. 82. 80. 80. 74. 61. 78. 143. 156. 126. 129. 123. 122. 122.
      123. 123. 122. 122. 123. 122. 119. 119. 118. 118. 118. 118. 118.
      118. 120. 122. 123. 123. 123. 120. 120. 120. 119. 119. 122. 122.
      122. 123. 123. 99. 99. 102. 103. 105. 105. 106. 109. 110. 111.
      112. 114. 114. 117. 120. 119. 111. 105. 105. 109. 111. 110. 110.
      110. 109. 112. 116. 120. 126. 133. 142. 149. 152. 156. 159. 168.
      178. 151. 114. 131. 151. 131. 131. 135. 133. 130. 126. 125. 119.
      114. 107. 96. 87. 84. 87. 89. 82. 74. 70. 80. 90. 89. 80. 76. 85.
      78. 56. 53. 53. 70. 76. 72. 68. 66. 72. 76. 84. 92. 74. 43. 61.
      106. 90. 56. 66. 68. 59. 76. 92. 164. 118. 66. 43. 28. 43. 72. 89.
      103. 105. 90. 78. 85. 92. 90. 89. 80. 50. 53. 126. 172. 130. 126.
      125. 126. 126. 124. 124. 123. 123. 124. 124. 124. 124. 124. 123.
      120. 120. 120. 120. 120. 122. 124. 124. 123. 123. 124. 125. 126.
      127. 127. 127. 127. 128. 129. 103. 103. 105. 106. 106. 107. 109.
      110. 110. 111. 111. 112. 112. 112. 112. 114. 117. 117. 117. 117.
      118. 120. 122. 120. 123. 129. 132. 134. 139. 143. 144. 146. 147.
      150. 154. 164. 171. 64. 0. 92. 146. 80. 85. 87. 85. 85. 87. 89.
      72. 56. 64. 107. 151. 132. 90. 68. 56. 84. 148. 149. 85. 53. 66.
      66. 80. 143. 140. 53. 34. 61. 80. 74. 66. 72. 78. 74. 84. 93. 84.
      39. 50. 134. 120. 78. 95. 85. 66. 66. 85. 156. 114. 56. 39. 39.
      46. 59. 66. 74. 95. 98. 85. 80. 84. 87. 85. 85. 56. 43. 118. 171.
      137. 123. 128. 126. 125. 126. 126. 126. 124. 125. 126. 125. 125.
      126. 127. 128. 128. 128. 128. 128. 128. 128. 127. 127. 127. 127.
      128. 129. 130. 130. 131. 132. 132. 133. 106. 107. 109. 109. 109.
      110. 111. 112. 114. 114. 114. 114. 115. 117. 118. 119. 119. 120.
      120. 120. 120. 122. 125. 129. 131. 131. 130. 133. 134. 134. 134.
      133. 134. 136. 149. 160. 164. 53. 0. 95. 132. 85. 93. 92. 89. 93.
      92. 87. 72. 39. 34. 78. 125. 133. 118. 93. 66. 64. 107. 129. 90.
      66. 76. 80. 92. 101. 80. 56. 39. 61. 89. 93. 103. 103. 87. 87. 90.
      80. 66. 53. 53. 64. 68. 70. 70. 68. 68. 66. 74. 80. 92. 70. 64.
      76. 80. 76. 82. 87. 74. 80. 87. 92. 96. 74. 72. 87. 56. 39. 109.
      167. 147. 129. 123. 125. 127. 127. 127. 127. 126. 127. 128. 128.
      128. 130. 130. 131. 131. 131. 131. 131. 131. 131. 131. 131. 132.
      133. 133. 133. 133. 132. 132. 134. 136. 137. 110. 110. 111. 111.
      112. 112. 112. 115. 116. 116. 117. 117. 119. 122. 122. 123. 123.
      124. 125. 126. 128. 129. 129. 129. 130. 130. 128. 130. 130. 130.
      132. 132. 132. 133. 144. 152. 154. 53. 0. 87. 127. 82. 85. 89. 82.
      84. 76. 78. 84. 80. 64. 46. 43. 61. 64. 72. 72. 68. 66. 76. 82.
      82. 84. 84. 84. 76. 78. 84. 80. 87. 92. 84. 64. 61. 76. 66. 64.
      64. 70. 90. 109. 111. 110. 115. 112. 106. 101. 78. 66. 66. 80. 85.
      85. 85. 85. 82. 70. 59. 82. 145. 160. 132. 92. 61. 68. 87. 59. 39.
      105. 167. 151. 130. 131. 132. 131. 132. 131. 129. 129. 130. 132.
      133. 133. 132. 133. 134. 134. 134. 133. 133. 134. 134. 135. 135.
      136. 137. 138. 139. 139. 137. 137. 138. 140. 140. 111. 112. 114.
      115. 116. 116. 118. 118. 119. 119. 119. 120. 123. 123. 123. 123.
      124. 125. 127. 127. 128. 129. 129. 129. 128. 128. 129. 131. 131.
      131. 131. 130. 130. 129. 144. 152. 151. 50. 0. 82. 122. 84. 82.
      70. 64. 76. 98. 112. 117. 112. 116. 119. 98. 70. 53. 68. 70. 61.
      76. 87. 99. 111. 106. 98. 102. 98. 102. 137. 144. 129. 122. 101.
      56. 53. 76. 61. 87. 136. 144. 124. 98. 84. 89. 85. 84. 101. 127.
      150. 130. 78. 64. 74. 82. 85. 76. 59. 70. 120. 159. 140. 99. 64.
      56. 70. 80. 90. 70. 39. 90. 162. 158. 139. 133. 136. 137. 137.
      137. 137. 137. 137. 137. 137. 137. 137. 136. 135. 134. 135. 137.
      139. 137. 136. 140. 141. 141. 138. 137. 138. 140. 141. 141. 143.
      144. 144. 114. 116. 117. 116. 117. 118. 120. 122. 122. 123. 123.
      125. 125. 125. 125. 125. 126. 127. 127. 128. 129. 129. 129. 129.
      129. 129. 130. 130. 130. 132. 131. 128. 128. 132. 137. 155. 146.
      46. 0. 74. 115. 80. 53. 64. 132. 152. 124. 87. 80. 76. 66. 85.
      142. 160. 109. 59. 64. 72. 76. 76. 70. 66. 68. 76. 93. 105. 131.
      144. 116. 82. 61. 59. 70. 80. 66. 59. 111. 120. 87. 59. 64. 72.
      70. 66. 66. 68. 102. 159. 146. 93. 59. 68. 78. 70. 68. 102. 148.
      157. 134. 109. 96. 117. 122. 112. 90. 72. 64. 50. 66. 142. 176.
      151. 138. 138. 140. 140. 140. 141. 141. 141. 141. 141. 140. 138.
      138. 137. 137. 138. 139. 140. 143. 144. 145. 145. 144. 143. 141.
      141. 142. 142. 142. 144. 144. 144. 116. 117. 118. 118. 119. 120.
      123. 123. 124. 124. 125. 126. 128. 129. 128. 128. 129. 130. 130.
      130. 131. 132. 132. 131. 131. 131. 131. 131. 133. 134. 131. 131.
      132. 136. 143. 157. 138. 39. 0. 72. 112. 84. 59. 50. 129. 156.
      102. 78. 90. 95. 76. 85. 142. 151. 101. 61. 61. 82. 89. 84. 76.
      56. 72. 128. 117. 90. 117. 119. 115. 123. 125. 105. 78. 66. 74.
      82. 80. 78. 76. 80. 72. 68. 80. 107. 138. 150. 124. 92. 70. 66.
      66. 72. 80. 109. 146. 152. 118. 85. 76. 85. 80. 92. 76. 123. 171.
      142. 78. 39. 50. 123. 186. 158. 139. 140. 141. 142. 143. 144. 144.
      144. 144. 144. 144. 143. 142. 142. 142. 143. 144. 144. 145. 145.
      144. 144. 142. 141. 141. 144. 146. 148. 148. 145. 144. 142. 119.
      122. 124. 124. 124. 125. 127. 127. 127. 127. 127. 128. 130. 130.
      131. 130. 129. 129. 129. 131. 131. 133. 134. 134. 135. 134. 134.
      135. 136. 138. 138. 137. 136. 134. 149. 162. 129. 34. 0. 68. 116.
      89. 72. 53. 76. 124. 144. 132. 112. 105. 106. 112. 126. 138. 125.
      95. 66. 70. 80. 87. 84. 80. 76. 70. 76. 82. 74. 76. 72. 59. 114.
      189. 162. 80. 56. 70. 84. 76. 70. 74. 92. 124. 141. 129. 98. 68.
      59. 66. 76. 80. 68. 56. 96. 152. 167. 140. 89. 64. 80. 89. 78. 78.
      39. 103. 183. 159. 95. 46. 28. 106. 188. 172. 145. 145. 148. 145.
      144. 146. 146. 145. 146. 147. 145. 145. 145. 144. 144. 144. 144.
      145. 144. 144. 144. 144. 144. 144. 145. 148. 150. 149. 146. 144.
      143. 142. 122. 125. 128. 128. 129. 129. 130. 131. 131. 132. 132.
      133. 132. 131. 133. 136. 135. 134. 134. 135. 135. 136. 138. 140.
      141. 140. 138. 139. 138. 138. 139. 138. 143. 145. 152. 172. 123.
      34. 0. 59. 116. 84. 56. 117. 160. 124. 84. 64. 66. 72. 72. 66. 46.
      59. 173. 175. 93. 46. 50. 96. 131. 133. 107. 80. 82. 89. 89. 93.
      82. 64. 105. 175. 160. 82. 50. 64. 80. 92. 109. 137. 153. 135.
      101. 82. 85. 98. 105. 107. 109. 109. 72. 66. 61. 61. 90. 124. 129.
      119. 111. 111. 110. 106. 109. 119. 101. 68. 70. 61. 34. 85. 182.
      186. 151. 145. 149. 149. 148. 147. 147. 148. 149. 148. 147. 148.
      147. 146. 146. 146. 146. 148. 148. 148. 149. 151. 151. 151. 151.
      151. 151. 151. 152. 153. 152. 151. 127. 128. 129. 130. 131. 133.
      135. 137. 137. 137. 138. 137. 136. 136. 138. 139. 138. 137. 138.
      138. 140. 140. 140. 141. 141. 143. 141. 139. 141. 143. 142. 139.
      138. 142. 163. 183. 103. 21. 0. 46. 112. 117. 59. 82. 132. 138.
      119. 109. 99. 92. 96. 103. 107. 116. 142. 119. 74. 68. 72. 68. 80.
      103. 119. 120. 111. 109. 107. 107. 114. 120. 112. 90. 70. 68. 70.
      66. 80. 107. 105. 99. 96. 93. 95. 96. 98. 98. 95. 95. 93. 101. 70.
      72. 84. 84. 76. 74. 78. 85. 90. 89. 90. 93. 93. 89. 90. 96. 103.
      107. 103. 132. 175. 178. 155. 146. 149. 149. 146. 145. 147. 150.
      147. 144. 145. 145. 144. 145. 145. 144. 144. 144. 145. 150. 150.
      149. 150. 151. 151. 149. 149. 150. 150. 151. 151. 151. 130. 131.
      133. 135. 136. 137. 138. 138. 138. 139. 140. 141. 140. 139. 140.
      141. 140. 141. 143. 143. 144. 144. 144. 144. 144. 145. 147. 145.
      147. 147. 144. 145. 147. 149. 170. 195. 87. 0. 0. 28. 90. 126. 82.
      68. 59. 76. 92. 99. 93. 93. 95. 90. 95. 92. 70. 61. 74. 89. 89.
      87. 78. 74. 80. 82. 85. 90. 93. 92. 96. 92. 85. 93. 103. 106. 109.
      107. 110. 106. 106. 110. 115. 117. 117. 120. 124. 127. 127. 130.
      134. 133. 144. 147. 147. 150. 151. 150. 149. 151. 150. 151. 151.
      153. 154. 156. 155. 153. 152. 152. 156. 155. 148. 146. 151. 149.
      149. 147. 143. 141. 141. 141. 140. 141. 143. 143. 143. 143. 141.
      141. 140. 133. 133. 143. 144. 144. 141. 140. 144. 151. 153. 148.
      145. 147. 154. 158. 134. 135. 137. 138. 139. 140. 141. 141. 141.
      141. 141. 141. 142. 143. 142. 142. 143. 144. 145. 147. 147. 147.
      146. 146. 147. 147. 148. 149. 149. 149. 148. 149. 149. 152. 164.
      186. 137. 89. 82. 90. 99. 107. 115. 115. 117. 117. 117. 116. 120.
      124. 122. 124. 125. 119. 123. 130. 137. 143. 146. 145. 150. 154.
      154. 156. 156. 155. 156. 158. 158. 158. 157. 156. 156. 156. 156.
      157. 156. 156. 155. 153. 151. 151. 153. 152. 149. 147. 146. 145.
      147. 146. 144. 143. 139. 140. 140. 138. 134. 130. 128. 130. 132.
      131. 130. 130. 126. 123. 122. 119. 118. 122. 123. 124. 125. 123.
      124. 125. 125. 122. 117. 116. 119. 119. 116. 118. 119. 119. 119.
      124. 130. 132. 132. 133. 134. 141. 141. 137. 150. 167. 164. 151.
      148. 148. 150. 151. 138. 140. 143. 143. 143. 144. 145. 145. 144.
      146. 148. 148. 148. 148. 147. 147. 147. 147. 148. 150. 151. 151.
      152. 152. 152. 150. 150. 151. 153. 154. 155. 156. 156. 156. 156.
      157. 164. 164. 164. 164. 161. 159. 158. 157. 158. 158. 156. 156.
      156. 155. 153. 152. 151. 148. 144. 143. 143. 144. 144. 140. 142.
      142. 137. 131. 128. 127. 126. 123. 120. 119. 119. 120. 122. 122.
      120. 119. 118. 117. 116. 115. 112. 112. 111. 110. 110. 110. 110.
      111. 112. 111. 110. 107. 105. 106. 109. 107. 106. 105. 103. 103.
      107. 110. 107. 103. 102. 102. 105. 105. 106. 105. 106. 109. 110.
      111. 111. 115. 116. 117. 119. 122. 122. 122. 125. 126. 128. 129.
      131. 134. 135. 135. 134. 134. 134. 129. 126. 124. 122. 119. 118.
      117. 115. 115. 112. 111. 144. 146. 147. 149. 151. 153. 156. 158.
      160. 156. 158. 159. 161. 160. 156. 156. 152. 147. 148. 148. 147.
      146. 146. 147. 147. 147. 146. 144. 144. 145. 146. 145. 145. 143.
      139. 137. 135. 132. 129. 126. 125. 125. 126. 127. 124. 120. 118.
      118. 117. 118. 120. 118. 116. 115. 114. 112. 112. 112. 114. 114.
      112. 112. 110. 109. 107. 107. 106. 106. 107. 106. 105. 105. 105.
      103. 103. 105. 105. 105. 103. 105. 106. 107. 107. 107. 106. 106.
      106. 106. 107. 109. 111. 112. 114. 116. 117. 119. 120. 122. 124.
      124. 124. 125. 127. 129. 130. 129. 130. 130. 131. 133. 133. 133.
      132. 130. 130. 129. 127. 127. 127. 126. 124. 124. 124. 122. 119.
      118. 117. 117. 116. 115. 112. 112. 112. 112. 114. 114. 114. 112.
      112. 114. 115. 115. 114. 114. 150. 151. 153. 153. 152. 151. 151.
      151. 150. 149. 151. 149. 144. 137. 135. 141. 142. 137. 132. 128.
      125. 125. 125. 125. 124. 123. 122. 120. 118. 118. 118. 117. 118.
      118. 114. 115. 115. 116. 115. 114. 111. 110. 110. 111. 111. 111.
      111. 110. 107. 107. 111. 111. 110. 111. 111. 112. 112. 114. 116.
      117. 118. 118. 118. 119. 122. 123. 123. 125. 126. 125. 126. 128.
      129. 128. 128. 128. 131. 132. 131. 131. 130. 130. 132. 134. 134.
      132. 132. 132. 131. 129. 129. 130. 131. 129. 127. 126. 126. 127.
      128. 127. 123. 123. 123. 123. 122. 119. 119. 119. 119. 119. 119.
      120. 119. 118. 117. 117. 118. 118. 117. 117. 117. 117. 117. 116.
      115. 115. 115. 117. 117. 117. 117. 117. 116. 116. 116. 115. 115.
      114. 114. 112. 111. 111. 111. 111. 142. 140. 137. 134. 131. 130.
      129. 129. 128. 130. 131. 129. 127. 127. 127. 131. 130. 128. 127.
      125. 125. 125. 126. 129. 129. 128. 126. 127. 126. 125. 126. 126.
      126. 127. 125. 127. 130. 132. 132. 132. 132. 132. 133. 133. 134.
      135. 135. 134. 133. 132. 133. 135. 135. 134. 134. 133. 132. 132.
      133. 133. 132. 132. 132. 132. 132. 132. 132. 131. 129. 129. 128.
      127. 127. 127. 128. 127. 125. 125. 125. 125. 124. 122. 122. 123.
      123. 122. 119. 118. 119. 119. 119. 120. 120. 120. 119. 120. 120.
      120. 122. 122. 119. 119. 119. 120. 122. 120. 119. 119. 119. 119.
      120. 120. 119. 119. 118. 118. 117. 117. 116. 115. 115. 114. 112.
      114. 115. 115. 115. 112. 111. 111. 111. 111. 111. 111. 110. 109.
      109. 109. 110. 109. 109. 109. 110. 110. 144. 143. 140. 139. 139.
      139. 139. 139. 139. 137. 137. 138. 141. 141. 138. 137. 136. 136.
      136. 136. 137. 138. 136. 135. 133. 134. 135. 135. 136. 135. 134.
      133. 134. 134. 132. 132. 132. 131. 128. 126. 127. 128. 128. 128.
      127. 126. 125. 125. 126. 126. 125. 124. 123. 123. 123. 123. 123.
      123. 123. 123. 123. 123. 123. 123. 123. 123. 123. 124. 124. 123.
      123. 124. 124. 124. 125. 126. 126. 126. 125. 125. 126. 127. 126.
      125. 125. 124. 124. 123. 122. 123. 123. 122. 122. 122. 123. 122.
      119. 119. 119. 119. 118. 119. 119. 119. 118. 117. 116. 116. 116.
      117. 115. 112. 112. 114. 114. 114. 115. 115. 114. 114. 114. 114.
      114. 115. 115. 116. 116. 116. 118. 118. 118. 117. 118. 117. 117.
      117. 117. 117. 116. 115. 114. 112. 110. 109. 119. 120. 122. 120.
      119. 122. 122. 122. 120. 119. 119. 119. 120. 122. 122. 120. 120.
      122. 122. 122. 122. 123. 123. 124. 124. 123. 123. 125. 126. 126.
      125. 124. 124. 124. 125. 125. 125. 126. 126. 125. 126. 126. 125.
      124. 124. 124. 125. 125. 125. 126. 126. 126. 125. 125. 125. 125.
      125. 125. 125. 124. 124. 124. 124. 124. 124. 123. 123. 124. 124.
      123. 123. 123. 123. 123. 124. 124. 124. 123. 122. 122. 122. 122.
      122. 122. 122. 120. 120. 120. 120. 119. 118. 118. 119. 120. 120.
      118. 117. 117. 116. 116. 116. 118. 119. 119. 119. 120. 122. 123.
      120. 118. 118. 120. 122. 120. 118. 118. 117. 116. 115. 112. 110.
      109. 107. 105. 103. 102. 99. 96. 95. 90. 87. 85. 80. 76. 72. 72.
      70. 68. 64. 61. 59. 56. 56. 56. 124. 124. 124. 123. 122. 123. 123.
      124. 124. 124. 124. 125. 125. 125. 125. 125. 126. 125. 126. 126.
      125. 125. 125. 125. 125. 125. 125. 125. 126. 126. 126. 125. 125.
      125. 124. 125. 125. 125. 126. 125. 125. 124. 123. 122. 123. 124.
      124. 124. 124. 124. 125. 124. 124. 123. 122. 122. 122. 122. 123.
      123. 122. 122. 122. 120. 120. 120. 120. 122. 122. 122. 122. 122.
      123. 123. 122. 120. 119. 119. 119. 119. 119. 119. 120. 120. 119.
      119. 119. 119. 122. 123. 122. 119. 123. 125. 123. 120. 122. 122.
      120. 118. 117. 112. 107. 106. 105. 102. 98. 95. 89. 87. 82. 80.
      78. 72. 72. 68. 66. 64. 59. 56. 53. 53. 53. 53. 53. 50. 50. 50.
      50. 50. 50. 53. 53. 59. 59. 59. 59. 61. 64. 64. 59. 59. 56. 56.</_>
    <_>
      125. 125. 124. 125. 125. 126. 125. 125. 126. 126. 125. 127. 127.
      126. 127. 129. 129. 128. 129. 129. 128. 128. 129. 128. 129. 129.
      128. 128. 128. 125. 127. 125. 124. 123. 118. 117. 120. 119. 119.
      119. 117. 118. 118. 120. 127. 131. 133. 140. 141. 141. 142. 142.
      144. 143. 142. 142. 141. 144. 143. 142. 144. 144. 142. 141. 142.
      141. 140. 141. 143. 143. 141. 142. 143. 143. 142. 143. 140. 140.
      143. 143. 143. 144. 143. 142. 143. 143. 143. 140. 141. 140. 137.
      138. 137. 137. 134. 133. 133. 129. 132. 124. 112. 106. 102. 99.
      96. 95. 95. 93. 93. 95. 95. 95. 96. 95. 95. 96. 96. 96. 96. 95.
      98. 96. 96. 96. 96. 99. 96. 96. 98. 98. 98. 98. 96. 96. 96. 98.
      99. 99. 99. 98. 98. 98. 98. 99. 124. 124. 123. 124. 124. 124. 123.
      123. 125. 124. 123. 124. 126. 124. 124. 126. 125. 126. 128. 127.
      127. 129. 128. 129. 129. 129. 128. 130. 129. 131. 131. 132. 130.
      130. 131. 132. 133. 133. 132. 134. 132. 132. 133. 135. 137. 138.
      139. 141. 139. 140. 141. 140. 139. 142. 141. 140. 138. 142. 140.
      142. 142. 140. 142. 141. 140. 141. 140. 139. 140. 141. 140. 139.
      140. 141. 140. 140. 139. 138. 141. 142. 142. 143. 142. 140. 142.
      141. 141. 143. 142. 142. 142. 143. 142. 143. 141. 142. 141. 138.
      137. 138. 137. 130. 125. 114. 109. 106. 102. 102. 99. 98. 99. 96.
      93. 93. 96. 96. 96. 95. 93. 96. 95. 93. 96. 96. 98. 96. 95. 95.
      98. 95. 95. 96. 98. 96. 96. 93. 95. 96. 96. 92. 93. 96. 96. 98.
      123. 124. 124. 124. 124. 125. 126. 126. 126. 125. 123. 124. 124.
      126. 124. 126. 125. 125. 125. 126. 127. 127. 127. 127. 126. 127.
      128. 128. 126. 127. 129. 129. 129. 128. 129. 132. 132. 131. 131.
      132. 132. 131. 132. 133. 134. 133. 133. 134. 135. 136. 135. 134.
      135. 135. 137. 137. 135. 136. 136. 138. 136. 136. 137. 137. 136.
      135. 137. 137. 135. 137. 138. 137. 138. 138. 138. 137. 137. 136.
      139. 141. 139. 139. 140. 138. 141. 141. 140. 141. 141. 140. 140.
      141. 141. 142. 141. 142. 140. 144. 141. 141. 143. 141. 142. 137.
      130. 122. 117. 114. 111. 112. 111. 109. 106. 106. 107. 109. 106.
      105. 103. 105. 105. 102. 103. 105. 105. 103. 102. 101. 101. 101.
      103. 101. 102. 103. 103. 101. 102. 105. 102. 101. 103. 103. 103.
      105. 123. 124. 124. 124. 124. 124. 125. 126. 123. 124. 124. 124.
      124. 124. 124. 124. 123. 123. 124. 123. 124. 122. 122. 126. 126.
      125. 125. 128. 127. 126. 126. 127. 124. 127. 127. 126. 126. 127.
      128. 128. 128. 129. 129. 130. 132. 131. 130. 130. 131. 133. 132.
      131. 134. 132. 133. 134. 133. 134. 135. 136. 135. 135. 133. 134.
      132. 135. 133. 135. 134. 134. 136. 135. 135. 136. 136. 136. 134.
      135. 137. 138. 137. 137. 138. 138. 138. 139. 139. 139. 140. 138.
      140. 139. 141. 139. 140. 139. 139. 141. 139. 139. 140. 140. 140.
      142. 142. 140. 138. 135. 132. 133. 130. 130. 129. 129. 129. 129.
      130. 130. 129. 128. 126. 127. 126. 125. 125. 124. 123. 123. 123.
      123. 123. 124. 126. 127. 125. 126. 128. 128. 127. 128. 128. 128.
      126. 128. 120. 122. 120. 120. 120. 120. 122. 120. 122. 122. 122.
      120. 123. 122. 122. 122. 122. 122. 123. 122. 120. 120. 119. 122.
      122. 119. 119. 123. 124. 122. 123. 123. 123. 124. 124. 123. 125.
      126. 126. 128. 126. 125. 126. 126. 127. 126. 127. 128. 126. 127.
      128. 128. 129. 129. 129. 128. 128. 129. 131. 132. 131. 129. 130.
      130. 131. 131. 132. 132. 130. 133. 135. 135. 134. 135. 134. 131.
      133. 134. 135. 134. 135. 136. 136. 135. 136. 137. 135. 137. 137.
      136. 137. 137. 137. 136. 137. 138. 138. 139. 138. 137. 137. 137.
      137. 139. 138. 138. 140. 139. 138. 137. 137. 138. 139. 139. 139.
      140. 141. 142. 142. 142. 141. 140. 140. 139. 139. 139. 140. 140.
      141. 142. 143. 142. 142. 143. 143. 144. 144. 142. 144. 144. 144.
      144. 144. 144. 119. 120. 119. 118. 118. 119. 119. 119. 119. 119.
      120. 118. 120. 119. 117. 111. 109. 107. 107. 109. 109. 107. 107.
      109. 110. 107. 110. 111. 112. 114. 115. 114. 116. 115. 116. 114.
      117. 118. 119. 124. 124. 122. 122. 122. 123. 124. 126. 126. 127.
      128. 126. 125. 127. 126. 127. 127. 127. 128. 128. 129. 130. 126.
      128. 128. 129. 129. 129. 128. 129. 129. 128. 130. 130. 129. 130.
      128. 128. 130. 131. 131. 132. 133. 132. 131. 132. 133. 133. 133.
      132. 133. 134. 134. 133. 133. 135. 135. 133. 134. 135. 134. 134.
      135. 137. 137. 136. 137. 136. 136. 135. 135. 135. 135. 137. 136.
      137. 138. 138. 138. 138. 140. 140. 142. 140. 140. 139. 138. 139.
      139. 141. 141. 140. 142. 144. 143. 144. 145. 145. 144. 145. 144.
      146. 147. 144. 144. 118. 117. 118. 116. 117. 119. 118. 117. 118.
      118. 119. 117. 119. 110. 95. 92. 96. 93. 92. 92. 93. 96. 95. 95.
      93. 95. 93. 93. 93. 95. 96. 95. 95. 96. 99. 98. 96. 96. 99. 102.
      102. 101. 103. 105. 106. 107. 109. 110. 109. 112. 115. 115. 114.
      115. 115. 118. 118. 120. 120. 119. 123. 124. 124. 126. 127. 127.
      127. 128. 129. 128. 124. 126. 129. 128. 129. 129. 129. 130. 129.
      130. 131. 131. 131. 131. 129. 131. 126. 126. 131. 130. 130. 130.
      131. 132. 131. 131. 130. 131. 132. 131. 131. 132. 132. 131. 132.
      133. 133. 133. 132. 133. 134. 133. 135. 134. 135. 136. 136. 136.
      137. 137. 138. 138. 139. 138. 138. 139. 139. 138. 140. 141. 140.
      142. 142. 142. 142. 143. 142. 145. 145. 143. 144. 145. 144. 144.
      115. 116. 116. 114. 115. 117. 116. 117. 117. 115. 116. 116. 114.
      93. 84. 102. 115. 114. 115. 114. 112. 112. 110. 110. 110. 107.
      107. 107. 107. 103. 105. 105. 102. 103. 102. 102. 101. 101. 96.
      98. 95. 96. 98. 98. 96. 95. 93. 95. 96. 95. 93. 95. 93. 93. 93.
      95. 95. 96. 99. 99. 99. 99. 99. 102. 103. 103. 106. 106. 106. 106.
      106. 107. 109. 109. 109. 114. 112. 114. 116. 116. 118. 119. 123.
      123. 122. 120. 123. 122. 124. 127. 124. 129. 127. 127. 131. 129.
      131. 130. 129. 130. 129. 128. 128. 129. 128. 129. 129. 129. 128.
      128. 130. 128. 129. 130. 134. 134. 134. 134. 134. 135. 135. 135.
      136. 135. 133. 136. 134. 136. 137. 136. 139. 137. 140. 140. 141.
      141. 141. 143. 142. 142. 144. 144. 141. 144. 116. 115. 115. 115.
      116. 116. 116. 115. 115. 116. 114. 111. 109. 90. 85. 114. 124.
      126. 127. 125. 124. 125. 124. 124. 122. 122. 124. 128. 126. 118.
      120. 124. 128. 125. 120. 119. 120. 119. 118. 122. 122. 122. 120.
      122. 122. 118. 115. 112. 114. 114. 112. 110. 109. 110. 107. 109.
      106. 103. 105. 103. 103. 103. 102. 102. 101. 99. 101. 101. 101.
      98. 96. 93. 95. 95. 95. 95. 96. 95. 92. 92. 98. 96. 96. 96. 95.
      96. 96. 98. 98. 96. 99. 99. 101. 101. 102. 106. 107. 106. 106.
      109. 109. 110. 110. 107. 111. 112. 112. 112. 110. 112. 112. 112.
      112. 116. 114. 115. 118. 118. 117. 119. 119. 124. 122. 120. 120.
      123. 123. 123. 128. 128. 129. 132. 135. 139. 139. 140. 141. 140.
      141. 142. 141. 141. 141. 141. 106. 106. 107. 107. 109. 110. 109.
      110. 111. 109. 106. 103. 101. 85. 93. 119. 125. 125. 126. 124.
      125. 127. 127. 125. 124. 133. 122. 102. 93. 98. 102. 93. 102. 117.
      132. 123. 123. 125. 130. 120. 107. 102. 105. 106. 107. 119. 132.
      126. 123. 126. 126. 127. 125. 124. 122. 122. 123. 122. 122. 127.
      123. 122. 120. 120. 123. 123. 120. 120. 120. 119. 116. 116. 117.
      117. 119. 119. 119. 118. 115. 110. 111. 112. 109. 110. 109. 103.
      102. 105. 103. 102. 101. 96. 98. 101. 96. 93. 95. 96. 95. 96. 98.
      96. 96. 92. 92. 95. 98. 93. 92. 92. 92. 92. 93. 93. 93. 93. 95.
      92. 92. 93. 93. 95. 98. 98. 96. 98. 96. 101. 101. 102. 105. 107.
      109. 120. 137. 136. 137. 138. 138. 139. 140. 140. 140. 139. 89.
      89. 89. 90. 92. 90. 90. 92. 90. 92. 92. 90. 89. 85. 98. 126. 124.
      126. 128. 126. 125. 126. 126. 126. 128. 123. 85. 84. 109. 114.
      118. 111. 92. 82. 114. 132. 125. 130. 110. 82. 85. 107. 111. 109.
      93. 82. 107. 133. 129. 122. 99. 115. 132. 126. 124. 123. 124. 126.
      120. 109. 126. 128. 122. 124. 124. 127. 124. 123. 125. 124. 124.
      126. 129. 127. 118. 112. 107. 114. 120. 127. 131. 122. 122. 122.
      126. 125. 123. 120. 120. 120. 124. 126. 124. 118. 117. 118. 118.
      118. 116. 116. 116. 115. 117. 116. 116. 115. 111. 111. 110. 110.
      111. 110. 109. 107. 105. 103. 102. 101. 101. 99. 98. 101. 99. 95.
      93. 98. 93. 93. 95. 90. 89. 89. 90. 96. 116. 130. 132. 134. 137.
      136. 136. 138. 136. 137. 85. 85. 85. 85. 85. 84. 85. 84. 84. 85.
      84. 85. 82. 89. 103. 122. 131. 133. 135. 137. 133. 125. 125. 125.
      130. 109. 76. 101. 127. 125. 125. 126. 107. 74. 103. 128. 125.
      125. 102. 96. 115. 123. 120. 126. 119. 82. 85. 119. 132. 118. 80.
      96. 127. 126. 125. 127. 127. 129. 110. 82. 118. 129. 125. 124.
      124. 126. 124. 122. 125. 127. 126. 129. 114. 92. 89. 101. 103. 99.
      89. 89. 118. 134. 124. 127. 123. 103. 93. 95. 99. 99. 96. 99. 120.
      135. 124. 120. 122. 123. 124. 122. 124. 130. 120. 110. 103. 120.
      128. 123. 124. 115. 118. 116. 117. 115. 114. 118. 119. 119. 120.
      122. 118. 116. 118. 117. 117. 114. 114. 114. 115. 109. 96. 78. 89.
      90. 109. 118. 124. 128. 130. 133. 134. 135. 133. 133. 85. 85. 85.
      85. 85. 85. 85. 85. 85. 85. 85. 82. 85. 85. 102. 120. 133. 134.
      140. 139. 132. 128. 125. 125. 125. 107. 78. 101. 128. 125. 122.
      127. 106. 78. 105. 126. 123. 122. 120. 122. 120. 128. 134. 120.
      89. 80. 102. 123. 129. 114. 80. 103. 125. 126. 130. 120. 120. 119.
      96. 85. 120. 124. 125. 124. 126. 124. 125. 125. 125. 125. 128.
      118. 84. 84. 115. 125. 120. 124. 116. 76. 80. 125. 131. 123. 95.
      80. 96. 114. 118. 116. 109. 85. 78. 112. 132. 122. 122. 125. 124.
      128. 130. 109. 92. 85. 82. 114. 125. 125. 126. 93. 89. 95. 95. 95.
      93. 99. 98. 96. 96. 117. 124. 120. 123. 122. 123. 122. 119. 119.
      122. 112. 96. 82. 85. 93. 107. 114. 119. 123. 124. 125. 128. 127.
      128. 127. 85. 85. 85. 85. 85. 85. 85. 85. 85. 85. 85. 84. 84. 85.
      106. 115. 117. 122. 125. 126. 125. 126. 125. 125. 129. 101. 76.
      110. 127. 120. 123. 124. 101. 78. 115. 127. 124. 125. 123. 125.
